{"model_type": "Sequential", "descriptors": [{"layer": "Input2D", "height": 1, "width": 1, "channel": 9, "batch": 1}, {"layer": "Dense2D", "units": 128}, {"layer": "Bias2D", "units": 128}, {"layer": "BatchNormalization", "epsilon": 0.001}, {"layer": "TanH"}, {"layer": "Dense2D", "units": 128}, {"layer": "Bias2D", "units": 128}, {"layer": "BatchNormalization", "epsilon": 0.001}, {"layer": "TanH"}, {"layer": "Dense2D", "units": 3}, {"layer": "Bias2D", "units": 3}], "weights": [[[[[-0.12950047850608826, 0.3039485812187195, 0.27275350689888, 0.32205191254615784, -0.462714284658432, 0.05143178626894951, -0.02002941444516182, 0.9376332759857178, -0.044485729187726974, 0.12078347057104111, 0.0154942711815238, -0.7647100687026978, -1.0837979316711426, -0.8956480026245117, -0.5099626183509827, -0.628865659236908, -0.16620148718357086, 0.5962070822715759, 0.3781733214855194, -0.27804893255233765, -0.282499760389328, -0.38550272583961487, 0.4754179120063782, -0.19196964800357819, -0.03589059039950371, 0.41375237703323364, -0.016913477331399918, 0.8353523015975952, 0.20760667324066162, -0.024940581992268562, 0.17934679985046387, 0.4397050738334656, -0.720011293888092, 0.14779505133628845, 1.3089898824691772, 0.49902987480163574, -0.31111395359039307, 0.06186707690358162, -0.351046621799469, 0.25915247201919556, 0.008116550743579865, 0.6533957719802856, 0.18324242532253265, -0.24055655300617218, 0.1736333668231964, -0.18555530905723572, -0.1904144436120987, 0.0754760205745697, -0.3082556426525116, 0.002925609238445759, 0.3846012055873871, 0.09754262119531631, 0.24431531131267548, 0.5976999998092651, -0.020844290032982826, -0.07049068063497543, 0.0458003394305706, -0.40397220849990845, 0.09626470506191254, 0.09394776076078415, -0.9139302372932434, -0.16209614276885986, -0.03201586753129959, 0.6633362174034119, -0.19215737283229828, -0.2943084239959717, -0.4239938259124756, -0.284005343914032, 0.17645478248596191, 0.11727997660636902, 0.3895305097103119, 0.05638865381479263, 0.4176875650882721, 0.2909187078475952, 0.40656307339668274, 0.5548549294471741, -0.293954998254776, 0.2546008229255676, 0.194231316447258, -0.6925464868545532, -0.31805557012557983, 1.434667706489563, -0.0003173763398081064, -0.5884734988212585, 0.14956919848918915, 1.0416524410247803, 0.13625267148017883, -0.1653852015733719, -0.6318626403808594, 0.19350799918174744, 0.2777458131313324, 0.16812095046043396, -0.3446286618709564, -0.008495859801769257, 0.16746389865875244, 0.012005376629531384, -0.4526897370815277, 0.698383092880249, 0.5274332761764526, -1.0059186220169067, 0.5420015454292297, -0.21554815769195557, 0.12914319336414337, -0.4086321294307709, -0.25791576504707336, -0.26039841771125793, 0.03708670288324356, 0.6546100378036499, -0.743069052696228, 0.2026616781949997, -0.07628074288368225, -0.6887769103050232, -0.556142270565033, -0.11258233338594437, -0.15902142226696014, 0.08327371627092361, 0.05386031046509743, 0.1990826427936554, 0.08696559071540833, -0.03643820807337761, -0.7416244745254517, 0.6531152129173279, -0.5388466119766235, -0.6657965779304504, -0.2478402704000473, -0.04641899839043617, 0.0574774406850338, -0.3555462658405304], [0.8211588263511658, 0.20648960769176483, 0.3957739770412445, -0.5177968144416809, 0.5568786263465881, 1.0145037174224854, -0.7595201730728149, 0.15867279469966888, -0.1797134280204773, 0.9420546293258667, 0.5284458994865417, -0.047363150864839554, -0.5131464600563049, -0.08728586882352829, -0.49407660961151123, 0.05202636867761612, -1.0955100059509277, 0.3428197205066681, -0.4764706492424011, -0.38249924778938293, -0.2931049168109894, 0.3288373053073883, 0.406946063041687, 0.14935903251171112, 0.029435526579618454, -0.020699823275208473, 0.10098966211080551, -0.6173944473266602, -0.6898214221000671, 0.027460908517241478, -0.6160263419151306, 0.37975990772247314, 0.3068602383136749, -0.5215756297111511, -0.0356210395693779, 0.7673594951629639, -0.667465090751648, 0.13090555369853973, 0.3200127184391022, 0.40477660298347473, 0.5250105261802673, -0.24554665386676788, 0.37189802527427673, -0.7172716856002808, 0.07512840628623962, -0.0006214428576640785, -0.21539221704006195, -0.2522697150707245, -0.7225733995437622, 0.8838812112808228, -0.07937266677618027, -0.6554917097091675, 0.5399336218833923, -0.22204700112342834, -0.7192395925521851, 0.12250476330518723, 0.5221131443977356, -0.06719842553138733, -0.6067341566085815, -0.11828146874904633, -0.3255360424518585, -0.6337575316429138, 0.03936486691236496, -0.3392272889614105, 0.0776180848479271, 0.22625267505645752, 0.9412427544593811, -0.22855472564697266, 0.5595704913139343, -0.33457010984420776, -0.5052352547645569, -0.6417033672332764, -0.4449880123138428, 1.2773714065551758, 0.11972536146640778, -0.521181583404541, -0.07918114215135574, 0.42901742458343506, 0.22087396681308746, 0.5636206865310669, -0.5003024339675903, 0.02054033800959587, 0.7449567317962646, -0.5332196354866028, 0.34324997663497925, 0.21211734414100647, -0.5532954931259155, -0.15257233381271362, -0.44972947239875793, -0.8312330842018127, 0.1724776178598404, 0.9128101468086243, -0.341529905796051, -0.01167576014995575, 0.6317973732948303, -0.5017940998077393, -0.0283501036465168, 0.1375844031572342, -0.31760936975479126, -0.7759975790977478, -0.17563247680664062, 0.6323524713516235, 0.9714058637619019, 0.4991208016872406, 0.7776599526405334, 0.2510552704334259, -0.9672783613204956, -0.150239497423172, -0.2584878206253052, 0.09297897666692734, 0.21948689222335815, -0.15682688355445862, -0.5880342125892639, 0.2226007729768753, 0.07459008693695068, -0.404044508934021, 0.20297805964946747, 0.39763182401657104, 0.3848326504230499, 0.06422276049852371, 0.5509228110313416, -0.8459787964820862, -0.30535945296287537, -0.33489087224006653, 0.26685744524002075, -0.006122588645666838, 0.20537711679935455, -0.23546749353408813], [-0.3546586036682129, -0.12547513842582703, -0.7011562585830688, 0.21128270030021667, -0.8066862225532532, 0.0995805487036705, 0.06454810500144958, 0.20940586924552917, -0.07017800956964493, 0.020971151068806648, -0.15584148466587067, -0.1792316436767578, 0.29058194160461426, 0.02380174957215786, -0.1682654768228531, 0.2762695252895355, -0.0915505439043045, -0.5849946737289429, -0.16637133061885834, 0.6318334937095642, -0.7267446517944336, 0.40346771478652954, 0.3395116925239563, -0.03722621873021126, -0.16930986940860748, -0.517612099647522, -0.14433826506137848, -0.14865204691886902, 0.060152724385261536, 0.10768838971853256, 0.5446767210960388, -0.23861752450466156, -0.4053993821144104, -0.05202990397810936, 0.27360785007476807, 0.6471421718597412, -0.25581878423690796, 0.07534073293209076, -0.4031066298484802, -0.39939507842063904, -0.41977134346961975, 0.590350329875946, -0.15071232616901398, 0.3241698741912842, -0.2968734800815582, -0.16576135158538818, -0.06418681889772415, -0.08254531025886536, -0.3079944849014282, -0.028739063069224358, 0.24708576500415802, -0.11785529553890228, -0.7637081742286682, 0.6156274676322937, -0.2369953989982605, 0.11373396962881088, -0.3991873860359192, 0.5389331579208374, -0.7820073366165161, 0.3431234359741211, -0.4150224030017853, -0.8933071494102478, -0.2953106164932251, -0.8814941048622131, -0.0705883651971817, 0.8781464695930481, -0.2028331458568573, 0.18598413467407227, -0.028837310150265694, 0.5225638747215271, 0.013046140782535076, 0.0691494271159172, 0.15684016048908234, -0.16022735834121704, -0.05948292091488838, 0.6154906749725342, -0.34780603647232056, -0.3536819517612457, 1.002040982246399, -0.08211151510477066, -0.7283306121826172, 0.11973834037780762, 0.09598705917596817, 0.3289235234260559, 0.6309208273887634, -0.09933220595121384, -0.33340010046958923, 0.11432085931301117, 0.2964744567871094, 0.20282478630542755, 0.42705416679382324, 0.03946805000305176, 0.03332791104912758, -0.3063109219074249, -0.1941296011209488, -0.7197942733764648, 0.10186354070901871, 0.2523409426212311, -0.6237565279006958, -0.23399637639522552, 0.6753457188606262, 0.5396161079406738, 0.14836813509464264, 0.7177773118019104, -0.20210951566696167, 0.1196681559085846, -0.23999644815921783, -0.41766560077667236, -0.05156268551945686, 0.08035452663898468, -0.12436815351247787, -0.5283846855163574, 0.526900589466095, 0.014955040998756886, -0.7203162312507629, -0.024959726259112358, -0.3161851465702057, 0.41467779874801636, -0.04470537230372429, 0.23373878002166748, -0.4222380220890045, -0.12876059114933014, 0.9710511565208435, -0.4544442594051361, 0.7208525538444519, 0.2552630603313446, 0.12219302356243134, -0.1726222038269043], [-0.35993126034736633, -0.13240393996238708, -0.428886741399765, -0.4013245701789856, -0.4525955021381378, -0.2548312842845917, -0.04077807068824768, 0.06907735019922256, -0.6019909977912903, 0.09007780253887177, -0.025638189166784286, -0.22675523161888123, 0.3219742476940155, -0.2424878180027008, 0.15919803082942963, -0.19073627889156342, -0.6894050240516663, -0.5194507837295532, -0.6545774936676025, -0.4401681423187256, -0.43826058506965637, 0.4618253707885742, 0.3168644905090332, -0.9042044878005981, 0.41990914940834045, -0.3830175995826721, 0.4322972595691681, 0.36626455187797546, 0.9564310908317566, 0.6357485055923462, 0.5995022058486938, -0.0893232449889183, -0.379391610622406, -0.339260071516037, -0.5627362728118896, 0.20279337465763092, 0.23045304417610168, -0.37806469202041626, -0.5255956053733826, -0.00804098043590784, -0.1793723851442337, -0.30049899220466614, 0.1561165601015091, -0.36100858449935913, -0.36126723885536194, 0.5634917616844177, -0.04992315173149109, 0.3462652862071991, -0.44593408703804016, -0.14872634410858154, 0.6987495422363281, 0.0964125469326973, 0.2323264330625534, -0.29455921053886414, 0.08721917867660522, -0.11954907327890396, 0.16192740201950073, -0.08909784257411957, -0.3238513469696045, -0.3339364528656006, 0.10677580535411835, 0.24985164403915405, 0.6423481106758118, -0.11232725530862808, 0.9073044657707214, 0.12482812255620956, 0.04630172997713089, 0.7268496751785278, 0.3877238631248474, -0.3116668164730072, -0.2463524341583252, 0.32974758744239807, -0.17156609892845154, -0.15906597673892975, -0.694291353225708, 0.03909370303153992, 0.3306679129600525, -0.5287824869155884, 0.04246726632118225, 0.0928216353058815, 0.028689928352832794, -0.39410898089408875, -0.2794298529624939, 0.31013742089271545, -0.19907711446285248, -0.2446402609348297, 0.41780200600624084, -0.7569951415061951, 0.2709863483905792, -0.2330745905637741, -0.07047338038682938, -0.6353010535240173, -0.5030738115310669, -0.3654072880744934, -0.7033074498176575, 0.34495678544044495, -0.5686863660812378, -0.6769734621047974, -0.2672170400619507, -0.08139297366142273, 0.3927372992038727, -0.13909894227981567, -0.2209969162940979, -0.3926680088043213, -0.5341300964355469, 0.31391531229019165, 0.3527904748916626, 0.294401615858078, -0.3293216824531555, 0.4592849910259247, -0.17332731187343597, 0.6671118140220642, 0.11957976222038269, 0.7166635990142822, -0.9328344464302063, -0.570966899394989, -0.22923806309700012, 0.4758148789405823, -0.5771148800849915, -1.0770825147628784, 0.09783432632684708, 0.18827155232429504, 0.262646347284317, -0.10646702349185944, -0.006100363563746214, 0.19573505222797394, 0.058462340384721756, -0.8936998844146729], [-0.23460742831230164, 0.079135961830616, -0.5573219656944275, 0.40396735072135925, 0.07625719159841537, -0.6285061240196228, 0.812208890914917, -0.5999318361282349, -0.6129050850868225, -0.6085023880004883, -0.47223109006881714, 0.6329675316810608, -0.029719337821006775, 0.21201984584331512, 0.5715870261192322, -0.1642313450574875, 0.01779458299279213, -0.2712996006011963, 0.622450053691864, -0.4300157427787781, 0.3958612382411957, -0.2640489339828491, 0.581989049911499, 0.4686638116836548, -0.142488032579422, 0.6843599677085876, 0.3431471586227417, -0.04070990905165672, 0.08907599002122879, -0.9356588125228882, 0.43526139855384827, 0.4727127254009247, 0.27579569816589355, 0.8120237588882446, 0.12494468688964844, -0.4295065104961395, 0.810143232345581, 0.10867606103420258, 0.14983391761779785, 0.5775150060653687, -0.007387414108961821, -0.5116786360740662, 0.36009547114372253, 0.0837194174528122, -0.20971080660820007, 0.29758062958717346, -0.828609824180603, 0.7478304505348206, 0.6159440279006958, -0.5412459373474121, 0.3444446623325348, 0.597134530544281, -0.641325831413269, 0.5704465508460999, 0.6194098591804504, 0.20490147173404694, -0.13762687146663666, 0.5540002584457397, 0.2883608937263489, 0.5517309308052063, 0.28831732273101807, -0.026504358276724815, 0.22327660024166107, 0.3962498605251312, 0.7494438290596008, 0.3102529048919678, 0.05796052888035774, -0.24120058119297028, -0.6667158007621765, 0.49667587876319885, 0.5605009198188782, 0.704277753829956, -0.15524786710739136, -0.2172730416059494, 0.055565230548381805, 0.3920300006866455, 0.706985592842102, -0.019470322877168655, -0.13320724666118622, -0.560772716999054, 0.044827863574028015, 0.06473718583583832, -0.20508618652820587, 0.6921435594558716, -0.682462215423584, -0.5982115268707275, 0.6279268860816956, 0.16827282309532166, 0.05000261589884758, 0.5845922231674194, 0.6191421151161194, -0.08083972334861755, -0.2099962830543518, 0.32519906759262085, 0.5350763201713562, 0.2254219949245453, 0.6515027284622192, 0.04295286536216736, -0.5048204660415649, 0.07433384656906128, 0.0840117484331131, 0.041073065251111984, 0.7665624022483826, -0.41843363642692566, -0.3433000147342682, 0.3960636854171753, 0.31342941522598267, 0.5777287483215332, -0.01247741561383009, -0.6638566851615906, -0.20814712345600128, -0.13346508145332336, -0.3050496578216553, -0.7341750264167786, -0.004080081824213266, -0.23562543094158173, 1.2314059734344482, 0.12575466930866241, -0.3360188901424408, 0.07851449400186539, -0.5860136151313782, -0.04437130317091942, 0.33264297246932983, 0.1296837329864502, 0.3624677360057831, 0.8963690400123596, 0.9059525728225708, 0.27289527654647827], [0.36520683765411377, -0.2943502366542816, 0.22326138615608215, -0.30234578251838684, 0.0928589329123497, 0.19906257092952728, 0.13560408353805542, -0.01286823395639658, 0.3828159272670746, -0.10138216614723206, -0.5051193237304688, 0.4195697009563446, 0.00837886892259121, -0.28312164545059204, -0.063805490732193, 0.3155094385147095, -0.15330293774604797, -0.21783778071403503, 0.0051370710134506226, -0.38989371061325073, -0.3008253276348114, -0.2144462764263153, -0.33584076166152954, -0.32680627703666687, 0.42491307854652405, 0.3491833209991455, 0.5870851278305054, 0.3280194401741028, -0.1891181468963623, -0.19392108917236328, -0.24228185415267944, -0.6446911692619324, -0.5865516066551208, 0.0746564194560051, 0.13115531206130981, -0.0794118344783783, 0.02115790545940399, 0.6243777275085449, -0.37017980217933655, 0.017885969951748848, 0.015755312517285347, -0.159822016954422, -0.4626240134239197, 0.30438828468322754, 0.2949598431587219, -0.5790082216262817, -0.2684456706047058, 0.40264663100242615, 0.1744980365037918, -0.24747708439826965, 0.4136364161968231, -0.10081131756305695, -0.04779179394245148, -0.19167014956474304, 0.46858659386634827, 0.4616938829421997, 0.5138689875602722, 0.18403087556362152, 0.08625534921884537, -0.7383723258972168, -0.4989057183265686, 0.24420864880084991, -0.48822060227394104, 0.11356635391712189, 0.1270020604133606, 0.06800659745931625, -0.19509577751159668, -0.2397901564836502, -0.09502832591533661, -0.271526575088501, 0.5627870559692383, 0.13170672953128815, 0.04057684540748596, 0.0845130980014801, 0.041208431124687195, -0.211666539311409, -0.6681697368621826, -0.12548722326755524, 0.47333991527557373, -0.16668932139873505, 0.12314832210540771, -0.2296903282403946, 0.7514163255691528, -0.04790646955370903, 0.0828547403216362, 0.2899611294269562, -0.18265046179294586, 0.5941485166549683, -0.17561611533164978, 0.1469791680574417, -0.5795305371284485, -0.13377311825752258, 0.3034918010234833, -0.5221558213233948, 0.13359293341636658, -0.27997255325317383, -0.5193434357643127, 0.04016523435711861, 0.39547979831695557, 0.18732012808322906, -0.22579406201839447, -0.07074084132909775, -0.13592657446861267, -0.13200710713863373, -0.08560851961374283, 0.38295263051986694, -0.07819443941116333, -0.3252074122428894, 0.10397820174694061, -0.18102523684501648, 0.5738038420677185, -0.021259073168039322, 0.3050992488861084, 0.24696765840053558, -0.007133052684366703, 0.3424651026725769, 0.02639835700392723, 0.08741959184408188, 0.3017064332962036, -0.3592422604560852, 0.1878819614648819, -0.1726519912481308, -0.18180619180202484, -0.5459369421005249, -0.5305493474006653, 0.00532110221683979, -0.1478765606880188, -0.04455244168639183], [0.15020444989204407, 0.2045735865831375, -0.19905437529087067, 0.3751915693283081, -0.1464768350124359, -0.12050069123506546, 0.11035407334566116, -0.08768536895513535, -0.5284990668296814, 0.20386889576911926, 0.3839589059352875, 0.2620605230331421, -0.03129955008625984, -0.7966753840446472, -0.09550847113132477, 0.1648864597082138, -0.11082367599010468, 0.19071772694587708, -0.27659863233566284, 0.10290364921092987, -0.197342187166214, 0.3329019844532013, 0.07697722315788269, 0.04288856312632561, -0.5323261022567749, 0.17444434762001038, 0.5786260962486267, 0.15662074089050293, 0.34760719537734985, -0.003388014156371355, -0.2411012500524521, 0.43011385202407837, 0.27433809638023376, -0.07924062013626099, -0.10353869944810867, 0.030285954475402832, -0.06084956228733063, 0.6252251267433167, -0.4147471487522125, -0.20494675636291504, 0.10439293831586838, 0.09000203758478165, 0.5305418968200684, -0.26445120573043823, 0.1675436645746231, -0.3598468601703644, 0.741960346698761, -0.02414609305560589, 0.1994326263666153, 0.12571857869625092, -0.519225537776947, -0.17481808364391327, 0.07959038764238358, 0.26333004236221313, -0.01061150524765253, -1.130234718322754, 0.2739856243133545, -0.2922291159629822, 0.3509220480918884, 0.2545355260372162, 0.2991381585597992, -0.09450622648000717, 0.034648194909095764, 0.0895438864827156, -0.2686714231967926, 0.3991723954677582, 0.23170657455921173, 0.1896209865808487, 0.00935577042400837, 0.42851772904396057, 0.07969637960195541, -0.2613358199596405, -0.4120878279209137, 0.11308637261390686, 0.6148317456245422, -0.059282030910253525, 0.21024687588214874, -0.6359558701515198, 0.14925509691238403, 0.17745499312877655, -0.5432120561599731, 0.03185585141181946, -0.4653811454772949, 0.2546907067298889, -0.273701012134552, 0.06684987992048264, 0.23600250482559204, 0.04506232962012291, 0.14643986523151398, 0.06716801971197128, -0.16975818574428558, -0.20528508722782135, 0.7789739370346069, 0.525719404220581, 0.21649646759033203, 0.14574088156223297, 0.1950940042734146, -0.3359275460243225, 0.024295585229992867, 0.03773718327283859, -0.5803371071815491, -0.3967478573322296, 0.42955541610717773, 0.04905611649155617, 0.05269722640514374, -0.24248377978801727, -0.11498773097991943, -0.1968112587928772, -0.2817543148994446, 0.11683977395296097, 0.5829175710678101, 0.24259330332279205, 0.13545285165309906, 0.0997472032904625, 0.29770874977111816, -0.003887503407895565, 0.30232852697372437, -0.3303561210632324, 0.14421141147613525, 0.16037338972091675, -0.22790315747261047, -0.3542548418045044, 0.3121325373649597, -0.4721478521823883, -0.3908955454826355, 0.4596148729324341, -0.13613979518413544, 0.3209477961063385], [0.2455504983663559, 1.0907163619995117, -0.18469031155109406, -0.424542099237442, 0.146803617477417, 0.005597998388111591, -0.05311812460422516, -0.2111898958683014, 0.30906254053115845, 0.05898508429527283, -0.2429988831281662, -0.22962306439876556, 0.1087287962436676, -0.025801831856369972, 0.1719007045030594, -0.7774039506912231, -0.11419706046581268, 0.3972299098968506, -0.22543449699878693, 0.22665715217590332, -0.4393141269683838, 0.35971584916114807, -0.504970908164978, 0.1355723887681961, 0.38944610953330994, 0.1705533266067505, 0.4853484034538269, 0.09660667926073074, 0.01427035965025425, 0.40677610039711, 0.22798654437065125, 0.3267207741737366, 0.19953089952468872, 0.06244993582367897, -0.0760868713259697, -0.12044478207826614, 0.1019064262509346, 0.5320583581924438, -0.0812479630112648, 0.42904677987098694, 0.7876601219177246, 0.18312478065490723, -0.12094179540872574, -0.27700313925743103, -0.864152729511261, 0.05182770639657974, 0.18590502440929413, 0.2997371554374695, -0.09030140936374664, 0.35356301069259644, -0.10454624891281128, -0.31821751594543457, 0.04001627489924431, -0.09778641164302826, -0.29135069251060486, -0.3327048420906067, -0.6405336260795593, 0.46935975551605225, 0.09379922598600388, 0.13312913477420807, 0.09549810737371445, -0.19550706446170807, 0.7024264931678772, -0.013444148004055023, -0.2541198134422302, -0.10542067140340805, 0.22042720019817352, -0.782922625541687, 0.34257176518440247, 0.5171018242835999, 0.005745226517319679, -0.12698997557163239, -0.40324440598487854, 0.1767932027578354, 0.060946520417928696, -0.35102835297584534, 0.3094889223575592, 0.3920994997024536, 0.14586739242076874, 0.20432235300540924, -0.26265573501586914, -0.02965686470270157, 0.1982227861881256, -0.048644471913576126, -0.21402525901794434, 0.16631636023521423, 0.30469000339508057, 0.5561089515686035, -0.28644585609436035, -0.30476105213165283, 0.3825856149196625, 0.1625899374485016, -0.25275617837905884, 0.6809920072555542, -0.2869918644428253, -0.240012064576149, 0.3592207133769989, 0.30329933762550354, -0.17101718485355377, -0.1048169732093811, -0.06877314299345016, 0.26725804805755615, -0.30517905950546265, 0.1795189082622528, -0.005845813080668449, 0.7659479379653931, -0.3712272346019745, 0.16494879126548767, -0.45539674162864685, 0.47879743576049805, -0.6340512633323669, -0.2218760848045349, 0.4305592179298401, -0.49154701828956604, 0.07914599776268005, 0.5417131781578064, -0.13483527302742004, 0.19991426169872284, -0.34712937474250793, 0.11286947131156921, -0.21223165094852448, 0.19773949682712555, 0.13752926886081696, 0.18390889465808868, -0.2610384523868561, 0.010249161161482334, 0.06534819304943085, 0.38154086470603943], [-0.3643514811992645, 0.269461065530777, -0.3504178524017334, -0.36010274291038513, -0.07869818806648254, 0.05242658406496048, 0.09837567806243896, 0.3350854814052582, -0.27927130460739136, 0.10872985422611237, 0.47430115938186646, 0.24394191801548004, -0.10677120089530945, -0.008888746611773968, 0.7333574295043945, -0.2440914809703827, -0.1522151231765747, -0.14146636426448822, -0.23398378491401672, 0.0751817524433136, 0.1720866858959198, 0.6018632650375366, 0.14441300928592682, 0.4659595489501953, 0.7475550770759583, 0.33142513036727905, 0.08262137323617935, -0.09641185402870178, 0.026793910190463066, -0.04812063276767731, 0.19324301183223724, 0.23189228773117065, -0.07841305434703827, 0.538284420967102, 0.0862264633178711, 0.12661251425743103, 0.12401267886161804, 0.10129917412996292, -0.6237695813179016, 0.660839855670929, -0.40393537282943726, -0.09935455769300461, 0.7122902870178223, 0.5979894399642944, 0.5776235461235046, 0.6310144662857056, -0.31947505474090576, -0.7233270406723022, -0.10183379799127579, -0.24015125632286072, 0.4104711413383484, -0.6872958540916443, 0.20074616372585297, 0.33434736728668213, 0.023724431172013283, 0.34375229477882385, 0.3762977719306946, 0.5258864164352417, -0.1440402716398239, 0.3088287115097046, -0.11674492806196213, -0.17288872599601746, 0.312587708234787, 0.15903517603874207, -0.296682745218277, 0.5189998149871826, 0.364719420671463, -0.11549170315265656, 0.44301527738571167, -0.2219146192073822, -0.5539303421974182, 0.1835029423236847, -0.7112202048301697, -0.28982144594192505, -0.5053449273109436, -0.14443980157375336, -0.023848818615078926, -0.35994914174079895, -0.2530977427959442, -0.46668434143066406, 0.05465397238731384, -0.0942608118057251, -0.06670473515987396, -0.12298295646905899, -0.3886584937572479, -0.33602359890937805, 0.17828144133090973, 0.2987033724784851, 0.7547330260276794, -0.05744190886616707, 0.44342198967933655, -0.21177150309085846, 0.19423836469650269, -0.15357916057109833, 0.2153833657503128, -0.5053288340568542, -0.33765044808387756, -0.16430659592151642, -0.030433623120188713, -0.06429023295640945, -0.24676981568336487, 0.5160022974014282, 0.11788838356733322, -0.17529231309890747, 0.026358529925346375, -0.33194810152053833, -0.03516474366188049, -0.37187427282333374, -0.6523463129997253, -0.6850155591964722, -0.03966690972447395, 0.03291618078947067, 0.27252137660980225, -0.027301140129566193, 0.45677757263183594, -0.5291292071342468, -0.128243088722229, 0.71058189868927, -0.7341090440750122, 0.8430525660514832, 0.08812426775693893, 0.2635887861251831, -0.11550978571176529, 0.14279566705226898, 0.0734192505478859, 0.5554389953613281, 0.7533872127532959, -0.42341169714927673]]]], [[[[-0.0032068989239633083, 0.0031566519755870104, 0.0003449296345934272, -0.001251081470400095, -0.001301009557209909, -0.0006181909120641649, 0.007042290177196264, -0.0023689332883805037, 0.0030844942666590214, -0.007521461229771376, -0.0027074299287050962, 0.0006441872683353722, -0.00022189259470906109, 0.0013410862302407622, -0.003783812979236245, -0.0020527648739516735, -0.00424540089443326, 0.0015259042847901583, 0.0016526274848729372, -0.0019983018282800913, -0.0008178478456102312, 0.0011838458012789488, 6.573847349500284e-05, 0.0005904260906390846, -0.00045800540829077363, -0.0009456918342038989, -0.0036641412880271673, 0.004301483742892742, -0.0005918285460211337, 0.0018179297912865877, 3.064665725105442e-05, -0.004665733315050602, 0.001591172767803073, 0.0019559620413929224, 0.0025494175497442484, 0.0003195629979018122, -0.0009177756146527827, 0.004257333930581808, 0.004005843307822943, -0.0012591418344527483, -0.004925957880914211, 0.0030233615543693304, 0.0002240891190012917, -0.0013187414733693004, -6.552148261107504e-05, -0.002600441686809063, 0.0018520228331908584, -0.004979874473065138, -0.0065760621801018715, 0.0016657209489494562, 0.00212844111956656, 0.004298415966331959, 0.005514174699783325, 0.005416847299784422, -0.0021947091445326805, 0.0024694257881492376, -0.0018772045150399208, -0.0012818379327654839, -0.00015291503223124892, -0.0002487564634066075, 0.0024379182141274214, 0.0024191108532249928, 0.00533515028655529, -0.0164444912225008, -0.0008727582753635943, 0.0036075017414987087, -0.0013140104711055756, 0.0006039113504812121, 0.0046791452914476395, 0.00046062833280302584, 0.0011647820938378572, -0.004400874488055706, 0.0008768799598328769, -0.003368381643667817, 0.003249303437769413, 0.0013593698386102915, 0.0011749310651794076, 0.00108441268093884, 0.0034023053012788296, -0.00611509382724762, 0.0015924168983474374, -0.0070670535787940025, 0.0001115034829126671, -0.0007305435137823224, 0.004601838532835245, 0.0031220053788274527, -0.003834075527265668, -0.003612494794651866, 0.0021750684827566147, 0.012740660458803177, -0.00726550305262208, -0.003026885213330388, 0.0014245318016037345, -0.0034208842553198338, -0.0005168186035007238, -0.0018552736146375537, -0.003695260500535369, -0.0011425866978242993, 0.002751137362793088, -0.003630090272054076, -0.001083926996216178, -0.0006104462663643062, 0.0012889598729088902, -0.0049390532076358795, 0.0014238199219107628, -0.00022522015206050128, 0.004549302160739899, -0.0009138425230048597, 0.0008211084641516209, 0.0031121999491006136, -0.0016392868710681796, -0.001210309797897935, -0.004611651878803968, 0.0021344327833503485, 6.986629887251183e-05, -0.00936234463006258, 0.0005088432226330042, -0.0007719279383309186, -0.0003474792174529284, 0.005364240147173405, -0.0020819634664803743, -0.0013497343752533197, 0.003197361482307315, -0.0006468194187618792, -0.003363602561876178, -0.0031866247300058603, -1.9128501662635244e-05, -0.0013871119590476155]]]], [[[[1.3947930335998535, 1.3028751611709595, -0.0033247696701437235, 0.8778213858604431], [1.6683098077774048, -0.11970113962888718, 0.0030910272616893053, 1.2376844882965088], [2.2626538276672363, 0.44507843255996704, 0.00033659362816251814, 0.8268619179725647], [1.6075959205627441, -0.8697530031204224, -0.0013021035119891167, 0.6012927889823914], [2.1084611415863037, -0.3125104010105133, -0.0012805218575522304, 1.3011376857757568], [2.0638861656188965, -1.3571829795837402, -0.0006048692157492042, 0.5340802669525146], [1.876562237739563, 1.4619927406311035, 0.006999109871685505, 0.34946250915527344], [1.84803307056427, -0.7196405529975891, -0.0023162125144153833, 1.3939059972763062], [1.640932559967041, 0.41384565830230713, 0.0031306513119488955, 1.3064663410186768], [1.993402123451233, -0.43843385577201843, -0.007580670993775129, 0.427800714969635], [1.0882991552352905, -1.4030745029449463, -0.00269721494987607, 1.0155810117721558], [1.5052913427352905, -0.8196961283683777, 0.000612592208199203, 1.3821191787719727], [1.6719837188720703, 0.8749787211418152, -0.00025028956588357687, 1.4514284133911133], [1.830065369606018, -0.41753706336021423, 0.0016256878152489662, 1.7722872495651245], [1.8665655851364136, -0.04303567111492157, -0.003698296146467328, 0.7668026089668274], [1.7421685457229614, 0.2650923430919647, -0.002071948954835534, 1.245915412902832], [1.6874991655349731, -1.736485242843628, -0.00418624933809042, 1.8642261028289795], [2.034329414367676, 0.4500550627708435, 0.0014214427210390568, 1.262090802192688], [1.148274302482605, -1.417460560798645, 0.0017343817744404078, 0.5953605771064758], [1.9487814903259277, -1.4316715002059937, -0.0019579387735575438, 1.6798897981643677], [1.3784372806549072, -0.4851189851760864, -0.0006931492825970054, 1.4389079809188843], [1.6406018733978271, -0.08851468563079834, 0.0011491101467981935, 0.6076587438583374], [2.0040459632873535, 0.05303246155381203, 0.00015965913189575076, 2.040748357772827], [1.1697474718093872, -0.7888982892036438, 0.0006810915656387806, 1.5215076208114624], [1.4042407274246216, 1.9919381141662598, -0.00033741985680535436, 0.8322647213935852], [1.8166378736495972, 1.5588256120681763, -0.001007396844215691, 0.9544234871864319], [1.4516764879226685, -0.459495484828949, -0.003909635823220015, 1.5198968648910522], [1.7950124740600586, 0.1751682311296463, 0.004171487409621477, 1.507515788078308], [1.670827865600586, 0.09080620110034943, -0.0006991938571445644, 1.2070913314819336], [1.2373677492141724, -1.23662531375885, 0.0017420907970517874, 1.0510815382003784], [2.0798165798187256, -1.1555812358856201, 0.00012568928650580347, 0.9251379370689392], [1.7455371618270874, -0.28109002113342285, -0.004683045204728842, 0.758054792881012], [1.5434833765029907, 1.4846558570861816, 0.0015626403037458658, 1.1623332500457764], [1.5512341260910034, -1.6224923133850098, 0.002031965646892786, 0.6325380206108093], [2.6106343269348145, 2.3378961086273193, 0.0026109491009265184, 1.7784465551376343], [1.973841905593872, -1.0066674947738647, 0.00038406543899327517, 1.0029653310775757], [1.665706992149353, -0.8180416822433472, -0.0009157208260148764, 0.4404048025608063], [1.4253453016281128, -0.14495962858200073, 0.004000484477728605, 1.6151961088180542], [1.7204231023788452, 0.41217881441116333, 0.004127937369048595, 1.1831567287445068], [1.245974063873291, -0.7657434940338135, -0.0011536965612322092, 0.8770840167999268], [1.5483909845352173, 1.4551358222961426, -0.005061204545199871, 0.9465863108634949], [1.8698049783706665, -0.6112337708473206, 0.0029972963966429234, 1.359070062637329], [1.1941723823547363, -0.32623398303985596, 0.00022193879703991115, 0.7269724011421204], [1.5043874979019165, -1.3955949544906616, -0.0011906428262591362, 1.6108344793319702], [2.0338294506073, -1.0410569906234741, -1.7852449673227966e-05, 1.5868242979049683], [1.0704104900360107, -1.1901988983154297, -0.002405286068096757, 0.8714967966079712], [1.0507090091705322, 1.4987598657608032, 0.001595407840795815, 1.5941144227981567], [1.524556040763855, 0.6588996052742004, -0.005119654815644026, 2.341358184814453], [1.4617812633514404, 1.001568078994751, -0.006663116160780191, 0.6823592782020569], [2.1464693546295166, -1.2666758298873901, 0.0016553039895370603, 0.3974704146385193], [1.2825309038162231, 0.9045539498329163, 0.0022607860155403614, 0.9368847012519836], [1.979472041130066, 1.1015760898590088, 0.004281044006347656, 1.0067825317382812], [1.937990665435791, -1.372251033782959, 0.00545091088861227, 1.053701400756836], [2.201611042022705, 0.6055517792701721, 0.005438586696982384, 0.8129712343215942], [1.2157224416732788, 1.1291826963424683, -0.0022506213281303644, 0.4515169560909271], [1.760452151298523, 0.7524247169494629, 0.002829180797562003, 1.3683826923370361], [1.4368093013763428, -0.5700994729995728, -0.0019275677623227239, 1.0480608940124512], [1.8841567039489746, 0.7019675970077515, -0.0011719288304448128, 1.1024354696273804], [1.8242119550704956, -0.07651538401842117, -0.00029833498410880566, 1.1728341579437256], [1.2771012783050537, -1.0680534839630127, -0.00017396589100826532, 0.7029727101325989], [1.86090886592865, 0.6963582634925842, 0.002357359044253826, 1.1255359649658203], [2.0475363731384277, 0.4650516211986542, 0.002315135672688484, 1.0292528867721558], [1.635389804840088, 0.9812480211257935, 0.005336825270205736, 0.6867972016334534], [1.2454760074615479, 1.946545958518982, -0.016494447365403175, 1.3968878984451294], [1.2896544933319092, -0.8324229717254639, -0.0008443602127954364, 3.2413694858551025], [1.8976541757583618, 1.114865779876709, 0.003610801650211215, 1.2911900281906128], [2.263692855834961, -0.3853549659252167, -0.001284454483538866, 0.896495521068573], [1.7592142820358276, -0.17851561307907104, 0.0005878141964785755, 1.439855694770813], [1.7834328413009644, -0.06262339651584625, 0.004684501327574253, 0.5245898962020874], [1.3216816186904907, 0.33770307898521423, 0.000337815610691905, 0.6986018419265747], [1.7453985214233398, -0.8786942958831787, 0.001071979757398367, 0.9908640384674072], [1.6956895589828491, 0.9199804067611694, -0.004342382773756981, 0.38362786173820496], [1.271683931350708, -1.0415514707565308, 0.0009466003393754363, 0.6748768091201782], [1.8633694648742676, -1.468541145324707, -0.0034081446938216686, 1.4110004901885986], [1.2908629179000854, -0.2757571041584015, 0.003045689780265093, 0.6795910596847534], [1.706764817237854, -0.5929135084152222, 0.0013959601055830717, 1.007789969444275], [1.932708978652954, -0.1542934775352478, 0.0011451918398961425, 0.8782546520233154], [1.7392863035202026, -0.18890875577926636, 0.0012365113943815231, 1.1124299764633179], [1.156023621559143, 1.7066214084625244, 0.003338260343298316, 1.7108522653579712], [2.354957342147827, -0.7905659675598145, -0.006205185316503048, 0.7583205699920654], [1.8630281686782837, 0.8696178197860718, 0.0017001582309603691, 0.9612800478935242], [1.593888759613037, 1.6209908723831177, -0.007053928449749947, 2.0488133430480957], [1.9006164073944092, -1.1689519882202148, 0.00015360413817688823, 1.0637766122817993], [1.708449125289917, 1.5856494903564453, -0.0008117946563288569, 1.1056169271469116], [1.900068759918213, -0.6139963865280151, 0.004677984863519669, 0.5863187313079834], [1.9478070735931396, 1.0338256359100342, 0.00300394999794662, 1.4732774496078491], [1.7953612804412842, -0.9944271445274353, -0.0039115590043365955, 0.4687815308570862], [1.27097749710083, -0.9307724833488464, -0.0036585021298378706, 1.9800916910171509], [2.00653338432312, 0.06415817141532898, 0.0022239182144403458, 1.2173638343811035], [1.827678918838501, 0.6779277324676514, 0.012721868231892586, 0.4342750608921051], [1.9354885816574097, -0.007864917628467083, -0.007099329959601164, 0.8941456079483032], [2.115788698196411, -1.351171851158142, -0.0029439846985042095, 0.8563811779022217], [2.1197030544281006, 0.5959433913230896, 0.001231399830430746, 2.041182518005371], [1.4181742668151855, -0.15094342827796936, -0.0035374362487345934, 0.7045513987541199], [1.616944670677185, -1.3303470611572266, -0.0004972801543772221, 1.2984206676483154], [2.133068323135376, -0.739078938961029, -0.0019396746065467596, 1.0640380382537842], [1.5750712156295776, 1.0363370180130005, -0.0036962919402867556, 0.8565203547477722], [1.5112284421920776, -0.9386189579963684, -0.001062825438566506, 0.9139150381088257], [2.142317295074463, 0.32666677236557007, 0.0026778141036629677, 1.6511763334274292], [1.86337149143219, -0.08488699793815613, -0.0036855994258075953, 1.500253438949585], [1.5975341796875, -1.4867559671401978, -0.0009183105430565774, 1.72842538356781], [1.7932733297348022, 0.925784707069397, -0.0004148106381762773, 0.9908477663993835], [1.6034760475158691, 1.8210195302963257, 0.0012865327298641205, 2.594498634338379], [2.283454179763794, -0.04242924228310585, -0.004906830377876759, 0.8570888638496399], [1.7246191501617432, 0.2117343544960022, 0.0014544599689543247, 0.6864017248153687], [1.4861198663711548, -0.9221720695495605, -0.0002765118551906198, 1.9308491945266724], [1.725953459739685, -1.7929786443710327, 0.004555858671665192, 0.6397832036018372], [1.7276753187179565, -1.5558909177780151, -0.0008882682886905968, 1.5859931707382202], [2.339294910430908, -1.99515962600708, 0.0008634660625830293, 0.8724309802055359], [1.5440645217895508, 1.4126673936843872, 0.002987888175994158, 1.1323095560073853], [1.1864951848983765, 0.515028178691864, -0.0018052167724817991, 1.18966543674469], [1.648461103439331, -0.141580268740654, -0.0012896002735942602, 0.961572527885437], [1.7338193655014038, 0.6943750381469727, -0.004689896013587713, 1.9616858959197998], [1.6164904832839966, -1.0884758234024048, 0.002038750099018216, 0.8293416500091553], [1.7232612371444702, 0.21670818328857422, 3.1201714591588825e-05, 2.7304627895355225], [1.562041163444519, -0.3747868835926056, -0.009470593184232712, 1.1782978773117065], [1.8900994062423706, -0.2590400278568268, 0.0004472569562494755, 1.9329694509506226], [1.553257942199707, -0.7936479449272156, -0.0006252662278711796, 0.5673812031745911], [1.5332722663879395, -0.28909868001937866, -0.0004441575729288161, 0.5097931027412415], [1.1055803298950195, 1.437304973602295, 0.005479613319039345, 3.1990675926208496], [1.9786072969436646, -0.018321994692087173, -0.0020070401951670647, 0.8942838907241821], [2.3538875579833984, -0.33487069606781006, -0.001281210221350193, 1.8418290615081787], [1.9324252605438232, 0.6302422285079956, 0.0031647351570427418, 1.6982789039611816], [1.5306071043014526, -1.3587439060211182, -0.00047950295265764, 1.5500576496124268], [1.861132264137268, -1.1415067911148071, -0.0031131489668041468, 1.8087797164916992], [1.5836632251739502, 0.568717360496521, -0.003239681711420417, 0.6833802461624146], [1.4830546379089355, 0.2024223804473877, 0.00015970847744029015, 0.7738132476806641], [1.7375277280807495, -0.5931621789932251, -0.0015065274201333523, 0.966577410697937]]]], [[[[-0.5399721264839172, 0.04459800943732262, -0.5711804628372192, -0.21420787274837494, 0.6481356024742126, -0.0597001314163208, -0.5088947415351868, 0.27213042974472046, 0.33901485800743103, 0.6831703186035156, 0.0010375205893069506, -0.7056360244750977, 0.5215293169021606, 0.2196807563304901, -0.3854099214076996, -0.12481788545846939, -0.3674750030040741, -0.11043062806129456, -0.47854650020599365, 0.03956916928291321, -0.22447900474071503, 0.22255517542362213, 0.47329697012901306, 0.2159181535243988, -0.6752075552940369, 0.2924462556838989, 0.3661855459213257, 0.09266677498817444, 0.16084644198417664, 0.39232775568962097, 0.01326619740575552, -0.07105158269405365, 0.1471334844827652, -0.47911879420280457, 0.46507638692855835, 0.7302804589271545, 0.4336552619934082, 0.04818379506468773, -0.0797182098031044, 0.2575296461582184, 0.22064299881458282, 0.792967677116394, 0.07728121429681778, -0.07713434100151062, -0.08544210344552994, 0.37041911482810974, 0.29254546761512756, 0.47997936606407166, -0.12607243657112122, -0.36916273832321167, 0.8025028705596924, -0.20842744410037994, -0.22566361725330353, -0.034465353935956955, 0.47587472200393677, 0.31512993574142456, 0.14497697353363037, -0.9243123531341553, -0.21131885051727295, -0.6437075138092041, 0.49512743949890137, 0.5184651017189026, -0.5106226801872253, 0.24344438314437866, 0.5269299149513245, 0.15629693865776062, -0.08855053782463074, -0.041667547076940536, -0.6929576396942139, 0.011334838345646858, 0.06462355703115463, -0.3840082287788391, 0.41274094581604004, -0.07253111898899078, -0.4211886525154114, 0.22753377258777618, 0.14514604210853577, 0.8242783546447754, 0.25753867626190186, 0.03099646419286728, -0.10842966288328171, -0.403403103351593, -0.21324431896209717, -0.45105111598968506, -0.2994237542152405, -0.2912021577358246, -0.5981239676475525, -1.1240863800048828, -0.2686476707458496, -0.02045740932226181, -0.09916997700929642, -0.24506863951683044, 0.24698440730571747, 0.38913193345069885, -0.19173121452331543, 0.1959294080734253, 0.2610306441783905, 0.37132346630096436, -0.29803887009620667, -0.5469428896903992, 0.008161899633705616, -0.4593621492385864, 0.025665560737252235, -0.27584120631217957, -0.4409521222114563, 1.1699546575546265, -0.22883956134319305, 0.10810979455709457, -0.11250930279493332, 0.583524227142334, -0.26951903104782104, 0.31191688776016235, -0.03005306050181389, 0.7304922938346863, -0.19649119675159454, -0.0766163170337677, -0.4618745446205139, 0.7640696167945862, 0.7507504820823669, -0.051387254148721695, 0.2141159474849701, -0.20061159133911133, -0.24354782700538635, -0.13385307788848877, -0.5252715349197388, 0.11010635644197464, 0.2509463131427765, 0.22243289649486542], [0.22197212278842926, -0.1559600681066513, -0.32080328464508057, 0.5324281454086304, 0.2324383705854416, 0.7020893692970276, 0.025088220834732056, 0.21208946406841278, -0.2250809520483017, 0.09523896872997284, -0.3071499764919281, 0.1464078575372696, -0.1612839549779892, -0.4923645257949829, 0.05068216845393181, -0.27089792490005493, 0.12512154877185822, -0.3981780409812927, 0.4285105764865875, 0.21855528652668, 0.029169131070375443, 0.19615623354911804, 0.24713392555713654, 0.4463059604167938, -0.16023831069469452, 0.3726903200149536, 0.148492231965065, 0.1953154057264328, 0.23068605363368988, -0.24003370106220245, -0.1679845154285431, -0.03912138566374779, -0.057823341339826584, 0.3671734631061554, -0.03838637098670006, 0.36002105474472046, 0.07551880925893784, -0.17725086212158203, -0.24547609686851501, 0.01975642330944538, 0.18639233708381653, 0.4151073694229126, -0.27306804060935974, 0.43682771921157837, -0.1267855018377304, -0.27521219849586487, 0.14001263678073883, 0.891696572303772, -0.6338746547698975, 0.7243931293487549, -0.1299184411764145, 0.43982991576194763, 0.6592124700546265, -0.5896674394607544, -0.4423060715198517, -0.2021414041519165, 0.4502171277999878, 0.4695899486541748, -0.08560711145401001, -0.4400688707828522, -0.3284102976322174, 0.3294476568698883, -0.2778996229171753, -0.2185904085636139, 0.2407226413488388, -0.5373519659042358, 0.4353698790073395, 0.3263828456401825, 0.33161795139312744, 0.2544584274291992, 0.30941951274871826, -0.08566083759069443, 0.06196491792798042, 0.12309199571609497, -0.11207978427410126, 0.3071451187133789, -0.28979647159576416, -0.2564779222011566, 0.6519955992698669, 0.2574012577533722, -0.14588965475559235, -0.30251041054725647, 0.14508722722530365, 0.2343827486038208, -0.05656299367547035, -0.12614113092422485, -0.056398164480924606, 0.13652537763118744, 0.16855299472808838, -0.26494884490966797, 0.6327850818634033, -0.1352062076330185, 0.15371020138263702, -0.482957661151886, 0.185277059674263, 0.10408197343349457, 0.41130170226097107, 0.16747045516967773, -0.04270053654909134, 0.2953557074069977, 0.263675719499588, 0.07824157923460007, 0.18471863865852356, 0.5689395070075989, 0.09031350165605545, -0.4695427119731903, -0.003786629531532526, 0.16455109417438507, -0.04493577033281326, 0.3319990336894989, -0.7656962871551514, 0.2835330367088318, 0.07250513881444931, -1.018127202987671, 0.20885780453681946, -0.3514438271522522, -0.17906413972377777, 0.1288778930902481, -0.035585708916187286, 0.4971241354942322, 0.056853100657463074, 0.04200815036892891, -0.5444605946540833, 0.10854282230138779, -0.3227890133857727, 0.03229309245944023, -0.6072315573692322, -0.10214124619960785], [0.13972292840480804, 0.05847686901688576, -0.2178047001361847, -0.0006852755905129015, 0.3660532236099243, -0.05214425176382065, 0.033225905150175095, 0.1573052555322647, 0.5704377293586731, 0.11883638799190521, -0.24278461933135986, -0.024849774315953255, 0.24721361696720123, -0.02630268596112728, 0.06851653009653091, 0.3101688623428345, 0.23307982087135315, 0.12814904749393463, 0.04530959948897362, 0.1801573783159256, -0.093464694917202, -0.14439857006072998, 0.25672271847724915, 0.3564036786556244, -0.15485045313835144, 0.39767539501190186, -0.022215303033590317, -0.02468099631369114, -0.4090556502342224, -0.24568067491054535, 0.6306437253952026, -0.32041123509407043, -0.18523690104484558, -0.06349440664052963, 0.031142063438892365, 0.03196202963590622, 0.5134874582290649, 0.11421427130699158, 0.2976963520050049, 0.3127042353153229, -0.5468996167182922, -0.46738898754119873, 0.17436830699443817, -0.3803020119667053, 0.5859804153442383, -0.18276192247867584, -0.1308269500732422, 0.7184619903564453, 0.08801036328077316, -0.016354672610759735, -0.15967579185962677, 0.546205461025238, 0.09394065290689468, 0.06449149549007416, 0.1577208787202835, -0.29499146342277527, 0.043277159333229065, 0.08795294910669327, -0.8142943978309631, -0.1905004233121872, -0.07000917941331863, -0.35730910301208496, 0.19428619742393494, -0.21686162054538727, -0.11649693548679352, -0.17356134951114655, -0.45613983273506165, 0.39918866753578186, -0.036000289022922516, -0.18136784434318542, -0.4318940043449402, -0.0018683512462303042, 0.040661267936229706, 0.717286229133606, 0.41369128227233887, 0.192506805062294, 0.1155480146408081, 0.05871441587805748, -0.025985989719629288, 0.2527267336845398, 0.2556188404560089, -0.25171130895614624, 0.1798224002122879, 0.12406884878873825, 0.009745941497385502, -0.0018903895979747176, -0.10682184249162674, -0.4768766164779663, 0.496289998292923, 0.28553831577301025, 0.011199954897165298, -0.6821005940437317, -0.2942202389240265, -0.2351260781288147, 0.32731977105140686, 0.0675068348646164, 0.013015177100896835, 0.01580541580915451, 0.3905737102031708, 0.5235993266105652, -0.6409544944763184, -0.10230434685945511, 0.010099177248775959, -0.473886102437973, 0.24432452023029327, -0.2837181091308594, -0.040194492787122726, -0.34139296412467957, 0.11528892070055008, -0.1471559852361679, 0.6790105104446411, -0.14151865243911743, 0.5850672721862793, 0.05669146031141281, 0.09163825213909149, -0.2822464108467102, 0.012669607065618038, -0.31103065609931946, 0.3029450476169586, -0.17757266759872437, -0.4881839156150818, -0.09643124043941498, -0.04239482805132866, -0.4127189815044403, -0.057675477117300034, -0.3546558916568756, -0.09358005225658417, 0.13852721452713013], [0.33574846386909485, -0.2857305109500885, -0.8084097504615784, 0.5672069787979126, -0.15959814190864563, 0.11547897011041641, -0.15759249031543732, 0.14168326556682587, -0.47102758288383484, -0.04722023010253906, -0.2107177972793579, -0.5168569087982178, -0.00898805446922779, -0.03431536629796028, -0.1676972508430481, 0.017111074179410934, 0.2835654318332672, 0.2876316010951996, 0.07982989400625229, 0.19474931061267853, -0.04333110153675079, 0.53840172290802, -0.39044779539108276, 0.43506762385368347, 0.09285899996757507, -0.04898369312286377, 0.11231804639101028, 0.27944090962409973, -0.1594000905752182, 0.46891331672668457, 0.1280718445777893, -0.20290923118591309, -0.18405412137508392, 0.08433028310537338, 0.18878014385700226, -0.39908403158187866, 0.39675748348236084, 0.39653754234313965, -0.3011869788169861, -0.08567063510417938, 0.12076394259929657, -0.20452041923999786, 0.5362953543663025, -0.6724713444709778, -0.05385472625494003, -0.2337132841348648, 0.5100290775299072, 0.3802502751350403, 0.35070303082466125, 0.4897385537624359, -0.15457458794116974, -0.2485501915216446, 0.14113298058509827, -0.11535430699586868, 0.5269003510475159, 0.5645726919174194, 0.4782540500164032, 0.39597249031066895, 0.07570995390415192, 0.17810310423374176, -0.12425140291452408, 0.05826681852340698, -0.1940278857946396, -0.12058475613594055, -0.04539034515619278, 0.17736180126667023, -0.3842327892780304, -0.10974963009357452, -0.0583597868680954, -0.012792706489562988, -0.5523185729980469, -0.39266422390937805, 0.15581141412258148, 0.054967597126960754, -0.19407254457473755, 0.40310394763946533, -0.035245928913354874, 0.5470290184020996, 0.5583142638206482, -0.41852128505706787, 0.08640406280755997, -0.10433156788349152, 0.183206245303154, 0.06166178733110428, -0.13360799849033356, 0.073795847594738, -0.0030304088722914457, 0.21188762784004211, 0.25445687770843506, 0.3889875113964081, -0.24140480160713196, -0.04615894332528114, 0.2349487990140915, 0.036889754235744476, -0.06128282845020294, 0.2729398012161255, 0.43196535110473633, -0.309749037027359, 0.13660067319869995, -0.23022103309631348, -0.2421669065952301, -0.03702955320477486, 0.10545313358306885, -0.15812313556671143, 0.17719024419784546, -0.7882608771324158, 0.6193510293960571, -0.006450187414884567, -0.3883100152015686, -0.0251056756824255, 0.012716886587440968, 0.14461098611354828, 0.712324857711792, 0.682438313961029, 0.26427167654037476, -0.7230425477027893, -0.12012001872062683, -0.09236758947372437, 0.06669727712869644, 0.5084987878799438, 0.6412143707275391, 0.0937587320804596, -0.13850416243076324, -0.02894820086658001, -0.5806618332862854, -0.18850088119506836, -0.4423333406448364, -0.27737003564834595], [-0.23074890673160553, 0.1664137989282608, 0.16028869152069092, -0.06472482532262802, 0.34847113490104675, -0.2499624490737915, -0.2926851212978363, 0.09470627456903458, 0.6767256855964661, 0.3086283802986145, 0.005771164782345295, 0.41554373502731323, -0.2105654925107956, 0.5069810748100281, -0.08761885017156601, 0.17056283354759216, 0.06902451068162918, -0.20761889219284058, -0.028386153280735016, 0.48069581389427185, -0.0764220654964447, 0.47151678800582886, 0.1101403683423996, -0.5605670809745789, 0.44971534609794617, -0.081028513610363, 0.0743846744298935, 0.09914709627628326, -0.7180136442184448, 0.2531249225139618, -0.6243671774864197, 0.4638165533542633, -0.1015649288892746, 0.21000345051288605, 0.03394871577620506, -0.06658406555652618, 0.11182189732789993, 0.02418159320950508, 0.3640226423740387, -0.03927905485033989, -0.5004581212997437, -0.8563061356544495, 0.41224128007888794, 0.1487463116645813, 0.05396529659628868, -0.2303355485200882, 0.3052481710910797, -0.2793123722076416, 0.35770025849342346, 0.5417496562004089, -0.23033487796783447, -0.3109390139579773, 0.24273258447647095, -0.4412790834903717, -0.07704818993806839, 0.16548892855644226, 1.1806520223617554, -0.43256261944770813, -0.01967339962720871, 0.30850112438201904, -0.6484217643737793, -0.05109366774559021, 0.08938372880220413, 0.14215323328971863, -0.49297523498535156, 0.2564718723297119, -0.5033283829689026, -0.07397535443305969, -0.0980517789721489, -0.020309563726186752, 0.4728374779224396, -0.20220164954662323, 0.12430009245872498, -0.5216279029846191, 0.43849870562553406, 0.18242235481739044, -0.028723256662487984, 0.09504961222410202, 0.012573227286338806, 0.023581741377711296, 0.017978673800826073, -0.2011667937040329, -0.4339701235294342, 0.09534765034914017, 0.07234631478786469, 0.15944121778011322, 0.02737412229180336, -0.2377243936061859, -0.44955477118492126, 0.13049235939979553, -0.30406543612480164, 0.011877583339810371, 0.02598724327981472, 0.47455042600631714, -0.0661117359995842, -0.1106444001197815, -0.5016182661056519, 0.5229973793029785, 0.12701021134853363, -0.17064723372459412, -0.07528732717037201, 0.07316746562719345, 0.6481231451034546, -0.6709187030792236, -0.11149585992097855, 0.11734051257371902, -0.5912790894508362, 0.009010524488985538, -0.33024922013282776, 0.6901479959487915, -0.12049310654401779, 0.08485233038663864, -0.3986775279045105, -0.42059126496315, 0.41281163692474365, -0.08104276657104492, -0.0569862499833107, 0.6069456934928894, -0.043187547475099564, 0.03232340142130852, -0.2340046763420105, -0.0467308834195137, 0.09369493275880814, 0.15610527992248535, 0.15460921823978424, 0.3394849896430969, -0.1951926201581955, 0.050181008875370026], [0.2960321605205536, -0.3329499661922455, 0.38869982957839966, -0.08135797083377838, 0.2633415162563324, 0.6047132015228271, 0.17018462717533112, -0.03629733622074127, 0.43065908551216125, 0.0040900446474552155, -0.14124882221221924, -0.06660855561494827, 0.11426739394664764, -0.24508534371852875, -0.185591921210289, 0.058371368795633316, 0.598101794719696, 0.16620072722434998, 0.06692333519458771, 0.1956009864807129, -0.0515262708067894, -0.2112080156803131, -0.2813456654548645, -0.11289747804403305, -0.36819925904273987, 0.30868253111839294, -0.4880383610725403, 0.14966543018817902, 0.27815330028533936, -0.963274359703064, -0.19407877326011658, -0.7092058658599854, -0.14191943407058716, -0.6228873133659363, -0.32515814900398254, -0.13833200931549072, -0.5868978500366211, 0.4054504334926605, -0.19841565191745758, -0.16184908151626587, 0.06596124917268753, -0.17129889130592346, -0.6467310190200806, 0.30309075117111206, -0.4096350073814392, -0.6301313042640686, -0.05811452120542526, 0.08735261112451553, 0.3159160614013672, 0.12755364179611206, -0.04243388772010803, 0.18375970423221588, 0.25417187809944153, 0.49417126178741455, 0.20278885960578918, -0.14768408238887787, -0.6128681898117065, 0.7948779463768005, -0.1641777902841568, -0.2420574277639389, 0.9177829623222351, -0.05309276655316353, 0.22178411483764648, -0.4144335091114044, 0.057267483323812485, -0.635923445224762, 0.34469398856163025, -0.3065340220928192, 0.07622212916612625, 0.19967418909072876, -0.031002840027213097, 0.04649433121085167, 0.4603622853755951, 0.02317575179040432, 0.24640586972236633, -0.04133165627717972, 0.3380191922187805, -0.04301265627145767, 0.5243847966194153, -0.04650397226214409, -0.012123744934797287, 0.22447198629379272, -0.39200353622436523, -0.09473278373479843, -0.08184727281332016, -0.8491281270980835, -0.3453224003314972, -0.37265583872795105, 0.36454105377197266, -0.03864201903343201, -0.27190443873405457, -0.15100902318954468, 0.3901090919971466, 0.3135673701763153, 0.03589515760540962, 0.21269214153289795, -0.48364385962486267, -0.4396999776363373, 0.8183960914611816, 0.39699506759643555, -0.19875304400920868, -0.022471746429800987, 0.1857951134443283, -0.02737860009074211, 0.16371360421180725, 0.16616597771644592, 0.012267966754734516, 0.05620618537068367, 0.018651822581887245, -0.2396780401468277, -0.02174573577940464, -0.106703981757164, -0.6977512240409851, -0.31950685381889343, -0.13538698852062225, -0.8360922932624817, 0.09131652116775513, 0.4902462363243103, -0.781589925289154, 0.03666558861732483, -0.29164186120033264, 0.042730726301670074, 0.11759378761053085, 0.08780487626791, -0.4696256220340729, -0.5758406519889832, -0.6765275001525879, 0.15841619670391083], [-0.5312923789024353, -0.2623939514160156, -0.30647847056388855, -0.25605854392051697, 0.5215982794761658, 0.8101907968521118, 0.11508814990520477, -0.16644403338432312, 0.2660578787326813, 0.22342583537101746, 0.31867220997810364, -0.3605419099330902, 0.12355160713195801, -0.2758133113384247, -0.037615057080984116, 0.6674776673316956, 0.16127587854862213, -0.5115413665771484, 0.044741857796907425, -0.1377200037240982, -0.17199455201625824, -0.561676025390625, -0.496552050113678, 0.48046180605888367, 0.48895126581192017, 0.18109270930290222, 0.632510244846344, -0.021167682483792305, 0.09241441637277603, -0.25785502791404724, -0.033377181738615036, 0.4648560881614685, 0.07609719038009644, 0.48176971077919006, -0.23214022815227509, 0.1778860092163086, 0.42417392134666443, -0.06956551969051361, 0.4852864444255829, 0.2760500907897949, 0.05810141935944557, 0.6462146639823914, -0.47505784034729004, 0.10237247496843338, 0.04875567555427551, -0.5935977101325989, 0.2231777012348175, -0.47892916202545166, 0.8855988383293152, 0.24823138117790222, 0.1708604246377945, 0.7763423323631287, 0.11390069872140884, 0.6132447719573975, 0.38906344771385193, -0.5049915313720703, -0.0254784245043993, 0.7773736715316772, -0.23157541453838348, -0.12298783659934998, -0.6461741328239441, 0.42431849241256714, 0.2565424144268036, -0.5686257481575012, 0.34511396288871765, 0.5374026298522949, 0.03131617605686188, -0.1355045735836029, 0.7408261895179749, -0.1363409012556076, -0.7237704992294312, -0.13903309404850006, -0.14598849415779114, -0.1871224343776703, 0.06937917321920395, 0.2861529290676117, -0.32009369134902954, -0.47799092531204224, 0.04771284759044647, -0.37859046459198, -0.5855249166488647, -0.31864842772483826, -0.007360713090747595, 0.2601317763328552, 0.2381419837474823, -0.19453364610671997, 0.19038164615631104, -0.615925669670105, -0.07170414924621582, 0.17140960693359375, 0.964228093624115, -0.8506851196289062, -0.10153356939554214, -0.16430410742759705, 0.5728504061698914, 0.11506569385528564, 0.07292687892913818, 0.03320080041885376, 0.28524038195610046, 0.1256665289402008, -0.21333590149879456, -0.7054538726806641, -0.328402042388916, -0.24330374598503113, 0.5980870127677917, 0.02655613236129284, 0.3638571500778198, -0.16579894721508026, 0.020804649218916893, -0.3314318358898163, -0.335349440574646, -0.6709290146827698, 0.07514611631631851, 0.2530956566333771, 0.12959977984428406, 0.17534564435482025, 0.5669229030609131, 0.5384923219680786, 0.2839284837245941, 0.27866488695144653, -0.01357769500464201, -0.06581474095582962, 0.5494638681411743, 0.31982284784317017, -0.43822598457336426, -0.10064591467380524, 0.2586483359336853, 0.2381814420223236], [0.039267778396606445, 0.1409670114517212, -0.41854625940322876, -0.03895196691155434, -0.5824345946311951, -0.10117194801568985, 0.3076172173023224, -0.26559749245643616, -0.23347793519496918, -0.40927040576934814, 0.6090742945671082, -0.08731990307569504, -0.25660431385040283, 1.327230453491211, 0.15064233541488647, 0.4774930477142334, 0.24414941668510437, 0.0028286403976380825, 0.24801380932331085, 0.4468081593513489, -0.3346157670021057, -0.2691648304462433, -0.10880236327648163, 0.0870913416147232, -0.38598594069480896, -0.10604303330183029, -0.04650826007127762, 0.14144279062747955, -0.09548244625329971, -0.09441398084163666, 0.6329349875450134, 0.18499606847763062, -0.4509280323982239, 0.7709545493125916, -0.13472096621990204, 0.10389522463083267, 0.2919490933418274, -0.4372650980949402, 0.6934928894042969, 0.11427991092205048, -0.02540489286184311, -0.15326108038425446, 0.4500311315059662, -0.04858213663101196, -0.060079704970121384, 0.06635867804288864, 0.05575808510184288, -0.41868969798088074, 0.06015923619270325, -0.18748736381530762, -0.3221770226955414, -0.11552304029464722, -0.46701207756996155, 0.21702076494693756, -0.14685237407684326, -0.15782245993614197, 0.4090847671031952, 0.5052574872970581, -0.601887047290802, 0.42395851016044617, -0.5647679567337036, 0.10461998730897903, -0.8630134463310242, -0.20056618750095367, 0.21042408049106598, -0.5011740326881409, 0.2724286913871765, -0.11929246038198471, -0.30346372723579407, 0.05522707849740982, -0.131047785282135, -0.4795655906200409, -0.15484631061553955, -0.19033977389335632, 0.2535722553730011, -0.26388227939605713, -0.2341107875108719, -0.31152382493019104, 0.41123154759407043, 0.35410383343696594, 0.6181508302688599, 0.5282513499259949, -0.3231433033943176, 0.8316249251365662, -0.5096974968910217, 1.0058138370513916, -0.2064255177974701, 0.2503170371055603, 0.2923260033130646, 0.9599524736404419, 0.32943862676620483, -0.4046191871166229, -0.8465828895568848, 0.28737542033195496, -0.6764183044433594, -0.005762503482401371, 0.3954017162322998, 0.11796707659959793, -0.3367244601249695, -0.6289168000221252, -0.21982914209365845, -0.1345001757144928, 0.6202515363693237, 0.3737814426422119, 0.3223220407962799, 0.3657839000225067, -0.5614781975746155, 1.2314118146896362, 0.7637778520584106, 0.6011559963226318, 0.33306974172592163, 0.020085526630282402, -0.16770632565021515, -0.04432466998696327, -0.18735164403915405, 0.40828824043273926, 0.2314879596233368, 0.32880136370658875, 0.5105512738227844, -0.62633216381073, 0.6709597706794739, 0.037210363894701004, 0.641835629940033, -0.6061841249465942, -0.7937008738517761, -0.04565735161304474, 0.43218109011650085, -0.41248416900634766], [0.20700891315937042, -0.389293372631073, -0.004333131480962038, -0.03407341241836548, -0.15658871829509735, -0.24256445467472076, 0.1697864979505539, -0.5761610865592957, 0.017673322930932045, 0.4393502473831177, -0.30458056926727295, 0.5824945569038391, -0.5686159133911133, 0.3628038465976715, 0.18230436742305756, 0.4444235563278198, -0.13055135309696198, 0.291471004486084, 0.20324589312076569, 0.1567961722612381, -0.41693970561027527, -0.37105998396873474, 0.10041186958551407, -0.2998213469982147, 0.5248379111289978, 0.48041921854019165, 0.14922846853733063, 0.13697819411754608, 0.03381581977009773, -0.5569033622741699, 0.12263297289609909, -0.0703144371509552, 0.04291490465402603, -0.14943034946918488, 0.08793606609106064, -0.8082826733589172, 0.15910468995571136, 0.14104154706001282, -0.15028052031993866, -0.3922214210033417, -0.04087021201848984, 0.1313958466053009, -0.5508748292922974, -0.39196887612342834, -0.0586148202419281, 0.8088691234588623, -0.06663735210895538, 0.2228102833032608, 0.3281044363975525, 0.5187707543373108, -0.2721979320049286, -0.13419130444526672, 0.015500735491514206, -0.13310173153877258, -0.4298860728740692, -0.5806486010551453, 0.2658386826515198, -0.3582335412502289, 0.7210944890975952, -0.5457738637924194, 0.2737751007080078, -0.20853810012340546, -0.5873522758483887, -0.8869084119796753, 0.09730501472949982, -0.4078408479690552, 0.0701347067952156, 0.5330805778503418, 0.27916261553764343, -0.0768117755651474, -0.30860891938209534, -0.21796321868896484, -0.2218961864709854, 0.10143767297267914, 0.2604443430900574, 0.00033609371166676283, -0.11844871193170547, -0.6482934951782227, -0.36388906836509705, -0.42301228642463684, 0.27483347058296204, -0.2146310806274414, -0.01936866156756878, 0.2084118276834488, -0.17023026943206787, -0.019127629697322845, 0.2566629648208618, 0.8273194432258606, -0.4077604115009308, 0.10287769883871078, 0.42807039618492126, -0.06788495928049088, -0.2544468641281128, -0.2993386387825012, 0.6215725541114807, 0.0472889170050621, 0.10063719749450684, 0.09092078357934952, -0.445565402507782, 0.05358055233955383, -0.364399254322052, 0.3979264497756958, -0.5159944891929626, 0.10093057155609131, -0.34310540556907654, -0.25877878069877625, -0.5611147880554199, 0.06912924349308014, -0.08877651393413544, 0.10792165249586105, 0.09229236096143723, 0.4576224386692047, 0.49228501319885254, 1.0324184894561768, -0.2859087288379669, 0.09331361949443817, -0.07424051314592361, -0.6343375444412231, 0.488284170627594, 0.13399578630924225, 0.6091489791870117, -0.44310417771339417, -0.3897622227668762, 0.37014061212539673, 0.6596643924713135, 0.14324283599853516, -0.47338300943374634, 0.16138795018196106], [-0.2648613154888153, -0.22690677642822266, -0.043144311755895615, 0.586016833782196, 0.7577956318855286, -0.09254929423332214, -0.21992924809455872, 0.5432928800582886, 0.2627333998680115, 0.18550720810890198, 0.7587381601333618, -0.24090400338172913, -0.3869561553001404, 0.3640209436416626, -0.5519388318061829, -0.32621684670448303, 0.19350694119930267, 0.24843986332416534, 0.1525983214378357, 0.4646596908569336, 0.6449772715568542, -1.040144920349121, -0.06651239097118378, -0.061335619539022446, -0.08080431073904037, -0.1835564821958542, 0.4598379135131836, 0.5850432515144348, -0.09590712189674377, -0.5743135809898376, -1.1107791662216187, 0.022331733256578445, -0.11229739338159561, 0.16060113906860352, -0.12720827758312225, -0.14294937252998352, 0.028700008988380432, 0.4105862081050873, -0.04754415526986122, 0.054002486169338226, -0.12517331540584564, 0.5305026769638062, -0.007342546712607145, 0.18982519209384918, 0.46250972151756287, -0.3174809217453003, 0.4664842486381531, 0.31338775157928467, -0.014690055511891842, -0.07538197934627533, 0.49418678879737854, -0.08034850656986237, -0.034690313041210175, -0.16577047109603882, 0.15119199454784393, 0.49427202343940735, 0.0996284931898117, 0.07647029310464859, -0.11129608005285263, 0.018434248864650726, -0.06811285763978958, -0.2748944163322449, -0.01805521361529827, -0.26439228653907776, 0.11474412679672241, 0.1189117580652237, 0.2454557865858078, -0.06547467410564423, 0.049369268119335175, -0.5008646845817566, 0.2269713133573532, -0.026889003813266754, -0.4590100646018982, -1.102781057357788, -0.5890077352523804, -0.3873840868473053, -0.05033111572265625, 0.15969060361385345, 0.18603424727916718, -0.03143775090575218, -0.14074839651584625, 0.7214617729187012, -0.39435043931007385, -0.43199029564857483, 0.31825071573257446, 0.2485130876302719, 0.29964447021484375, -0.3465021848678589, 0.17894454300403595, 0.42950180172920227, 0.2709874212741852, -0.31563761830329895, -0.4896850287914276, 0.4773898124694824, 0.12850376963615417, 0.38042357563972473, -0.35493990778923035, 0.28839513659477234, -0.5804142355918884, -0.8590139150619507, -0.6519858837127686, 0.11884619295597076, -0.01654835417866707, 0.6685624122619629, 0.10044325888156891, 0.3747043311595917, -0.5792888402938843, 0.9210819005966187, -0.20053285360336304, 0.6502600908279419, -0.2636803984642029, -0.483807772397995, 0.02239358052611351, 0.5357149839401245, 0.1279984563589096, -0.29841670393943787, -0.4313441812992096, 0.26100754737854004, -0.03405943512916565, -0.056152697652578354, 0.19794750213623047, 0.07410204410552979, -0.014600825496017933, 0.09789327532052994, 0.018925271928310394, -0.5557016730308533, -0.4601432979106903, 0.37303972244262695], [0.4950058162212372, -0.4091777801513672, 0.7630326747894287, -0.35195547342300415, 0.6436197757720947, -0.4774630069732666, 0.5801392197608948, 0.6924031972885132, 0.38726115226745605, -0.5783072710037231, -0.04310532659292221, -0.6370984315872192, -0.4066580832004547, 0.20085453987121582, 0.04328758642077446, -0.44712182879447937, -0.18546803295612335, 0.84200519323349, -0.3406488597393036, 0.0005818954668939114, 0.3217288851737976, 0.18689671158790588, 0.18970245122909546, -0.04433011636137962, -0.5473393797874451, -0.18529047071933746, -0.08837880194187164, -0.7180322408676147, -0.3081282079219818, 0.37900111079216003, 0.8772537112236023, 0.28186294436454773, -0.8526790142059326, -0.15682737529277802, 0.07905362546443939, -0.16278088092803955, -0.12357044219970703, -0.3705669045448303, -0.7859190106391907, -0.4393209218978882, -1.0027704238891602, -0.1333753913640976, -0.06420823931694031, -0.031599968671798706, 0.4555303454399109, -0.6693306565284729, 0.5834702253341675, -0.1592397838830948, 0.4089098870754242, -0.11571089923381805, 0.9004030823707581, -0.4880180358886719, -0.6118043661117554, -1.0997685194015503, 0.47364342212677, 0.0672587901353836, 0.1102830097079277, 0.043871548026800156, 0.12444093823432922, -0.04087718576192856, 0.26974689960479736, 0.1893385946750641, -0.8376593589782715, -0.18265400826931, 0.17375075817108154, 0.3339167833328247, 0.49601835012435913, -0.8153979182243347, -0.20011307299137115, -0.038626473397016525, 0.13016992807388306, 0.6857154369354248, -0.07800444960594177, 0.3411415219306946, -0.2798445224761963, -1.499109148979187, 0.46427059173583984, 0.13185128569602966, 0.2824861705303192, 0.5964711904525757, 0.15289783477783203, 1.1449167728424072, 0.2759770452976227, -0.8070682287216187, 0.09566205739974976, -0.37072357535362244, 0.6775144338607788, -0.12455123662948608, 0.09016790986061096, -0.6820505857467651, 0.012166507542133331, 0.36585378646850586, 0.08604664355516434, 0.9601004123687744, -0.05065623298287392, 0.3060532808303833, -0.3989221155643463, -0.3820754587650299, 0.6375902891159058, 0.25019365549087524, 0.41378432512283325, 0.4472554326057434, -0.4280834496021271, -0.12556040287017822, -0.3690955340862274, 1.038433313369751, 0.23945929110050201, -0.14349150657653809, 0.32971978187561035, 0.7114235162734985, 0.25193044543266296, 0.27866682410240173, 0.21637853980064392, -0.20281168818473816, -0.16173851490020752, 0.003492253366857767, 0.19422167539596558, -0.09136734902858734, 0.4168672561645508, -0.34207868576049805, -0.2542220950126648, 0.40813106298446655, -0.4430944323539734, 0.06012863665819168, 0.3682359755039215, -1.1605437994003296, -0.5416504144668579, -0.21959887444972992], [0.4680185317993164, 0.37164512276649475, -0.08180423080921173, -0.040994901210069656, 0.3218877613544464, -0.3053477704524994, -0.27221718430519104, -0.23234573006629944, -0.20203135907649994, -0.4841511845588684, 0.14185982942581177, -0.06444595009088516, 0.02206329070031643, 0.5102136731147766, 0.24369874596595764, 0.45429956912994385, -0.4134584069252014, 0.2501876950263977, -0.05799064040184021, 0.6634085774421692, -0.030979322269558907, 0.2795935273170471, 0.1824917048215866, 0.621362566947937, -0.1507163792848587, 0.18389064073562622, -0.2810426950454712, -0.3004412055015564, 0.01902957074344158, -0.27148759365081787, -0.01224666927009821, 0.12460368126630783, 0.8185256123542786, 0.3021257519721985, -0.2186688631772995, 0.4248470962047577, -0.35805103182792664, -0.013553799130022526, -0.02518765814602375, -0.10090763121843338, -0.16221608221530914, -0.12527479231357574, -0.07402482628822327, -0.13757134974002838, -0.06984610110521317, 0.25987011194229126, 0.9868923425674438, -0.32618248462677, 0.07734023779630661, 0.3034559190273285, 0.28950801491737366, 0.3761275112628937, -1.160400152206421, -0.471881240606308, -0.2781067192554474, 0.021632494404911995, -0.24167904257774353, 0.24961978197097778, -0.013779524713754654, 0.42810389399528503, 0.473775714635849, -0.10414519906044006, 0.3175050616264343, 0.521725594997406, 0.06569454073905945, -0.27226513624191284, -0.3305208086967468, 0.2619461417198181, 0.15746501088142395, -0.07450444996356964, -0.10264404863119125, 0.6304357051849365, 0.08965892344713211, -0.020469076931476593, -0.10034693777561188, -0.27968135476112366, 0.4349967837333679, 0.3536642789840698, 0.0350709930062294, -0.14847752451896667, -0.03835243731737137, -0.3831654489040375, -0.02055663801729679, -0.143263041973114, -0.35944288969039917, -0.13441261649131775, -0.5267515778541565, -0.23845241963863373, -0.05714862793684006, 0.060658592730760574, 0.24050894379615784, 0.44079819321632385, 0.1446564793586731, -0.38574591279029846, -0.17557574808597565, 0.1779668927192688, 0.10680246353149414, -0.09568007290363312, -0.4445854425430298, -0.5566480755805969, 0.2921936511993408, -0.8320590853691101, 0.1305369883775711, 0.145341694355011, 0.44355109333992004, -0.0873342901468277, 0.44614118337631226, -0.33753716945648193, -0.3954318165779114, 0.0918184444308281, -0.07117290794849396, -0.2651069462299347, 0.1757931262254715, 0.19768041372299194, -0.060727808624506, 0.014268262311816216, -0.13524402678012848, -0.047728944569826126, -0.209392711520195, 0.47286269068717957, -0.07026610523462296, 0.4420285224914551, -0.38357028365135193, -0.5232085585594177, 0.20494802296161652, -0.0629337802529335, 0.0009365860605612397, 0.058499742299318314], [0.8803357481956482, 0.300705224275589, -0.17689380049705505, -0.30621299147605896, -0.3253873288631439, 0.5165466070175171, 0.1615602821111679, 0.3750241696834564, 0.17931005358695984, 0.964635968208313, 0.0104215731844306, -0.4964834153652191, -0.2950102388858795, 0.08608119189739227, -0.20201334357261658, -0.6658356189727783, -0.3380633294582367, 0.3651218116283417, -0.26851415634155273, -0.09512707591056824, -0.24136222898960114, -0.1535951793193817, 0.5796342492103577, 0.29750216007232666, -0.12901845574378967, 0.1787605881690979, -0.0030747829005122185, -0.14889229834079742, 0.3199913501739502, 0.04715348407626152, 0.4368356764316559, 0.02906869538128376, 0.26818326115608215, -0.5129027366638184, 0.2967725396156311, 0.7358456254005432, 0.11673963814973831, 0.4460192620754242, 0.1043812558054924, -0.5122162103652954, 0.46826982498168945, 0.18289469182491302, -0.2559286653995514, -0.6643858551979065, -0.006779546849429607, -0.5986346006393433, 0.3554825484752655, 0.5220829248428345, 0.0021750465966761112, 0.5733405947685242, -0.437764972448349, 0.36242133378982544, 0.14547792077064514, -0.047123245894908905, -0.509735107421875, -0.3005754053592682, -0.4767424166202545, -0.3665107488632202, 0.14535017311573029, -0.7430765628814697, -0.29020223021507263, 0.06927695870399475, 0.06133091822266579, -0.04389992728829384, -0.6396470665931702, -0.16799227893352509, 0.5027278065681458, 0.3853781819343567, -0.2769004702568054, -0.6204206347465515, 0.4544532001018524, 0.2693518400192261, -0.3835585415363312, 0.7949801087379456, -0.1720704734325409, -0.15391720831394196, 0.364952951669693, -0.40504297614097595, 0.06222180277109146, -0.6469399333000183, 0.04949803277850151, 0.6440586447715759, -0.3571944534778595, -0.1019667461514473, 0.06576696783304214, -0.4880034923553467, 0.5325023531913757, -0.20831231772899628, 0.12247096002101898, -0.1906672716140747, 0.32001993060112, -0.14149722456932068, 0.09241499751806259, 0.37389156222343445, -0.19439880549907684, 0.7549943327903748, -0.04686800017952919, 0.09033729881048203, 0.2795325815677643, 0.48591676354408264, 0.1476985663175583, -1.271376609802246, 0.06363140046596527, 0.24234066903591156, -0.06445615738630295, 0.0734788328409195, -0.8478721976280212, 0.6259609460830688, -0.38468629121780396, 0.3145509362220764, 0.17594167590141296, -0.19572913646697998, -0.5034860968589783, -0.23494495451450348, 0.1144808903336525, 0.07410411536693573, -0.37360280752182007, 0.7174941301345825, 0.6796711683273315, 0.2379714548587799, -0.20205293595790863, 0.15123379230499268, 0.4072345197200775, 0.4170553386211395, -0.21073481440544128, 0.037512052804231644, 0.11956141144037247, 0.22032643854618073], [0.232320174574852, -0.13994437456130981, -0.37753987312316895, -0.1501827836036682, -0.06781041622161865, 0.4478311538696289, -0.27208882570266724, 0.14580251276493073, 0.35829535126686096, 0.1945183426141739, 0.16314464807510376, 0.019919652491807938, -0.1643342524766922, -0.2742776870727539, -0.05635461211204529, -0.12366700172424316, 0.09631811827421188, 0.22388385236263275, -0.20843186974525452, -0.6845230460166931, -0.06411748379468918, 0.3486231863498688, -0.06768671423196793, 0.11003442108631134, -0.6562432050704956, -0.1543564349412918, -0.5251733660697937, -0.10209353268146515, 0.22593428194522858, -0.3809649646282196, 0.32697489857673645, -0.26190510392189026, 0.287467360496521, 0.28913983702659607, -0.2668699622154236, 0.5463392734527588, 0.06928088515996933, 0.14548233151435852, 0.39801982045173645, 0.0486525259912014, -0.0883503183722496, -0.05276748165488243, 0.026099592447280884, 0.04391121119260788, 0.09175114333629608, -0.10275059193372726, 0.34370002150535583, 0.1341169774532318, 0.07861237972974777, -0.7265939712524414, -0.4446161687374115, -0.535298764705658, -0.3616900146007538, -0.17590977251529694, -0.025656530633568764, -0.04924466088414192, 0.02595822699368, 0.08185328543186188, -0.2468648999929428, 0.2667464315891266, -0.1248883455991745, -0.5033660531044006, -0.3222118020057678, 0.10571733862161636, -0.03892603889107704, 0.11111876368522644, -0.2959226369857788, -0.20527267456054688, 0.22831673920154572, -0.07969320565462112, 0.014228579588234425, -0.4271990954875946, -0.05424855276942253, 0.7417451739311218, -0.20718446373939514, 0.2944698929786682, 0.19214187562465668, 0.19916020333766937, -0.5021852850914001, -0.21476298570632935, -0.09254249930381775, 0.05398442596197128, 0.04106846824288368, -0.22018486261367798, 0.007700903806835413, 0.4707348942756653, 0.10105273872613907, 0.2367386817932129, 0.4715025722980499, 0.07566467672586441, -0.4427112340927124, 0.18197515606880188, -0.6017121076583862, 0.10876085609197617, 0.3744351863861084, 0.21683333814144135, 0.18020881712436676, 0.8354595899581909, 0.37203365564346313, -0.272643119096756, 0.09779219329357147, 0.06272146105766296, 0.12134804576635361, 0.02717585302889347, 0.1877003014087677, 0.23388367891311646, 0.21171823143959045, 0.5943264365196228, 0.7123892903327942, -0.23800691962242126, 0.4558785557746887, 0.047476571053266525, 0.10780978202819824, 0.37496834993362427, 0.027579404413700104, -0.12211774289608002, -0.40853384137153625, 0.15106360614299774, 0.4053766131401062, 0.017406271770596504, 0.11567872762680054, -0.05129970610141754, 0.4307752847671509, -0.37229302525520325, 0.5646900534629822, -0.22775809466838837, -0.056438546627759933, -0.3435724079608917], [-0.21353597939014435, 0.45997849106788635, -0.19856329262256622, -0.20010650157928467, -0.4657011032104492, -0.16839484870433807, 0.07274724543094635, 0.11049887537956238, -0.11741524189710617, -0.22135815024375916, -0.20202484726905823, 0.1328715831041336, -0.3914708197116852, -0.14947126805782318, -0.02009461261332035, 0.2986469864845276, -0.5360255837440491, 0.1976531445980072, 0.36118805408477783, -0.29556500911712646, 0.3963584899902344, -0.4754215180873871, -0.7386047840118408, 0.1691768765449524, -0.2438199818134308, 0.06847067922353745, 0.15728308260440826, 0.5660190582275391, -0.14704951643943787, 0.41280439496040344, -0.3857475221157074, -0.24543385207653046, 0.4198811948299408, 0.5982024669647217, 0.7079033255577087, -0.5220247507095337, 0.07838932424783707, 0.013955417089164257, 0.49734312295913696, -0.13154490292072296, -0.0035946224816143513, 0.03312112018465996, 0.011003819294273853, 0.2999087870121002, -0.27468302845954895, 0.11308924108743668, 0.5613253116607666, -0.023157641291618347, 0.27699485421180725, 0.22071701288223267, 0.411857932806015, -0.2231164276599884, -0.293234646320343, -0.5846160054206848, -0.011321687139570713, 0.6014494895935059, -0.0685252845287323, 0.4567328095436096, 0.6197548508644104, -0.07365019619464874, 0.28509101271629333, -0.2266475409269333, 0.04898554086685181, -0.671547532081604, -0.3290070593357086, 0.09553410112857819, 0.2018529325723648, -0.2122858166694641, 0.10499054938554764, -0.01715642772614956, 0.11925876885652542, -0.009034545160830021, 0.3261491358280182, 0.011516090482473373, 0.5732105374336243, 0.3160957098007202, -0.27300870418548584, -0.11064530909061432, 0.37788835167884827, -0.3413587212562561, -0.024597762152552605, -0.10965937376022339, -0.19256837666034698, -0.1425270289182663, 0.36432328820228577, 0.41597846150398254, -0.3497666120529175, 0.038211822509765625, 0.18682006001472473, 0.029505152255296707, 0.1810007244348526, -0.5231301784515381, 0.16261419653892517, -0.21892337501049042, -0.5601885914802551, -0.1515369415283203, -0.3587527573108673, 0.3951074481010437, 0.34144994616508484, -0.8699746131896973, -0.24012774229049683, 0.4615614712238312, -0.2417791187763214, 0.2882363796234131, -0.0868477001786232, -0.04518000781536102, 0.2221517413854599, -0.6275028586387634, 0.29535967111587524, -0.12928591668605804, 0.5128937363624573, -0.14487551152706146, 0.16922613978385925, 0.08520540595054626, 0.2290458083152771, 0.18645484745502472, -0.059835284948349, 0.3254941403865814, 0.7997903823852539, -0.08037248998880386, 0.4396069049835205, -0.07857327908277512, -0.05502333119511604, 0.5545976161956787, -0.1271238625049591, -0.025865541771054268, 0.01636721007525921, -0.5391186475753784], [0.1908477246761322, 0.24968084692955017, -0.584858775138855, -0.013393706642091274, -0.44064831733703613, 0.5646913647651672, 0.011805621907114983, -0.19838032126426697, -0.08850022405385971, -0.013626987114548683, 0.121683768928051, -0.21523500978946686, -0.3613507151603699, 0.507800281047821, 0.4957631826400757, 0.5480349659919739, 0.12770463526248932, 0.09975383430719376, -0.12138639390468597, 0.09047789871692657, -0.6353333592414856, 0.12601622939109802, -0.20534074306488037, 0.26160040497779846, 0.05762188509106636, 0.5820379257202148, 0.6675848364830017, 0.023696418851614, 0.4638212025165558, 0.08417331427335739, 0.052975885570049286, 0.3448745906352997, -0.24628201127052307, -0.11983313411474228, -0.059473566710948944, -0.8207488059997559, 0.10205744951963425, -0.0179071556776762, -0.5082203149795532, 0.08099222928285599, 0.23937691748142242, 0.05371035262942314, 0.04446897283196449, 0.07582499831914902, -0.7167412042617798, 0.42071861028671265, -0.2428840547800064, 0.18841858208179474, 0.039631739258766174, 0.17844673991203308, -0.48743611574172974, 0.18936839699745178, 0.12908963859081268, 0.3545462489128113, 0.13246065378189087, 0.05851738527417183, -0.16357214748859406, -0.03645559027791023, 0.13927866518497467, -0.09513673186302185, -0.5425781011581421, -0.10361666232347488, 0.23542159795761108, 0.306354820728302, -0.13794027268886566, 0.29970917105674744, 0.11906430125236511, -0.4705151319503784, -0.2553149461746216, -0.06435137987136841, -0.39881396293640137, -0.12869775295257568, -0.21695753931999207, -0.0022737595718353987, 0.3282528519630432, 0.1545274555683136, -0.039815861731767654, 0.0983305275440216, 0.4293477237224579, -0.8129172921180725, 0.1948445737361908, -0.07294604927301407, 0.1796254962682724, 0.15137127041816711, -0.6253449320793152, 0.029379336163401604, -0.012144087813794613, -0.029594000428915024, 0.09389045089483261, -0.429228812456131, -0.36550143361091614, -0.17740561068058014, -0.3827313482761383, 0.4987972676753998, 0.16616228222846985, 0.27805858850479126, 0.39247995615005493, -0.1421145498752594, -0.43359100818634033, -0.3718516528606415, 0.32914578914642334, -0.2178082913160324, 0.26989927887916565, -0.18395811319351196, 0.19607502222061157, -0.2684614062309265, -0.03350548446178436, 0.3914925158023834, -0.22739611566066742, -0.3688134253025055, 0.24713057279586792, 0.004539426416158676, 0.19328396022319794, -0.32054564356803894, 0.2758638560771942, 0.004719656892120838, 0.6180344820022583, 0.29895758628845215, -0.23087380826473236, -0.46519869565963745, 0.3506673574447632, 0.045130450278520584, 0.06066010519862175, 0.3420668840408325, -0.051402900367975235, 0.18405500054359436, -0.3430074453353882, -0.15074101090431213], [-0.18665902316570282, 0.526200532913208, -0.28763866424560547, 0.40429145097732544, 0.021397722885012627, 0.16140566766262054, 0.31554272770881653, 0.4236612021923065, -0.09123928844928741, -1.0863420963287354, 0.03246046602725983, 0.4227754473686218, 0.26382821798324585, 0.2023622989654541, -0.5757315158843994, 0.0043551423586905, 0.5029085278511047, 0.3198632597923279, -0.15561619400978088, 0.6079270243644714, 0.1514793485403061, -0.6311737298965454, -0.12761889398097992, -0.0437433235347271, 0.07848170399665833, -0.016329403966665268, -0.17219798266887665, 0.08621177077293396, -0.46379947662353516, 0.01868564262986183, 0.8574353456497192, -0.2348431944847107, 0.218854159116745, -0.08368454873561859, 0.9742339849472046, -0.05925246700644493, -0.17720714211463928, 0.707108199596405, -0.11246980726718903, 0.5599756836891174, -0.05588344484567642, -0.7852153182029724, 0.40614840388298035, -0.7287014126777649, -0.08895853906869888, 0.24053864181041718, -1.011617660522461, -0.22899068892002106, -0.49474918842315674, -0.03802923113107681, -0.2111237645149231, -0.36649709939956665, -0.16048309206962585, 0.30420809984207153, 0.039793238043785095, -0.1991165578365326, -0.18144725263118744, 0.20355106890201569, 0.6075884103775024, 0.01604841835796833, -0.207147017121315, 1.128894329071045, 1.0316188335418701, -1.006482720375061, 0.03221128135919571, 0.146259143948555, 0.4014110863208771, -0.41704052686691284, 0.004160191863775253, 0.009405304677784443, 1.022234559059143, -0.34306615591049194, 0.4584771692752838, -0.3972589075565338, -0.28291207551956177, -0.06999831646680832, -0.3826238214969635, 0.056556567549705505, 0.19203297793865204, 1.182534098625183, 0.6137967109680176, -0.11242105811834335, 0.6282265782356262, 0.3621805012226105, -0.04598936811089516, 0.2788545489311218, 0.11282140016555786, 0.03124808892607689, -0.15264491736888885, -0.07442284375429153, -0.2700451612472534, -0.15394319593906403, -0.3559918701648712, -0.14304311573505402, -0.6202198266983032, -0.15643197298049927, 0.4110732674598694, -0.20383130013942719, 0.44038259983062744, -0.4589381515979767, 0.6583552956581116, 0.7086327075958252, 0.7519869804382324, -0.10238106548786163, -0.48197901248931885, -0.4790631830692291, -0.16431085765361786, -0.170515775680542, 0.8508326411247253, -0.3674929738044739, 0.0012114470591768622, 0.1796652227640152, 0.2721908390522003, 0.10641808807849884, -0.5920257568359375, 0.10496243089437485, 0.19984154403209686, -0.4907224178314209, -0.2786453664302826, -1.0212241411209106, 0.7388278841972351, -0.581099808216095, -0.8840647339820862, -0.4436575174331665, -0.4227265417575836, -0.03489867225289345, -0.3422721326351166, -0.37386631965637207], [-0.04364989697933197, -0.17049352824687958, 0.253186970949173, -0.47889217734336853, 0.05458487197756767, 0.20885033905506134, -0.09306742250919342, -0.14828912913799286, 0.2007027268409729, 0.1779910922050476, -0.02549038454890251, 0.8028688430786133, 0.48453593254089355, 0.09412763267755508, 0.45304280519485474, -0.2628293037414551, 0.12470850348472595, 0.3889511823654175, 0.1676350235939026, -0.047851115465164185, 0.40902501344680786, 0.04057346284389496, 0.35065758228302, 0.07711757719516754, 0.5123704671859741, -0.26731792092323303, 0.6566280722618103, 0.15013337135314941, -0.17212188243865967, -0.3633875846862793, -0.3008939027786255, -0.010864955373108387, -0.680718183517456, -0.08503613620996475, -0.20314118266105652, 0.257026731967926, 0.30283382534980774, 0.547097384929657, 0.337115615606308, -0.26019686460494995, -0.18264812231063843, -0.21293678879737854, -0.0352930948138237, -0.3044680655002594, -0.8071957230567932, -0.38988590240478516, 0.277614951133728, -0.5974919199943542, 0.0654987096786499, 0.06299819052219391, -0.2858507037162781, -0.38541796803474426, 0.3510996103286743, -0.33141082525253296, 0.07218333333730698, 0.22121085226535797, -0.27870264649391174, 0.4605429768562317, -0.32054242491722107, 0.4862775206565857, -0.13893546164035797, -0.34352293610572815, 0.7562441229820251, -0.09828993678092957, -0.06767664849758148, 0.6973105072975159, -0.5379162430763245, 0.3783800005912781, 0.42547670006752014, -0.4601188004016876, 0.02447374351322651, 0.09110560268163681, -0.6852650046348572, -0.27664539217948914, -0.048991039395332336, -0.05099065601825714, 0.7269552946090698, -0.5066571235656738, 0.13807950913906097, 0.16477620601654053, 0.2953016757965088, 0.4920809864997864, 0.3866259455680847, 0.06777485460042953, -0.5218489170074463, 0.26313966512680054, 0.03810999169945717, -0.34843796491622925, 0.38612446188926697, -0.44706985354423523, -0.007584898266941309, -0.4984435737133026, -0.7595953941345215, 0.44131195545196533, -0.08232022076845169, -0.010458339005708694, -0.2218298614025116, 0.29850006103515625, 0.11611659824848175, 0.1910632699728012, -0.10233069956302643, -0.1293933391571045, 0.3208718001842499, 0.20236191153526306, 0.19540323317050934, -0.2775125503540039, 0.6087005734443665, 0.7575357556343079, 0.054731473326683044, -0.2876077890396118, 0.6525723934173584, -0.05068331956863403, -0.4012870788574219, -0.33913564682006836, -0.3912656009197235, 0.2763392925262451, -0.29911062121391296, 0.008617433719336987, -0.3493710160255432, -0.3513050377368927, -0.2076183557510376, -0.6548057198524475, 0.653935432434082, -0.28314563632011414, 0.329582542181015, -0.6734321713447571, 0.11224664747714996, 0.025317680090665817], [-0.03805496543645859, -0.20722715556621552, 0.5826702117919922, -0.5834002494812012, -0.24601241946220398, 0.32841652631759644, 0.3645790219306946, -0.33425623178482056, 0.19469507038593292, 0.5076092481613159, 0.6282361745834351, 0.5297480821609497, -0.4816138744354248, 0.023676224052906036, 0.675198495388031, -0.574873149394989, -0.29566705226898193, -0.850729763507843, -0.09540809690952301, -0.753238320350647, -0.1464645117521286, -0.6187872290611267, 0.2548980414867401, 0.02614470198750496, 0.33592936396598816, -0.32717612385749817, 0.06319023668766022, -0.40025416016578674, -0.28042811155319214, -0.4728904962539673, 0.0541512705385685, 0.20890358090400696, -0.023781903088092804, -0.28591665625572205, 0.26849305629730225, -0.18618839979171753, 0.3961356282234192, -0.33998122811317444, -0.028874028474092484, -0.5730624198913574, 0.08298565447330475, -0.3546519875526428, -0.123814657330513, 0.19077065587043762, 0.19527368247509003, 0.2373240888118744, -0.12289755791425705, -0.2607927918434143, 0.3072591722011566, -0.21706515550613403, -0.015974901616573334, 1.0767897367477417, -0.6555744409561157, -0.33682888746261597, 0.28291547298431396, -0.15796278417110443, -0.16518932580947876, -0.16551165282726288, 0.08361849188804626, 0.3680507242679596, -0.37422460317611694, -0.28174644708633423, 0.2904638648033142, -0.6385167837142944, 0.6466987133026123, -0.4350774586200714, 0.5006820559501648, 0.29143714904785156, 0.5441141724586487, -0.12596973776817322, -0.6270207762718201, -0.42700397968292236, -0.38553163409233093, -0.5281894207000732, -0.2140183299779892, 0.28914475440979004, -0.603835940361023, -0.15877656638622284, 0.1428634077310562, -0.5049120187759399, -0.8575332760810852, -0.27377352118492126, -0.35756757855415344, -0.07067666947841644, 0.4672899842262268, -0.35268399119377136, 0.23369215428829193, -0.6154970526695251, 0.3161303997039795, 0.17724068462848663, -0.01808079332113266, 0.047902073711156845, 0.06457051634788513, -0.5049083828926086, 0.06718246638774872, 0.03662477433681488, 0.21728423237800598, 0.49702566862106323, -0.4639073312282562, -0.03143983334302902, -0.3080892860889435, -0.3799254298210144, -0.22422517836093903, 0.31560251116752625, 0.49567294120788574, -0.31778374314308167, -0.1581280380487442, 0.5510294437408447, 0.19355300068855286, -0.2686026394367218, 0.14559657871723175, 0.24997968971729279, 0.0323500856757164, 0.10195740312337875, -0.04366166517138481, -0.1285015046596527, -0.9014759659767151, -0.26365530490875244, 0.24429763853549957, -0.5030914545059204, -0.25939667224884033, -0.6019668579101562, 0.46076780557632446, 0.1658329963684082, 0.9180763959884644, 0.4021785855293274, 0.06055565923452377, -0.21599794924259186], [-0.561285138130188, -0.2226964384317398, -0.6913912296295166, 0.4795970320701599, 0.007372917607426643, -0.04159422218799591, -0.1846189647912979, -0.5443013906478882, 0.09863804280757904, -0.2515254318714142, -0.08682059496641159, -0.0882604643702507, 0.10141453146934509, 0.2986983060836792, 0.6991276144981384, 0.08305473625659943, 0.22790387272834778, 0.6735884547233582, 0.6834454536437988, 0.48336321115493774, -0.2977760136127472, 0.4453611671924591, -0.41289135813713074, 0.04775981605052948, -0.1830708533525467, -0.9317417144775391, -0.446625679731369, -0.1693873405456543, -0.5281449556350708, -0.29439249634742737, 0.6477230191230774, 0.28747159242630005, 0.14266392588615417, 0.14665809273719788, 0.2284948080778122, 0.48629626631736755, 0.6022953391075134, -0.5585861802101135, -0.5298475027084351, -0.4957805573940277, -0.9471261501312256, -0.6275078058242798, -0.1654958575963974, 0.3032487630844116, 0.2898740768432617, -0.06722614914178848, -0.06397119909524918, 0.5430484414100647, -0.8293665647506714, -0.5731479525566101, 0.2673514783382416, 0.1333063691854477, -0.7823527455329895, 0.22883346676826477, 0.6792579889297485, -0.3150671422481537, -0.5667353868484497, -0.1801169216632843, -0.32012221217155457, -0.12218806147575378, -0.08069906383752823, 0.432361900806427, -0.42625540494918823, 0.11132732033729553, 0.3491409718990326, -0.21238973736763, -0.2300637811422348, -0.05250585079193115, -0.09784229099750519, -0.18266233801841736, 0.535213053226471, -0.4309411942958832, 0.1614004671573639, -0.10035249590873718, -0.2984544336795807, -0.3770671784877777, 0.10045793652534485, 0.09970596432685852, -0.009258953854441643, 0.5718777775764465, 0.293565034866333, -0.21668483316898346, 0.5070967674255371, -0.4573083221912384, 0.07660481333732605, 0.40967482328414917, -0.04691315069794655, -0.01101444847881794, -0.45449429750442505, 0.6585133671760559, 0.611162006855011, -0.4450371563434601, -0.11602957546710968, -0.35618463158607483, 0.028122475370764732, -0.22292807698249817, -0.8563761711120605, 0.20242571830749512, -0.29315176606178284, -0.01194256916642189, -0.2998674809932709, 0.03614957630634308, 0.6475398540496826, 0.7433232665061951, 0.3619486689567566, 0.9821133017539978, -0.6765238046646118, 0.0613962784409523, 0.19508972764015198, -0.20770962536334991, 0.49086177349090576, 0.19670908153057098, 0.46720466017723083, 0.2765701413154602, -0.05038350448012352, -0.01748298481106758, -0.3103872537612915, -1.2682663202285767, 0.0746254250407219, 0.1931343823671341, 0.09103181958198547, -0.3106189966201782, -0.5554748773574829, -0.31641721725463867, 0.08840641379356384, -0.453451931476593, 0.42286860942840576, -0.8782859444618225], [-0.33810093998908997, 0.2182038426399231, -0.41837969422340393, -0.44618886709213257, 0.1802373230457306, -0.021903008222579956, -0.15811581909656525, 0.09906395524740219, 0.585079550743103, -0.30850642919540405, -0.18852666020393372, 0.6053736805915833, -0.22051535546779633, -0.2505406141281128, 0.4690702259540558, 0.31316936016082764, -0.0046211304143071175, -0.8523998260498047, 0.17230813205242157, 0.1208183690905571, -0.7004978060722351, 0.4622000455856323, -0.36305665969848633, 0.06590904295444489, 0.3427049517631531, 0.4823814928531647, -0.008071410469710827, -0.7594233751296997, -0.03550155460834503, -0.257475346326828, 0.08254784345626831, 0.4652140438556671, -0.12452314794063568, -0.35402849316596985, -0.2043866068124771, -0.1859150528907776, -0.6612099409103394, 0.3196510076522827, 0.4371415376663208, 0.017162319272756577, 0.16644839942455292, -0.05782845616340637, -0.6543652415275574, -0.32015174627304077, -0.21247778832912445, 0.6934705972671509, 0.06502045691013336, 0.5892096757888794, 0.09530479460954666, -0.23386259377002716, 0.6424208879470825, 0.4443756937980652, 0.3101874589920044, 0.2581242620944977, 0.24718934297561646, -0.32481488585472107, -0.021406155079603195, -0.28319051861763, -0.30125856399536133, -0.021971100941300392, -0.2999621033668518, 0.567495584487915, -0.4790758192539215, -0.44333305954933167, -0.2037057727575302, 0.55687016248703, 0.4863285720348358, -0.1468888819217682, 0.5949944853782654, 0.6025497317314148, 0.21630017459392548, -0.4345783591270447, 0.16392512619495392, 0.04933449253439903, -0.18324902653694153, 0.1976093351840973, 0.3303263783454895, -0.16421742737293243, -0.4513269364833832, -0.7760895490646362, -0.4514763653278351, 0.2210947424173355, -0.4176897406578064, -0.122504822909832, 0.045949652791023254, -0.3246566951274872, 0.3044514060020447, -0.1929752230644226, 0.4118565022945404, 0.0777059867978096, -0.4272731840610504, 0.3474506437778473, 0.39380431175231934, -0.037860020995140076, 0.04118964076042175, -0.8176648616790771, -0.609594464302063, 0.21958425641059875, 0.4727839231491089, 0.13693280518054962, 0.31078478693962097, -0.36849305033683777, -0.4225570559501648, -0.49926891922950745, -0.19218191504478455, -0.19831086695194244, -0.6205611228942871, -0.323672354221344, -0.8849129676818848, -0.2289465218782425, 0.5721473693847656, -0.08008263260126114, -0.21498003602027893, 0.28764936327934265, 0.0716819018125534, -0.19205251336097717, -0.0772731825709343, -0.14253264665603638, 0.41061636805534363, -0.2978270649909973, -0.5558879375457764, -0.8005547523498535, -1.0022621154785156, -0.19025924801826477, -0.03535819053649902, 0.362457275390625, -0.3413049578666687, 0.10949716717004776], [0.0009143518982455134, -0.36606231331825256, -0.06576227396726608, 0.027809424325823784, 0.7714290022850037, 0.443308562040329, 0.11630463600158691, 0.20523276925086975, 0.2486843764781952, -0.16542279720306396, -0.48604774475097656, 0.19110482931137085, -0.35565900802612305, -0.3173440992832184, -0.2485145926475525, 0.09192793816328049, 0.17120151221752167, 0.1888180822134018, -0.09009520709514618, 0.32866963744163513, 0.22188569605350494, -0.49356600642204285, 0.00996209867298603, -0.0886925682425499, 0.048951033502817154, 0.1305394023656845, 0.1111835464835167, -0.08856040239334106, -0.5895803570747375, -0.05640114098787308, 0.1567172110080719, -0.7049266695976257, -0.29077425599098206, -0.1706247180700302, -0.375387042760849, 0.3860386312007904, -0.39584046602249146, 0.2679882049560547, 0.25391557812690735, -0.10148611664772034, 0.39855220913887024, -0.6685920357704163, -0.16236022114753723, 0.1615820676088333, 0.1610054075717926, 0.023818550631403923, 0.1549614816904068, 0.2255757451057434, -0.16251464188098907, 0.14958229660987854, 0.1053599864244461, 0.9728446006774902, 0.4971470832824707, 0.2598894238471985, -0.18325720727443695, 0.32126644253730774, 0.30784115195274353, 0.2779924273490906, -0.2242816835641861, -0.03004908747971058, -0.011469846591353416, -0.2528623938560486, -0.040438130497932434, -0.22000470757484436, -0.050018060952425, -0.04217281937599182, -0.09382911026477814, 0.5652644634246826, 0.050004713237285614, -0.06387171894311905, 0.7411336302757263, -0.06350439786911011, -0.3107878565788269, -0.05660208687186241, -0.06106679514050484, 0.09034059941768646, 0.053901635110378265, 0.4742177724838257, -0.427090585231781, 0.6964809894561768, -0.007388541474938393, -0.5308316349983215, -0.416047602891922, 0.08627071231603622, -0.05248195677995682, -0.18257112801074982, -0.07297740131616592, -0.34316545724868774, -0.3446713089942932, -0.05159934237599373, -0.17872470617294312, 0.2251373529434204, 0.5465866923332214, -0.7739446759223938, 0.3112843632698059, -0.380286306142807, 0.1837719827890396, -0.6200174689292908, 0.6377111673355103, -0.16392432153224945, 0.38061776757240295, 0.11673934012651443, 0.1432371288537979, -0.13479168713092804, -0.13913336396217346, 0.07986513525247574, -0.31887760758399963, -0.3639395534992218, -0.007578887045383453, 0.3433859646320343, -0.4345727264881134, 0.33794713020324707, -0.5589125752449036, 0.36581435799598694, 0.16893965005874634, -0.6219383478164673, 0.055219750851392746, 0.17783670127391815, -0.035232577472925186, 0.43589869141578674, 0.19048674404621124, -0.21835996210575104, -0.44162023067474365, 0.11920509487390518, -0.5889316201210022, -0.7238947153091431, 0.10888007283210754, -0.3741353452205658], [0.12081491202116013, -0.3640471398830414, 0.02994978427886963, 0.21803176403045654, 0.14318548142910004, -0.09109924733638763, 0.04338936135172844, 0.30057093501091003, 0.35861679911613464, 0.3695433437824249, 0.8493709564208984, -0.2588852643966675, -0.422700434923172, 0.2654300034046173, -0.39384618401527405, 0.061120904982089996, 0.06391321122646332, -0.1714303344488144, 0.366193562746048, 0.276904433965683, -0.4182833135128021, 0.47000330686569214, -0.6208227276802063, -0.40863630175590515, 0.56263667345047, 0.09491943567991257, -0.2172642946243286, 0.045456863939762115, 0.2251005470752716, -0.5364205241203308, -0.272621750831604, -0.22907321155071259, 0.2117343246936798, -0.400666207075119, 0.43093031644821167, 0.23660317063331604, 0.4470248818397522, -0.44096148014068604, -0.46412959694862366, -0.07460537552833557, -0.027392083778977394, 0.7519480586051941, -0.5083939433097839, -0.304703950881958, 0.17161925137043, 0.37908440828323364, -0.23433317244052887, 0.13234135508537292, 0.2256515771150589, 0.014519576914608479, -1.0125540494918823, 0.17659015953540802, 0.2818690538406372, 0.40599414706230164, -0.20305690169334412, -0.5735184550285339, 0.16170401871204376, -0.3123033046722412, 0.21445098519325256, -0.3270213305950165, -0.0241253562271595, -0.000265088165178895, -0.059400949627161026, 0.04004450514912605, 0.0726199597120285, -0.13654330372810364, 0.3524037003517151, -0.10638116300106049, -0.029879514127969742, 0.37923920154571533, -0.4076855778694153, 0.7669191956520081, 0.03212490677833557, 0.003804145148023963, -0.20353031158447266, -0.30804169178009033, -0.32839110493659973, -0.08834198117256165, 0.3842310607433319, -0.5744814872741699, 0.21828283369541168, -0.4255635738372803, 0.21209201216697693, -0.40945833921432495, 0.7265612483024597, 0.12390796095132828, 0.11152493953704834, -0.4455840289592743, -0.6235625147819519, -0.29453691840171814, -0.16278664767742157, 0.34306493401527405, 0.15168645977973938, -0.3581380248069763, 0.2854267358779907, -0.14024567604064941, 0.3391883075237274, -0.28294405341148376, 