{"model_type": "Sequential", "descriptors": [{"layer": "Input2D", "height": 1, "width": 1, "channel": 9, "batch": 1}, {"layer": "Dense2D", "units": 128}, {"layer": "Bias2D", "units": 128}, {"layer": "BatchNormalization", "epsilon": 0.001}, {"layer": "TanH"}, {"layer": "Dense2D", "units": 128}, {"layer": "Bias2D", "units": 128}, {"layer": "BatchNormalization", "epsilon": 0.001}, {"layer": "TanH"}, {"layer": "Dense2D", "units": 3}, {"layer": "Bias2D", "units": 3}], "weights": [[[[[0.2996332347393036, -0.20074261724948883, 0.9496955871582031, -0.2771216332912445, -0.05539950355887413, -0.5188779234886169, 0.06441817432641983, -0.08614438027143478, -0.06514549255371094, 0.046048011630773544, -0.2941669225692749, -0.7013293504714966, 0.08486966788768768, -0.7435702085494995, 0.2564955949783325, 0.5972005128860474, 0.17646920680999756, 0.16765694320201874, 0.7059891819953918, 0.4295161962509155, 0.4551088809967041, -0.09241412580013275, 0.9730916023254395, 0.1222974956035614, -0.44429683685302734, 1.1124365329742432, -0.04227006435394287, -0.44906872510910034, -0.459810733795166, -0.31579577922821045, -0.20641086995601654, -0.13760899007320404, -0.45013627409935, -0.333893358707428, -0.5119925737380981, -0.44051527976989746, 0.007499609608203173, 1.1733646392822266, 0.8208966851234436, 0.10636445134878159, 0.18792404234409332, -0.1314219981431961, -0.28858378529548645, -0.8035536408424377, 1.223958134651184, 0.6546890735626221, -0.1288272738456726, 0.03994372487068176, 0.42576608061790466, 0.19416455924510956, -0.6171284317970276, 0.12961061298847198, -0.22670932114124298, -0.5807289481163025, -0.2484682947397232, 0.10901793092489243, -1.272024154663086, 0.027181481942534447, -0.06999325007200241, -1.024801254272461, -0.6036340594291687, 0.5192143321037292, 0.01278931088745594, 0.25770819187164307, 0.011828231625258923, -0.7261893153190613, -0.30544671416282654, -0.4505447745323181, -0.20487135648727417, 0.05419163405895233, -1.2117642164230347, -0.6478209495544434, -1.3916888236999512, -0.21599631011486053, 0.4665926992893219, -0.05895040184259415, -0.0822528526186943, -0.2870778441429138, 1.0122233629226685, 0.41463813185691833, 0.1502869576215744, 0.2650924623012543, 0.06357099860906601, -0.5433396100997925, -1.3025062084197998, -0.1597222536802292, 0.07691945880651474, 0.12719082832336426, -0.07893921434879303, 0.7007194757461548, 0.7253477573394775, -0.1098998486995697, -0.39432933926582336, 0.25064387917518616, 1.1434307098388672, -0.3796180188655853, -0.5765740275382996, -0.8795710802078247, 0.10799376666545868, 0.20002654194831848, 0.21159453690052032, -1.8610022068023682, 0.6725605130195618, -0.07163071632385254, 0.19076846539974213, 0.10359131544828415, -0.06544937193393707, -0.15105454623699188, -0.7954429388046265, -0.016104815527796745, 0.7874045372009277, -0.18984267115592957, -0.12864871323108673, 0.09010913223028183, 0.9307634830474854, 1.037872552871704, -0.8162054419517517, -0.25430774688720703, 0.34735071659088135, 0.20757895708084106, 0.07955145835876465, -0.28286758065223694, -0.2776294946670532, 0.244243785738945, 0.7396681308746338, 0.8083882331848145, -0.05776986479759216, 0.21912536025047302], [0.5535106062889099, -0.20068319141864777, 0.13544614613056183, -0.34685200452804565, 0.2561185359954834, 0.3437156081199646, 0.9572364091873169, 0.9340181350708008, 1.0366902351379395, 0.19774769246578217, -0.1142878383398056, 0.5046016573905945, 0.08216720074415207, -0.7940651178359985, -0.17803451418876648, 0.9690477848052979, -0.5921274423599243, -0.8529523611068726, -0.4828760325908661, 0.5923787355422974, -0.4049719572067261, 0.4138120710849762, -0.4179615378379822, -0.017451107501983643, 0.2057574838399887, 0.20167863368988037, -0.13863946497440338, 0.02422141470015049, -0.7982829213142395, 1.1630992889404297, -0.8692091107368469, -0.12232568114995956, -0.024655213579535484, -0.2502778172492981, -0.2689564526081085, -0.21006447076797485, 0.29971233010292053, -0.19185225665569305, 0.8586170077323914, 0.1904653161764145, -0.3949090540409088, 1.002921223640442, 1.0381512641906738, 0.34022602438926697, 0.7944363355636597, -0.01771700568497181, 0.08814192563295364, -1.1797891855239868, 0.8607206344604492, 0.05560971796512604, 0.6290469169616699, 1.004713773727417, 0.0010273221414536238, 0.42712879180908203, -0.1767934113740921, 1.0641149282455444, 0.5528050065040588, 0.6958325505256653, 0.6114882826805115, 0.8499526977539062, -0.27981677651405334, 0.05273035913705826, -0.4611276090145111, 0.009156236425042152, 0.2564713954925537, 0.4936683475971222, 0.14124538004398346, 1.0454055070877075, -0.794313371181488, -1.4310314655303955, 0.4367813169956207, -1.0744160413742065, 0.25785788893699646, -0.025767892599105835, -0.9123755097389221, -0.16197900474071503, 0.3600215017795563, 0.041019074618816376, 0.5515609383583069, 0.7633641362190247, -0.09358876943588257, -0.142624631524086, 0.1839601993560791, -0.5344330072402954, -0.21563927829265594, -0.8669966459274292, -0.6507611274719238, 0.15071015059947968, -0.2907150983810425, -0.42830631136894226, 0.0917564183473587, -0.02584930881857872, 0.18364813923835754, -0.7807831168174744, -0.2559220492839813, 1.262031078338623, 0.8685447573661804, -0.3984665870666504, 0.8738777041435242, 0.024296507239341736, 0.03572225570678711, 0.0669710785150528, -0.43112900853157043, -0.17874646186828613, 0.6993497610092163, 0.1770143061876297, -0.7843586206436157, -0.2197980284690857, -0.033038947731256485, -0.14732776582241058, 0.07405760884284973, -0.4802354872226715, -0.14180299639701843, 0.6810643076896667, -0.4660359025001526, -0.40936487913131714, 0.19279223680496216, -0.7587388753890991, 0.3881414830684662, 0.09264860302209854, -1.34153151512146, 0.12689007818698883, 0.14567594230175018, 0.5346547365188599, 0.363233357667923, 0.7100591063499451, -0.8710228800773621, -0.39607861638069153], [0.7484883666038513, 0.09518402814865112, -0.7772846221923828, 0.7914583086967468, 0.44305479526519775, 1.144164800643921, -0.10276918858289719, 0.2666544020175934, -0.05704119801521301, -0.37816551327705383, 1.3783824443817139, 0.8003290891647339, 0.010415548458695412, -0.36008092761039734, 0.14075852930545807, -0.030489398166537285, 0.0047935377806425095, 0.051116667687892914, 1.2598823308944702, 0.6547703146934509, -0.185843825340271, -0.016695698723196983, 0.44371286034584045, -0.06574016809463501, -0.4910169243812561, -0.6659330129623413, 0.22692649066448212, -1.1041042804718018, -1.5276918411254883, -0.16018573939800262, -0.5300858616828918, -0.5503710508346558, -0.022162193432450294, 0.4225485920906067, 0.264204204082489, -0.038075536489486694, 0.17274953424930573, -0.7852171063423157, -0.4090943932533264, -1.1112622022628784, -0.11146600544452667, 0.22412832081317902, -0.1457556188106537, 0.38755372166633606, 0.6659025549888611, -0.18196801841259003, 0.045257337391376495, -0.019092654809355736, -0.5477845072746277, -0.01095442846417427, 0.07326747477054596, 0.36723631620407104, 0.10894475877285004, -0.050676774233579636, -0.06871683895587921, 0.0175823662430048, 0.48168301582336426, -0.0743858739733696, 0.03274751082062721, 0.18610623478889465, -0.8555992245674133, 0.2851410508155823, 0.0953226387500763, -0.36673620343208313, -0.38439780473709106, 0.4747989773750305, 0.189470112323761, -0.225934699177742, 0.6647072434425354, 0.3000182807445526, 0.09621600806713104, -0.19551077485084534, -0.8039326071739197, -0.5017462372779846, 0.77747642993927, -0.14327400922775269, -0.0007744196336716413, 0.04830498248338699, -0.49524688720703125, -0.09888190776109695, -0.08814667910337448, -0.2844788432121277, 0.11713074147701263, -1.3255685567855835, -0.39955177903175354, 0.8645224571228027, 0.0009316500509157777, 0.01826236955821514, 0.25296714901924133, 0.16141419112682343, 0.004884249996393919, 0.041138384491205215, -0.21202600002288818, 0.3762161433696747, -0.029442323371767998, 0.6419834494590759, 0.24014535546302795, -0.3347422778606415, -0.21905452013015747, 0.03426450863480568, -0.6709219217300415, -0.24916639924049377, -0.6563559770584106, 0.0005099606933072209, -0.7951069474220276, 0.19505932927131653, 0.7771708369255066, 0.11653442680835724, 0.7672516703605652, 0.16952940821647644, -0.48937979340553284, -0.07758425176143646, 0.17390738427639008, -0.10990109294652939, -0.4050822854042053, 0.4697558581829071, 0.561684787273407, 1.4021103382110596, 0.6508665084838867, 0.22426459193229675, 0.051855091005563736, 0.9766292572021484, 0.022549455985426903, 0.41951581835746765, 0.06399600952863693, 0.24959072470664978, 0.36696526408195496, 0.11285307258367538], [1.00315523147583, -0.2053452730178833, -0.490670770406723, 0.11173857748508453, 0.3228554129600525, 0.2710922360420227, 0.1515602469444275, -0.4575549364089966, 0.3231341242790222, -0.09535077959299088, 0.46330639719963074, 0.22712232172489166, 0.3858833611011505, 0.0534486398100853, -1.6530466079711914, 0.3366784453392029, 0.1622936725616455, -0.23544925451278687, -0.19187325239181519, -0.6019718050956726, -0.22131744027137756, 0.5698258280754089, -0.38283252716064453, 0.6317983865737915, 0.5892486572265625, 0.5772033333778381, 0.8586145043373108, -0.7488747835159302, 0.13218285143375397, -0.08420400321483612, -0.08020181208848953, 1.240655779838562, -0.01884688436985016, 0.7854971885681152, -0.8919463157653809, 0.6538307666778564, -0.6028472781181335, -0.22611944377422333, -0.17774756252765656, -0.4370557963848114, -0.7442349195480347, 0.014496520161628723, 0.6307550072669983, -0.19676506519317627, -0.047684114426374435, 0.06891847401857376, 0.809185266494751, -0.2710570693016052, -0.9383280873298645, -0.9131226539611816, -0.2067168653011322, -0.18812982738018036, -1.8327805995941162, -0.9536008238792419, -0.437417209148407, -0.3121846318244934, 0.3008977770805359, -0.20355452597141266, -1.48283851146698, -0.2586889863014221, 0.37685444951057434, -0.7358877658843994, 0.01727614365518093, 0.3546675741672516, -0.0269278846681118, 0.7842170596122742, 1.2762467861175537, -0.16435447335243225, 0.2140786349773407, -0.2876940071582794, -0.0019471204141154885, -0.030978629365563393, 0.02338552474975586, -0.8301534056663513, -0.22585874795913696, -0.6950814723968506, -0.14938242733478546, 0.2841282784938812, 0.3108777403831482, -0.07250431925058365, -0.33554548025131226, -0.4132838845252991, -0.7320413589477539, -0.023949673399329185, 0.6164161562919617, 0.732062816619873, -0.5036643743515015, 0.8398606181144714, 0.5022425651550293, -0.7516821026802063, 0.26306217908859253, -0.5000308156013489, -0.13438941538333893, 0.9171683192253113, -0.4871877431869507, 0.06166461110115051, -0.3458593189716339, -0.5872458219528198, -0.5015726685523987, -0.5873023271560669, 0.714539110660553, 0.43816888332366943, 0.8278254270553589, 0.8346750736236572, -0.4453415274620056, -0.27786535024642944, -0.373231440782547, 0.7631047368049622, 0.6618149876594543, 0.22708944976329803, -0.5516584515571594, -0.5250122547149658, -0.3072614073753357, 0.7724521160125732, 0.2998919188976288, 0.12738314270973206, -0.3467366397380829, -0.1835930496454239, -0.6912340521812439, 0.2204168438911438, -0.17515379190444946, -0.0862036943435669, -0.790151059627533, 0.46842849254608154, -1.0400289297103882, 0.3336741030216217, -0.6514103412628174, 0.4610343277454376], [0.04093511030077934, 0.7616440653800964, -0.42766207456588745, 0.9237353801727295, 0.7044598460197449, 0.0724010095000267, -1.0843592882156372, -0.7705103158950806, -0.6154154539108276, 0.3803357481956482, 0.3240588307380676, -0.6495142579078674, 0.296289324760437, -0.022964470088481903, -0.27751973271369934, -0.6701236963272095, 1.1588270664215088, 0.6527070999145508, -0.29417476058006287, 0.029906615614891052, -0.3166499733924866, -0.5234734416007996, -0.8277304768562317, 0.8744679689407349, 0.13820067048072815, 0.14133822917938232, 0.5994616746902466, 0.391869455575943, 0.300847589969635, -0.7547593712806702, 0.7189674973487854, -0.3399078845977783, -0.9016480445861816, 0.7567418813705444, 0.256910502910614, -0.19127705693244934, -0.6410201191902161, -0.14174619317054749, -0.8061168789863586, -0.6985287666320801, -0.3973199725151062, -0.18934069573879242, -0.16255176067352295, -0.4977496266365051, -0.05872576683759689, -0.0945163443684578, 0.27327823638916016, 0.7026481628417969, 0.1266954094171524, 0.25226500630378723, -0.5613009929656982, -0.12095492333173752, -0.5250018239021301, -0.6640293002128601, -0.7522410750389099, -0.671432375907898, -0.0545271672308445, -0.9857728481292725, 0.09336939454078674, -0.5358531475067139, 0.4589649438858032, -0.4152410626411438, 0.13042114675045013, -0.977243185043335, -0.3567409813404083, -0.24090774357318878, 0.45345598459243774, -0.8103414177894592, 0.3560090661048889, 0.22287103533744812, -0.006628533825278282, -0.3864428699016571, -0.27579131722450256, -0.8013390898704529, -0.3964499533176422, 1.099923849105835, -0.5463513731956482, 0.05127527564764023, -0.2831543982028961, -1.1451623439788818, 0.187961608171463, 0.5140431523323059, 0.7274863719940186, 0.3385811150074005, 0.3486129939556122, 0.3872465491294861, -1.0773100852966309, 0.23145486414432526, 0.14060762524604797, 0.039738308638334274, -0.8377284407615662, 0.7322778105735779, 1.2653497457504272, -0.5211226344108582, -0.44787663221359253, -0.25912266969680786, -0.28911614418029785, 0.30555459856987, -0.8978106379508972, 1.4316470623016357, 0.4657190442085266, 0.08009644597768784, 0.4232826232910156, -1.6541705131530762, 0.13325493037700653, -1.0341848134994507, 0.5187726020812988, 0.8783384561538696, -0.35313883423805237, 0.8333752155303955, 0.44713783264160156, 0.9102159142494202, -1.0416769981384277, -0.2545252740383148, 0.8683791160583496, -0.8312664031982422, -0.8419512510299683, 0.3071451783180237, -0.33533424139022827, 1.409210205078125, 0.7944611310958862, 0.07286908477544785, -0.10351194441318512, -0.925532877445221, -0.4481660723686218, 0.40405094623565674, -0.8528786301612854, -0.9244401454925537], [0.1840406358242035, -0.44222086668014526, -0.2839398980140686, -0.4436520040035248, -0.2491019070148468, 0.2110958844423294, -0.01792832463979721, 0.45930859446525574, -0.1270264983177185, 0.7209994792938232, -0.48643407225608826, 0.0637967437505722, -0.8335910439491272, 0.7017072439193726, 0.12971758842468262, 0.1328766644001007, 0.31849297881126404, -0.5948809385299683, -0.13097241520881653, 0.06264512240886688, 0.1036674901843071, -0.25421270728111267, 0.07663259655237198, -0.2912874221801758, -0.669147253036499, 0.23434121906757355, 0.8770231604576111, -0.2715974450111389, 0.0029472524765878916, -0.37603384256362915, 0.5050202012062073, 0.6160120368003845, 0.5813009142875671, 0.18808770179748535, 0.3095550537109375, -0.3847368657588959, 0.46741437911987305, 0.2281312197446823, -0.1705145537853241, -0.17436103522777557, -0.18077728152275085, 0.6115934252738953, -0.17191922664642334, -0.3912385404109955, -0.1946624219417572, -0.7354603409767151, -0.6378339529037476, 0.07496555894613266, 0.04768417403101921, -0.15232834219932556, -0.3512815535068512, 0.32671070098876953, 0.3056679666042328, 0.08695331960916519, -0.5302174687385559, -0.6080997586250305, -0.16658978164196014, -0.5013614296913147, 0.40832656621932983, 0.07163868844509125, -0.006455480586737394, 0.1572706401348114, -1.265783429145813, -0.8149638175964355, -0.006482767406851053, 0.26885125041007996, 0.21352386474609375, 0.21173056960105896, -0.2729540467262268, -0.14704883098602295, 0.4737071394920349, -0.06127477064728737, 0.21204347908496857, 0.5509917140007019, 0.5271620750427246, -0.03567389026284218, -0.6166437864303589, -0.8278571963310242, 0.01255233958363533, 0.18969517946243286, -0.6969770193099976, 0.668964684009552, 0.20140793919563293, 0.15671826899051666, 0.3680124878883362, -0.03501241281628609, -0.6521404385566711, 0.5937934517860413, 0.9927166700363159, -0.7433050274848938, -0.180209681391716, 0.007295103278011084, -0.5266980528831482, 0.027160996571183205, 0.08093112707138062, -0.1654944121837616, -0.6873993873596191, 0.10956541448831558, 0.09167572855949402, -0.4490987956523895, -0.3376733958721161, 0.06543239206075668, -0.15981708467006683, 0.0939435139298439, -0.3621261417865753, -0.45940256118774414, 0.11073417216539383, -0.3994876742362976, 0.30149489641189575, -0.976913332939148, -0.33859723806381226, -0.17137044668197632, 0.3627021014690399, 0.11608051508665085, 0.020404016599059105, 0.008350067771971226, 0.10112765431404114, 0.06989240646362305, -0.18872766196727753, -0.027049178257584572, -0.31479397416114807, -0.9063063263893127, 0.16431204974651337, 0.11561045795679092, 0.014742964878678322, 0.37148693203926086, 0.13891756534576416, 0.4235294461250305], [-0.053767766803503036, 0.10570857673883438, 0.34800010919570923, -0.2467062920331955, -0.33167046308517456, 0.2315863072872162, -0.08260077983140945, 0.22885099053382874, 0.1491372138261795, 1.1388375759124756, -0.31085020303726196, 0.2581658661365509, 0.838254988193512, -0.029099561274051666, 0.210333451628685, -0.19659237563610077, -0.10473863035440445, -0.27662503719329834, -0.10191059857606888, 0.2613525092601776, -1.038119912147522, 0.764668345451355, -0.16431696712970734, -0.9101985096931458, -0.7798854112625122, -0.23433171212673187, -0.728851318359375, 0.13672363758087158, 0.08008124679327011, 0.15025430917739868, 0.1508323699235916, -0.012600556947290897, 0.03515332564711571, -0.0937841534614563, 0.26567408442497253, -0.5087398886680603, 0.693996787071228, -0.05715788155794144, 0.16078750789165497, 0.23149584233760834, 0.06237656995654106, 0.03973758965730667, 0.2968691289424896, 0.3905474841594696, -0.0475105382502079, 0.031163571402430534, -0.774651288986206, 0.059279244393110275, -0.0987773984670639, 0.4814275801181793, -0.53581702709198, -0.24854162335395813, 0.08965306729078293, 0.10345330834388733, -0.19086675345897675, -0.11556176841259003, -0.18054872751235962, -0.516769289970398, 0.04433374106884003, 0.24622635543346405, -0.058441054075956345, -0.5845707654953003, 0.5185413956642151, 0.2770058512687683, 0.0839143916964531, -0.3118528127670288, -0.053848642855882645, -0.4260316491127014, 0.35625141859054565, 0.34293776750564575, 0.2454351782798767, 0.6918578743934631, 0.10427361726760864, 0.3325662314891815, 0.10299111157655716, -0.2552933394908905, -0.8452422618865967, -0.7389081716537476, 0.09777732193470001, 0.08567493408918381, -0.5082444548606873, 0.41552937030792236, -0.2293594628572464, -0.06345906853675842, 0.17957547307014465, -0.31249159574508667, -0.17996831238269806, 0.3765266537666321, 0.47821786999702454, -0.02053476870059967, -0.8189488649368286, -0.5351235866546631, 0.04256269708275795, -0.4591750204563141, -0.7391283512115479, -0.31566306948661804, 0.24547052383422852, -0.7954131364822388, -0.05973389744758606, 0.46311894059181213, -0.6619603633880615, -0.060767728835344315, -0.35043081641197205, -0.08497544378042221, 0.09800655394792557, -0.2105434238910675, -0.007768861949443817, -0.36066168546676636, 0.1302965134382248, -0.5949262976646423, -0.22015750408172607, -0.11106345057487488, 0.052575163543224335, 0.32126927375793457, 0.4748290777206421, 0.003690125187858939, 0.07542172074317932, 0.2613053023815155, -0.08031513541936874, -0.028789782896637917, 0.09868739545345306, 0.1317795217037201, -0.13002969324588776, 0.3625844419002533, -0.41606342792510986, -0.408186674118042, 0.2744772732257843, 0.6560596823692322], [0.1704094260931015, 0.9341104030609131, -0.18554696440696716, -0.3057940602302551, 0.5874711275100708, -0.5111437439918518, 0.11205845326185226, -0.43392252922058105, 0.3870357573032379, 0.019333699718117714, -0.15336981415748596, 0.4904491901397705, 0.5865659117698669, 0.09193449467420578, -0.7005279064178467, 0.4067426919937134, -0.6013023257255554, 0.4452994763851166, 0.06177552789449692, -0.5487301349639893, -0.191427081823349, 0.045722104609012604, 0.034636326134204865, 0.1668071746826172, -0.5606858134269714, 0.16110149025917053, -0.11769735813140869, 0.05130834877490997, -0.276396244764328, 0.11307929456233978, -0.3599969148635864, 0.014855455607175827, -0.5693406462669373, 0.44257986545562744, -0.7540001273155212, 0.27680128812789917, 0.15783265233039856, -0.4625176787376404, 0.025583254173398018, -0.3494872450828552, 0.5823701024055481, 0.6958035230636597, 0.1350259631872177, -0.6038541197776794, 0.12737001478672028, 0.9487209320068359, 0.7311199307441711, -0.05264526233077049, 0.19987183809280396, 1.030531883239746, -0.09031862765550613, 0.6035891771316528, -0.19683438539505005, 0.2686503231525421, 0.8876612186431885, 0.11183667927980423, -0.028309866786003113, -0.036668021231889725, 0.35124820470809937, -0.08484958857297897, 0.03633157163858414, 0.8379412293434143, -0.5924381613731384, 0.2426902949810028, -0.3932739198207855, -0.020720060914754868, -0.38610413670539856, -0.21337273716926575, -0.3080725073814392, -0.04383644834160805, 0.6046372056007385, 0.1055724248290062, -0.2231217324733734, 0.1669972538948059, 0.0022042046766728163, -0.7062851190567017, 0.5589325428009033, -0.5392636656761169, -0.33490368723869324, 0.03854719176888466, 0.4021975100040436, -0.22957198321819305, -0.8825337290763855, -0.05804445594549179, -0.013352550566196442, 0.1464049369096756, -0.10849916189908981, 1.0336438417434692, 0.4507506191730499, 0.534361720085144, -0.3844951093196869, -0.2960937023162842, 0.4767705798149109, 0.06891249865293503, -0.18271617591381073, 0.045404039323329926, 0.294942706823349, -0.03629331290721893, -0.21624356508255005, 0.18865685164928436, 0.3883078396320343, -0.2627096474170685, -0.01633954420685768, 0.0747218132019043, -0.19692052900791168, 0.8346866369247437, -0.18910063803195953, -0.667452335357666, -0.4156799018383026, -0.17980962991714478, -0.6635191440582275, 0.32623016834259033, -0.22775022685527802, 0.5427860617637634, -0.02516997419297695, -0.08903232216835022, 0.4539758265018463, -0.21397718787193298, 0.7146425247192383, 0.3267761170864105, -0.2548365890979767, 0.20414647459983826, 0.09813648462295532, -0.5781422853469849, -0.08555049449205399, 0.0033767197746783495, 0.12037292122840881, -0.059817466884851456], [0.3770953118801117, 0.4619932770729065, -0.3363057076931, 0.3926295042037964, -0.9207351803779602, -0.03069882094860077, 0.03441350907087326, 0.08833801746368408, 0.048608534038066864, 0.38648706674575806, 0.18782548606395721, -0.16058418154716492, 0.040066346526145935, -0.5908691883087158, -0.24611696600914001, 0.02488229051232338, 0.24013793468475342, -0.44936704635620117, 0.20320461690425873, -0.7544704675674438, 0.8617414236068726, 0.9481357932090759, -0.31409046053886414, -0.47717952728271484, 0.05259508267045021, -0.06179145351052284, -0.052318695932626724, 0.37763071060180664, -0.1278715431690216, 0.0910329818725586, -0.3475360870361328, 0.009935042820870876, -0.6481949687004089, 0.5985702276229858, 0.4687725305557251, -0.826261043548584, -0.8355397582054138, -0.22713060677051544, -0.1558011919260025, 0.3417704701423645, 0.8702439069747925, 0.3367812931537628, 0.28408733010292053, 0.4543110430240631, 0.3281777501106262, -0.4015200734138489, -0.33419302105903625, -0.08805754780769348, 0.375723659992218, 0.1973845362663269, 0.797131359577179, 0.7366400361061096, 0.30127954483032227, -0.6044012308120728, 0.25410857796669006, -0.05179258808493614, -0.4776669442653656, -0.4713892936706543, -0.4782291650772095, 0.3164210319519043, -0.856043815612793, 0.21506641805171967, -0.2691795527935028, 0.34976235032081604, -1.7780812978744507, 0.5893060564994812, 0.8666896820068359, -0.22508540749549866, -0.6612402200698853, -0.07913438230752945, 0.47978606820106506, -0.2783312499523163, 0.20399489998817444, 0.02097846195101738, -0.19641336798667908, 0.06422750651836395, -0.6399888396263123, -0.7359762191772461, 0.47308120131492615, -0.12658344209194183, 1.0475133657455444, -1.2561031579971313, 0.31456995010375977, 0.4601384401321411, -0.3717585504055023, -0.10722696036100388, 0.6216337084770203, -0.04601370543241501, -0.6324554681777954, -0.03594265878200531, 0.30459630489349365, 1.0389987230300903, 0.520547091960907, -0.37920239567756653, 0.09063905477523804, 0.10908550024032593, -0.16813401877880096, 0.4826886057853699, 0.5204095840454102, 0.06718755513429642, -0.4689095616340637, 0.15578509867191315, -0.16867613792419434, 0.33732667565345764, 0.717552900314331, 0.5154091715812683, 0.7744606733322144, -0.07304199784994125, -0.3525831401348114, -0.27128538489341736, -0.08759400248527527, 0.8055975437164307, -0.8571023344993591, -0.7835551500320435, 0.041421107947826385, 0.3140210509300232, -0.017513636499643326, -0.28035658597946167, -0.48839470744132996, 0.6381000280380249, 0.35275325179100037, -0.3353421986103058, 1.328908920288086, -0.10731178522109985, 0.17259572446346283, -0.5523363351821899, -0.2986758351325989, -0.6474249958992004]]]], [[[[-0.0008588648634031415, 0.011487762443721294, -0.007895521819591522, 0.000343501364113763, 0.006445889826864004, 0.0015828812029212713, -0.003327122423797846, -0.0052866549231112, 0.009804744273424149, -0.0024024269077926874, -0.0011562238214537501, -0.001524316263385117, 0.0024036976974457502, 0.00618287967517972, -0.0020022992976009846, -0.001319877221249044, 0.0038660557474941015, -0.01180301234126091, -0.0014432186726480722, -0.0018930634250864387, -0.0008231798419728875, 0.0021633740980178118, -0.002755120862275362, -0.003235683310776949, 0.0014335253508761525, -0.0008982382132671773, 0.0008050228352658451, -0.0018494094256311655, -0.0006525207427330315, 5.699615940102376e-06, 0.00343432673253119, -0.0001899722556117922, -0.002336944453418255, -0.0010737330885604024, -0.0014035801868885756, 0.0004551523888949305, -0.004435362759977579, -6.224570097401738e-05, 2.65058406512253e-05, 0.00040489283856004477, -0.003282979130744934, -0.003238243516534567, 0.008846750482916832, 0.002393957693129778, 0.0028951000422239304, -0.0011142772855237126, -0.004127791151404381, 0.001557811163365841, 0.00020605816098395735, 0.007583993952721357, 0.0036470009945333004, -0.0014908668817952275, 0.003764393739402294, -0.003102228045463562, -0.007894325070083141, -0.0038653218653053045, 0.000846716167870909, 0.002144830534234643, -0.0009217353072017431, -0.00040394318057224154, -0.010209193453192711, 0.0010097060585394502, -0.0023302503395825624, 0.001525437575764954, -0.00016401291941292584, 0.00172795366961509, 0.0011230591917410493, 0.007483269087970257, -0.0038037621416151524, -0.004824241157621145, -0.0008358657942153513, 0.002162182005122304, 0.009066003374755383, 0.0018371534533798695, 0.0005421938258223236, 0.00965271145105362, 0.0026497000362724066, 0.0025470450054854155, 0.00012208042608108371, 0.011227766051888466, -0.010236697271466255, -0.0009835364762693644, 0.011334852315485477, -0.0063546341843903065, -0.0078906724229455, 0.001044112490490079, -0.003821443533524871, 0.0007529529393650591, -0.006040945183485746, -0.006834214087575674, -0.0015132311964407563, 2.800607580866199e-05, -0.0008109444170258939, -0.0018728881841525435, 0.004724615719169378, 0.0019228033488616347, -0.004289036151021719, 0.003590364009141922, -0.025034453719854355, 0.00029461918165907264, 0.0016673043137416244, 0.00161865318659693, 0.00179705407936126, 0.0005021874676458538, 0.0041566588915884495, -0.001285162172280252, -0.0012164651416242123, 0.001581302029080689, -0.0013406400103121996, -0.00044333384721539915, -0.006621748208999634, -0.01700240559875965, 0.003749140538275242, -0.0036072987131774426, -0.004719358403235674, 0.001611990388482809, -0.0014701600885018706, -0.00730186328291893, -0.003985487390309572, 0.004106443375349045, -0.016080627217888832, 0.001215880154632032, 0.009136882610619068, 0.005669705104082823, -0.00013843626948073506, 0.0060809217393398285, 0.0011486173607409, 0.004294027574360371]]]], [[[[1.289646029472351, 1.139823079109192, -0.0006171593558974564, 2.083045482635498], [1.145625352859497, -0.11548351496458054, 0.011358982883393764, 1.017568588256836], [1.7062392234802246, -1.4046399593353271, -0.008021489717066288, 1.989102840423584], [2.1331801414489746, -1.4591138362884521, 0.0004999529919587076, 1.303329348564148], [2.2679049968719482, -0.1315692961215973, 0.006490912288427353, 2.2998228073120117], [1.351426601409912, 1.3191252946853638, 0.0018208245746791363, 2.015957832336426], [1.903781771659851, -1.4476248025894165, -0.0032626637257635593, 0.7040954828262329], [1.2143964767456055, 1.163153052330017, -0.005090125370770693, 0.9700204133987427], [2.3707587718963623, -1.4378398656845093, 0.009896961972117424, 0.6694079637527466], [1.6786855459213257, 0.30670222640037537, -0.0023592726793140173, 1.8171809911727905], [2.785860538482666, -0.45771995186805725, -0.0010119955986738205, 2.295116901397705], [2.254697322845459, 0.5765689611434937, -0.0015407631872221828, 1.4191340208053589], [1.322587251663208, -1.4718066453933716, 0.0023057900834828615, 2.200164318084717], [2.0317931175231934, 0.9085538983345032, 0.0059396675787866116, 1.8651795387268066], [1.6156035661697388, -0.3118487000465393, -0.0020726509392261505, 3.3837943077087402], [1.671898365020752, 0.2741051912307739, -0.0012147431261837482, 1.0952277183532715], [1.5537972450256348, 0.9151905179023743, 0.004005463793873787, 0.9725144505500793], [1.83034348487854, 0.3992406129837036, -0.012059388682246208, 0.9949804544448853], [1.661957859992981, -2.0824203491210938, -0.0015506991185247898, 2.535010576248169], [1.63886296749115, 1.6704716682434082, -0.0017024726839736104, 4.398928642272949], [1.4448168277740479, -0.4666116237640381, -0.000841241329908371, 3.391423225402832], [1.483700156211853, -0.43071871995925903, 0.002227151533588767, 3.108105182647705], [1.867260217666626, 1.6588971614837646, -0.002972056157886982, 1.905884861946106], [1.7908588647842407, 0.10013436526060104, -0.003099731169641018, 1.1390422582626343], [1.3587239980697632, 0.5321707725524902, 0.0016371910460293293, 2.3150177001953125], [1.8633003234863281, 2.7962849140167236, -0.0008363029919564724, 2.125174045562744], [1.5557372570037842, -1.8474714756011963, 0.000986072001978755, 2.2368786334991455], [2.318432092666626, -2.108417510986328, -0.0019041881896555424, 1.9415079355239868], [2.0777862071990967, 0.9486290216445923, -0.0008327649557031691, 3.0791397094726562], [1.675230622291565, -2.1036036014556885, 0.00013672170462086797, 0.9039909839630127], [1.7463769912719727, -0.314908891916275, 0.0033441262785345316, 1.0009702444076538], [1.548543095588684, -0.8270253539085388, -0.00020348254474811256, 2.8810501098632812], [1.5160590410232544, 0.31707847118377686, -0.0023836661130189896, 0.9953454732894897], [1.65580153465271, -0.592879593372345, -0.0010147207649424672, 1.6183158159255981], [1.783280372619629, -0.38925763964653015, -0.0013102813391014934, 1.292244553565979], [1.4954196214675903, 0.9353296160697937, 0.000337134872097522, 0.7171030044555664], [1.6826549768447876, -0.8772912621498108, -0.004585431423038244, 2.216756582260132], [1.7438950538635254, -1.610119342803955, -9.35150746954605e-05, 1.9686579704284668], [1.5699057579040527, -2.7351646423339844, 8.063930727075785e-05, 1.2862300872802734], [2.268995523452759, -0.8211283683776855, 0.00033250090200453997, 2.0659422874450684], [1.8917328119277954, 0.5233699679374695, -0.0035421557258814573, 1.8081581592559814], [1.2097352743148804, 1.448147177696228, -0.00309384916909039, 1.5654942989349365], [1.754210352897644, -0.21646809577941895, 0.009084940887987614, 1.245457649230957], [1.729180932044983, -1.4148873090744019, 0.002524932147935033, 1.833213210105896], [2.6431775093078613, -1.1228641271591187, 0.0031022035982459784, 2.632544755935669], [1.6587190628051758, 0.7233289480209351, -0.0013493412407115102, 1.5041167736053467], [1.7515084743499756, -0.7506245374679565, -0.004161077551543713, 0.9110379815101624], [2.205010414123535, -0.22120283544063568, 0.0013044168008491397, 0.6871529221534729], [1.7468277215957642, 1.6647541522979736, 0.0003421419532969594, 1.8590067625045776], [1.4578005075454712, 1.3849787712097168, 0.00736682303249836, 2.1786739826202393], [1.6168609857559204, 0.6350558996200562, 0.00379172689281404, 1.693771243095398], [1.5193756818771362, 0.657483696937561, -0.001308165374211967, 1.2369987964630127], [1.3397983312606812, -1.167346715927124, 0.0036589656956493855, 2.524235725402832], [1.7715433835983276, 0.8778979182243347, -0.003224866697564721, 2.349153757095337], [1.9176974296569824, -2.143234968185425, -0.008225097320973873, 2.2209808826446533], [2.2391200065612793, -0.7525282502174377, -0.0037277156952768564, 0.9293621182441711], [1.9153046607971191, 0.7023933529853821, 0.001010345877148211, 2.0928707122802734], [1.4691307544708252, 0.979486882686615, 0.002170921303331852, 0.9222196340560913], [1.6487481594085693, -0.9445987343788147, -0.0009208302944898605, 5.550225734710693], [1.9907257556915283, -1.7352010011672974, -0.00022441113833338022, 1.4059356451034546], [1.727280616760254, 1.6301732063293457, -0.010313398204743862, 1.584669589996338], [1.4398956298828125, -0.24410663545131683, 0.0008427298744209111, 1.8410717248916626], [1.2393666505813599, 0.10396549105644226, -0.002413233043625951, 2.9481284618377686], [1.7325432300567627, -2.229447364807129, 0.001342451199889183, 3.6209375858306885], [1.2755740880966187, -1.5417311191558838, -0.000196542008779943, 3.104515314102173], [2.15746808052063, -0.09054875373840332, 0.0019433497218415141, 2.2612154483795166], [1.3759286403656006, -1.1644680500030518, 0.0014371401630342007, 3.2378578186035156], [1.466817855834961, 0.9021915793418884, 0.007687164004892111, 1.23814058303833], [1.824841022491455, 0.2360784411430359, -0.003931210841983557, 1.208557367324829], [1.866744041442871, -0.7148323059082031, -0.005160515662282705, 1.5268526077270508], [2.0686991214752197, 0.9076910614967346, -0.0007961783558130264, 2.2040257453918457], [1.9247945547103882, 0.025231441482901573, 0.0017691070679575205, 2.46162748336792], [2.3015894889831543, -0.4368510842323303, 0.009115452878177166, 2.908521890640259], [1.4478158950805664, -0.8616310358047485, 0.001633834675885737, 1.3843886852264404], [2.073565721511841, 0.5364588499069214, 0.00028617645148187876, 2.0055229663848877], [1.823365330696106, 1.5574320554733276, 0.009838888421654701, 2.4860613346099854], [1.4736692905426025, 0.791053831577301, 0.0025760203134268522, 1.0696825981140137], [1.5588070154190063, -1.3562968969345093, 0.0026645809412002563, 1.7078419923782349], [1.9856919050216675, 0.5957524180412292, 0.0002831413585226983, 2.1131997108459473], [2.4539082050323486, 0.5901921391487122, 0.011274917982518673, 0.6526550650596619], [1.2294000387191772, -2.1900951862335205, -0.010259097442030907, 1.3475322723388672], [2.230945587158203, -0.2149294912815094, -0.0010350360535085201, 4.58278226852417], [1.4967889785766602, -0.4001207947731018, 0.011645238846540451, 2.350050449371338], [1.3331243991851807, 2.2220969200134277, -0.0064636110328137875, 2.6545321941375732], [2.004460096359253, 3.0625271797180176, -0.007870347239077091, 2.1059370040893555], [2.002418279647827, 0.047141771763563156, 0.000962966529186815, 1.7668557167053223], [1.6885044574737549, 1.0290449857711792, -0.004094365518540144, 4.339141368865967], [1.9806649684906006, -0.48610126972198486, 0.0006722959806211293, 2.483919858932495], [1.4952003955841064, 2.5837106704711914, -0.006169635336846113, 1.990376591682434], [1.688659906387329, -1.170433521270752, -0.007087484933435917, 1.5516597032546997], [1.5605722665786743, 1.2948111295700073, -0.0014502608682960272, 3.04060697555542], [1.2614026069641113, -0.5989879369735718, 0.00022212203475646675, 0.7564436197280884], [1.0195508003234863, -2.2823073863983154, -0.000697647628840059, 1.4556001424789429], [1.9130172729492188, -1.5240470170974731, -0.002047648886218667, 2.7406005859375], [2.0952136516571045, 0.8293394446372986, 0.004660062957555056, 2.2291998863220215], [2.016914129257202, -0.9046405553817749, 0.00225501018576324, 1.485988974571228], [2.293736696243286, -0.9639083743095398, -0.004216695204377174, 1.6519131660461426], [1.7899553775787354, -0.6069437265396118, 0.003568314714357257, 2.0391440391540527], [2.1282904148101807, -1.177047848701477, -0.024867026135325432, 0.7554152011871338], [1.664678692817688, -0.9235073328018188, 0.00037311005871742964, 3.6698858737945557], [1.6638290882110596, 0.05329150706529617, 0.001686505158431828, 1.051526665687561], [1.9035649299621582, 1.6272765398025513, 0.0017530787736177444, 3.7878670692443848], [1.6450899839401245, 0.08457436412572861, 0.0017770571867004037, 1.6127864122390747], [2.2544708251953125, -2.728571653366089, 0.00030125334160402417, 6.617573261260986], [2.0251777172088623, -1.2276602983474731, 0.0043355985544621944, 1.4718260765075684], [1.3786183595657349, 2.535574197769165, -0.0014960558619350195, 2.403820753097534], [2.0625948905944824, 0.4488643705844879, -0.001260397955775261, 1.1690516471862793], [1.4447664022445679, -2.322517156600952, 0.0018103823531419039, 1.4572833776474], [1.8208932876586914, 0.9216398596763611, -0.0012535534333437681, 1.4492276906967163], [1.4483954906463623, 0.5934157371520996, -0.000330508453771472, 1.377987027168274], [2.0905325412750244, -0.400407612323761, -0.0064989416860044, 2.3285775184631348], [1.890876293182373, -0.4086923599243164, -0.01702479086816311, 0.44260063767433167], [1.3334035873413086, -0.36258310079574585, 0.003570068860426545, 1.0469951629638672], [1.7461823225021362, 1.459148645401001, -0.0036115101538598537, 1.1605740785598755], [1.9065803289413452, -0.0564599335193634, -0.004763858858495951, 1.7502014636993408], [2.4079935550689697, -0.6467814445495605, 0.0014727097004652023, 3.010998249053955], [1.473093032836914, -1.5350059270858765, -0.0015948975924402475, 1.6789867877960205], [2.7642717361450195, 0.7025686502456665, -0.007375788409262896, 2.553002119064331], [1.7648189067840576, 1.6093770265579224, -0.00409428495913744, 2.206766366958618], [1.6492494344711304, -1.2809576988220215, 0.004306100308895111, 1.4739222526550293], [1.6848599910736084, 0.8739128708839417, -0.016257012262940407, 1.1242066621780396], [1.8199383020401, -1.099145531654358, 0.0012195351300761104, 1.8923940658569336], [1.840128779411316, -0.9206172227859497, 0.00915908720344305, 0.9600142240524292], [1.5113979578018188, -1.8323220014572144, 0.005805707536637783, 1.0439612865447998], [1.2344483137130737, 1.1152195930480957, -0.00011824762623291463, 1.4604310989379883], [1.5262593030929565, 1.375732660293579, 0.006325119640678167, 3.0257344245910645], [2.1833982467651367, -0.993683934211731, 0.0007696860702708364, 2.0450494289398193], [1.3024060726165771, -0.6795954704284668, 0.004038261249661446, 1.1334630250930786]]]], [[[[-0.8179532885551453, -0.04221216216683388, -0.4159471094608307, 0.4175027012825012, -0.21959824860095978, -0.2890717089176178, -0.5450200438499451, -0.3540114760398865, 0.08618662506341934, 0.1657741516828537, -0.7337292432785034, -0.1517723649740219, -0.05689390003681183, 0.055411577224731445, 0.39907601475715637, 0.9506144523620605, -0.4944635331630707, 0.1861441284418106, 0.8396395444869995, -0.4861176908016205, -0.026361921802163124, -0.12844787538051605, 0.09032192826271057, 0.575263261795044, 0.16544874012470245, -0.6095818877220154, 0.8776468634605408, -0.3884419798851013, -0.8248088955879211, 0.27414560317993164, -0.14465567469596863, 0.0030389020685106516, 0.6266801953315735, -0.25830304622650146, -1.2783145904541016, 0.30577176809310913, -0.33633655309677124, 0.3936644196510315, -0.13398917019367218, -0.639614999294281, 0.07989199459552765, -0.3736477196216583, -0.3252520263195038, 0.8523698449134827, 0.374630331993103, 0.6625717878341675, -0.5983803272247314, 0.09289662539958954, 0.3814651370048523, 0.408683717250824, -0.21113429963588715, -0.02105000801384449, 0.1487860232591629, 0.3001294434070587, 0.6151801347732544, -0.09707827121019363, 0.040334273129701614, -0.7688977718353271, -0.611544668674469, 0.200631245970726, -0.893242597579956, -0.4111013114452362, 0.3992704749107361, 0.39828065037727356, -0.4665905237197876, 0.4745211899280548, 0.9461262226104736, -0.6692278385162354, 0.272844523191452, -0.9441952705383301, -0.49670931696891785, -0.6273581385612488, -0.210227832198143, -0.7722131609916687, -0.5288485884666443, 0.37537845969200134, 1.2698487043380737, 0.797591507434845, 0.11220201849937439, -0.9342255592346191, -0.6632400155067444, -0.21605826914310455, 1.4774783849716187, 0.6596640944480896, 1.1145483255386353, -0.6710530519485474, 0.6641379594802856, 0.3898365795612335, 0.3302633762359619, 0.3888808488845825, -0.456493079662323, 0.17879119515419006, -0.3160606622695923, -0.4007590115070343, 0.4189276695251465, -0.7421499490737915, -0.09108062088489532, -0.11833144724369049, 0.38723331689834595, 1.5734269618988037, 0.6055238842964172, -0.1451505869626999, -0.2276841253042221, -0.39776989817619324, 0.06550511717796326, -0.1438608020544052, -0.1403096467256546, -0.248385488986969, 0.25930050015449524, -0.23521488904953003, 0.08146477490663528, 0.30661413073539734, 0.4625617265701294, -1.3366491794586182, 0.47094976902008057, 0.7409577965736389, 0.1839110255241394, 0.16408276557922363, -0.5109931826591492, -1.0274717807769775, 0.52463299036026, -0.42312973737716675, 0.600929856300354, -0.3686119318008423, 0.4030764698982239, -0.15698660910129547, -0.6039404273033142, 0.4347066581249237], [-0.01881110668182373, -0.2909752428531647, -0.2603285014629364, -0.4519504904747009, -0.23367714881896973, -0.6117960810661316, 0.3151264190673828, -1.2646602392196655, 0.35704758763313293, 0.3505196273326874, 0.16500994563102722, 0.13774727284908295, -0.20938001573085785, -0.07895543426275253, -0.2817286550998688, -0.12820403277873993, -0.406562864780426, -0.3976800739765167, -0.3621680736541748, -0.5337794423103333, -0.5029264092445374, 0.35320696234703064, -0.14863871037960052, 0.15166376531124115, -0.36646780371665955, 0.14329245686531067, 1.1763311624526978, -0.13627052307128906, 0.5021175146102905, 0.29927828907966614, -0.06821934133768082, -0.6135003566741943, -0.899667501449585, -0.7144941687583923, -0.5140061378479004, -0.42045119404792786, -0.46866363286972046, -0.28095442056655884, 0.49395623803138733, 0.24423609673976898, -0.40019166469573975, 0.39399853348731995, -0.8529154062271118, 0.15010422468185425, -0.05696528032422066, 0.8343265652656555, -0.5732284188270569, 0.37160488963127136, -0.37006688117980957, -0.17841829359531403, 0.8550414443016052, 0.546034038066864, 0.05035419762134552, 1.1388157606124878, 0.4677579700946808, -0.11096861958503723, 0.5283203125, -0.29650381207466125, 1.2862626314163208, -0.4495404362678528, -0.5467248558998108, -0.0776052325963974, 0.45491334795951843, 0.4430186152458191, -0.09392860531806946, -0.5898510217666626, 0.5624278783798218, -0.2640853524208069, 0.33265742659568787, -0.4018580913543701, 0.2459733635187149, 0.8564017415046692, 0.20163699984550476, -0.5206387639045715, -0.3487389087677002, 0.4987799823284149, -0.3491886556148529, 0.27249178290367126, -0.2928922772407532, -0.10637659579515457, 1.1284254789352417, 0.3217354714870453, -0.6369654536247253, -0.7468360066413879, 0.6149142980575562, 0.5842990279197693, -0.2471705973148346, 0.17944404482841492, 1.2178930044174194, -0.2817499041557312, 0.05993427708745003, -0.11162973940372467, 0.07461906969547272, -0.3104683458805084, -0.18458446860313416, -0.15597446262836456, -0.14580807089805603, -0.900285542011261, 0.1455436795949936, 0.5127549171447754, -0.3517591059207916, 0.15506860613822937, -0.06216970458626747, 0.5475763082504272, 0.7446038722991943, -0.4083987772464752, -0.07296457886695862, 0.3285657465457916, 0.434113085269928, -0.4679981470108032, -0.5450332164764404, 0.33771538734436035, -0.8007868528366089, -0.049679167568683624, 0.32825928926467896, -0.26091834902763367, 0.7527627944946289, 0.25342538952827454, 0.2679993808269501, 0.24196642637252808, 0.4505234956741333, 0.22114010155200958, 0.18242183327674866, 0.17774143815040588, 0.2008642703294754, -0.5455814599990845, 0.051423169672489166, 0.1308329701423645], [0.02312520146369934, -0.5854366421699524, 0.18628379702568054, 0.5103214979171753, 0.6422443985939026, 0.778951108455658, 0.08031226694583893, 0.3278804123401642, -0.10839221626520157, -0.6578512191772461, 0.22860930860042572, -0.03565118461847305, -0.039389949291944504, -0.23648197948932648, 0.3228604197502136, 0.07396186888217926, -0.433313250541687, -0.1543770283460617, -0.04818141087889671, -0.44693076610565186, -0.38019829988479614, 0.38707324862480164, 0.0887766107916832, 0.697645366191864, -0.3346959948539734, -0.25173214077949524, 0.04083329439163208, 0.9553419351577759, -0.3857633173465729, 0.15370623767375946, -0.03177689388394356, -1.049418568611145, -0.022849835455417633, -0.26685112714767456, 0.21038362383842468, 0.13790854811668396, 0.6736882925033569, 0.641350269317627, -0.28552523255348206, -0.4711388647556305, 0.38577958941459656, -0.06618431210517883, 0.6963133811950684, -0.6708199381828308, 0.14541545510292053, -0.3192223608493805, -0.18909315764904022, -0.59978848695755, -1.194398283958435, 0.36623209714889526, 0.4713529944419861, -1.387318730354309, -0.31090331077575684, 0.49161067605018616, 0.24133886396884918, 0.4686524271965027, 0.24116824567317963, 0.756633460521698, 0.05526198074221611, -0.28830742835998535, -0.9624601602554321, 0.07543599605560303, -0.21921715140342712, 0.10885527729988098, 0.3164769411087036, -0.09073131531476974, -0.4071294665336609, -0.23658190667629242, -0.01460057869553566, -0.5177617073059082, 0.4267357289791107, 0.6201545596122742, 0.5975474715232849, -0.2863520681858063, -0.772407591342926, 0.8050292730331421, -0.19500866532325745, -1.1119554042816162, -0.39427006244659424, 0.2713349461555481, -0.7186808586120605, -0.2242475003004074, 0.15557879209518433, 0.0822514072060585, -0.4619942903518677, -0.18670356273651123, 0.27756738662719727, -0.5551466345787048, 0.31550559401512146, -0.20259612798690796, 0.12811623513698578, 1.1105270385742188, 0.652083694934845, 0.6753225326538086, -0.03139917179942131, 0.06993718445301056, 0.26116958260536194, -0.376098096370697, 0.265857994556427, 0.1349450796842575, 0.10049077868461609, -0.2782188653945923, -0.37588393688201904, -0.35420578718185425, -0.1382323056459427, -0.17220577597618103, 0.2618328332901001, -0.6492149233818054, -0.24191619455814362, -0.22525575757026672, -0.13136926293373108, -0.7482878565788269, -0.30205610394477844, -0.11341838538646698, 0.0881367102265358, -0.2603900134563446, 0.1790393441915512, 0.04427376762032509, 0.19655540585517883, 0.5546358227729797, 0.7921087741851807, -0.15621277689933777, -0.6053103804588318, -0.12547379732131958, -0.21848264336585999, -0.6232468485832214, -0.3266102075576782, -0.17574475705623627], [-0.4339556097984314, -0.3917308747768402, -0.38340476155281067, 0.1826137900352478, -0.11393880099058151, 0.6364884376525879, -0.14101341366767883, -0.11848470568656921, -0.0857403501868248, -0.22428730130195618, 0.022036682814359665, 0.23446933925151825, 0.139462411403656, 0.052769966423511505, 0.04158767685294151, 0.3951820731163025, 0.03557775169610977, -0.31090396642684937, 0.006946095265448093, -0.2933749258518219, 0.07666761428117752, -0.1128263995051384, -0.57275390625, -0.7035835385322571, 0.048558078706264496, -0.21662943065166473, 0.17706972360610962, -0.05616065859794617, 0.4473528265953064, -0.22835004329681396, 0.45453941822052, -0.26174935698509216, 0.3484879434108734, 1.2688586711883545, 0.20720747113227844, -0.3491096496582031, 1.0436924695968628, 0.8657600283622742, 0.7273319959640503, 0.14359943568706512, 0.09641752392053604, -0.5104768872261047, 0.3592052161693573, -0.10607705265283585, -0.5788902044296265, -0.3745327889919281, -0.40108373761177063, 0.08305791765451431, 0.45034176111221313, 0.3495974838733673, -0.7538325190544128, -0.0636996477842331, 0.2697102725505829, -0.0615512914955616, -0.3465352952480316, 0.25958916544914246, -0.14169488847255707, 0.5430050492286682, 0.04226919636130333, -0.14978951215744019, -0.18035291135311127, 0.4872877895832062, 0.4989362359046936, 0.2662821412086487, 0.757484495639801, 0.28719422221183777, 0.45577335357666016, -0.1951625943183899, -0.4820755422115326, 0.06465726345777512, 0.4225327670574188, -0.06419973820447922, 0.1004449874162674, 0.004548970609903336, -0.09490630030632019, -0.2047155499458313, -0.4831124246120453, -0.36253416538238525, 0.3491477072238922, 0.29032349586486816, 0.34775516390800476, 0.2313764989376068, 0.11647144705057144, 0.2885971963405609, -0.2806875705718994, -0.7783536911010742, 0.12623171508312225, 0.38030558824539185, -0.5840098857879639, -0.2921256422996521, -0.03541463986039162, -0.059307921677827835, 0.5047417879104614, -0.7880197763442993, 0.5150009989738464, -0.6409217119216919, 0.5763632655143738, -0.7170655727386475, -0.010841145180165768, 0.212925985455513, -0.23636415600776672, 0.02547059953212738, 0.18800567090511322, 0.27930179238319397, 0.24096378684043884, -0.03923698887228966, 0.5302941799163818, 0.37575843930244446, -0.23965053260326385, -0.6796532869338989, -0.5477209687232971, -0.0782412439584732, 0.7194355130195618, 0.4679388403892517, -0.2754356265068054, -0.45006266236305237, -0.0999722108244896, -0.5804053544998169, -0.4839842915534973, 0.8354914784431458, -1.1544910669326782, 0.568117618560791, -0.24351994693279266, 0.1302242875099182, -0.44715914130210876, -0.6596229076385498, 0.3316127061843872, 0.34067338705062866], [0.5105196833610535, 0.30211806297302246, 0.35299623012542725, 0.08476214855909348, 0.5720275640487671, 0.820144772529602, 0.33473679423332214, 0.077679343521595, -0.9385572075843811, -0.09294288605451584, -0.0830397829413414, -0.06565330922603607, -0.15385839343070984, 0.12456298619508743, 0.00921508576720953, -0.12677237391471863, 0.6517149806022644, 0.16587083041667938, 0.48259371519088745, 0.7459877729415894, -0.19350309669971466, 0.2526507079601288, 0.05016939342021942, -0.038362033665180206, -0.48156920075416565, 0.12279030680656433, 0.3180699944496155, 0.4196505844593048, -0.1543254852294922, -0.02372288517653942, 0.7046142220497131, -0.03827773407101631, -0.04288218915462494, 0.35812684893608093, 0.23255640268325806, 0.10898407548666, -1.2832112312316895, 0.3704574704170227, 0.2559427320957184, 0.4032183587551117, 0.32423755526542664, 0.4446614682674408, -0.014634388498961926, -0.17159226536750793, -0.2617665231227875, 0.8443730473518372, -0.06410053372383118, 0.23213621973991394, -0.32200467586517334, -0.2340555638074875, -0.1339743584394455, -0.06183868274092674, -0.19937573373317719, -0.05968809872865677, 0.3357095420360565, -0.07457652688026428, -0.1718456745147705, -0.49410367012023926, -0.037886496633291245, -0.11797177791595459, 0.16731444001197815, -0.34795671701431274, -0.41064807772636414, -0.10512783378362656, 0.4881112277507782, -0.030611936002969742, -0.0983152911067009, -0.08386335521936417, -0.2899961471557617, -0.07606079429388046, 0.039078306406736374, 0.2529503107070923, 0.025262709707021713, -0.056760404258966446, -0.3260450065135956, 0.33269432187080383, -0.6557854413986206, 0.3179479241371155, -0.4429803490638733, -0.243666872382164, -0.2738838493824005, -0.38567134737968445, 0.11828622221946716, 0.5704552531242371, -0.011462880298495293, -0.11533146351575851, 0.042054396122694016, 0.24202902615070343, -0.335151731967926, 0.3577289283275604, 0.6051119565963745, -0.6617750525474548, -0.07123902440071106, 0.5216748714447021, 0.8267576694488525, 0.17143085598945618, 0.7992661595344543, -0.8765736818313599, 0.5013447403907776, -0.14177986979484558, -0.2623366713523865, -0.4251415729522705, 0.32412227988243103, -0.05623013898730278, -0.10438469052314758, -0.5720429420471191, -0.024353913962841034, -0.24615204334259033, 0.26287078857421875, -0.32548558712005615, -0.5462297201156616, -0.16032950580120087, -0.2537490725517273, -0.7001268863677979, -0.19526070356369019, -0.28721675276756287, 0.10578414052724838, 0.2655501663684845, -0.010642501525580883, -0.16571393609046936, 0.3146888017654419, -0.5231549143791199, 0.5421555638313293, -0.5598890781402588, -0.6787711977958679, -0.3862376809120178, 0.25798138976097107, 0.22499769926071167], [-0.5928495526313782, -0.6224664449691772, -0.839212954044342, -0.10867377370595932, -0.29844915866851807, 0.3251742720603943, 0.6394485831260681, 0.2501406967639923, -0.3526407778263092, -0.10572759062051773, 0.009599871933460236, 0.22217519581317902, -0.5284818410873413, 1.0229346752166748, 0.20533564686775208, 0.46873655915260315, 0.6406243443489075, -0.19018101692199707, 0.028400572016835213, 0.3940294086933136, -0.08993476629257202, 1.0048002004623413, 0.32217803597450256, -0.10076673328876495, -0.9018369317054749, 0.4241548478603363, 0.13496947288513184, 0.011458459310233593, 0.07861366868019104, -0.17325298488140106, 0.3270639181137085, 0.5170997977256775, 0.485543429851532, 0.09594429284334183, -1.3807294368743896, 0.004703780636191368, -0.12144114822149277, -0.89681476354599, 0.4844491183757782, 0.14488111436367035, 0.532331109046936, 0.1838773488998413, -0.5562928915023804, -0.6192418336868286, -0.9443479180335999, 0.23392874002456665, 0.23900839686393738, -0.5565058588981628, -0.9709935784339905, 0.9039382338523865, -0.215166375041008, -0.6065700650215149, -0.6311888694763184, -0.3987724184989929, -0.12448811531066895, 0.23803812265396118, 0.04071349650621414, -0.2528870403766632, 0.258769154548645, 0.5320746898651123, -0.05036493390798569, 0.12957040965557098, -0.6419825553894043, 0.2659571170806885, -0.29300060868263245, -0.2481861412525177, -0.32817530632019043, 0.9900271892547607, -0.6138343811035156, 0.15825968980789185, 0.1792004108428955, 0.7717559933662415, 0.20110787451267242, 0.025702161714434624, -0.2177053987979889, 0.5574726462364197, 0.7279587388038635, -0.40672022104263306, -0.9492136240005493, -0.19974984228610992, -0.6380701065063477, 0.1162293329834938, -0.09902563691139221, 0.33358463644981384, -0.02377455309033394, 0.7730883359909058, -0.006575257517397404, 0.6442520022392273, 0.08530110865831375, -0.4520016610622406, 0.6601266860961914, 1.0749704837799072, 0.37154990434646606, 0.21103177964687347, 0.9174513220787048, -0.07794485986232758, -0.5584653615951538, 0.1543009877204895, 0.2628526985645294, -0.17400112748146057, -0.0668240562081337, 0.005209514405578375, 0.34908783435821533, 0.16447319090366364, -0.381184846162796, 0.6086317896842957, -0.39545872807502747, 0.0008076074300333858, -0.225514754652977, 0.37681224942207336, 1.3145339488983154, 0.6019740700721741, 0.05181042477488518, 0.5258159637451172, -0.49977344274520874, 0.7877928018569946, -0.27885642647743225, -0.24692557752132416, 0.6151831150054932, 0.7626988887786865, 0.05857912078499794, 0.6053502559661865, 1.0726995468139648, -0.2615512013435364, -0.36597004532814026, -0.8932814598083496, 0.7195153832435608, 0.9408130049705505], [-0.20326101779937744, 0.23991301655769348, 0.9851706027984619, 0.36104854941368103, -0.4322092831134796, 0.9188068509101868, 0.5849083662033081, -0.13050341606140137, -0.7082757949829102, -0.2541120946407318, -0.20442794263362885, -0.3391348421573639, 0.08335546404123306, -0.07988272607326508, 0.27192744612693787, -0.36233118176460266, -1.3724359273910522, 0.5933163166046143, -0.2676340341567993, -0.30521753430366516, -0.1843418926000595, 0.3113592565059662, -0.4616108238697052, 0.9361826777458191, 1.5343132019042969, 0.7571098804473877, 0.69410240650177, 0.29700958728790283, -0.17620083689689636, 1.0581536293029785, 0.21891047060489655, -0.2185182422399521, -0.018038908019661903, 0.201207235455513, -0.1716689020395279, 0.768511176109314, 0.8048520088195801, -0.05860738083720207, -0.40688157081604004, 0.4299134910106659, 0.10270950943231583, -0.866866409778595, 0.49813312292099, 0.08237181603908539, -0.2647911310195923, -0.15106706321239471, 0.45015090703964233, -0.5395638942718506, -0.020718807354569435, -0.7047041058540344, -0.13903647661209106, 1.2598992586135864, -0.5703967213630676, -0.09307254105806351, -0.04284118488430977, -0.15333689749240875, 0.33177125453948975, -0.09699326753616333, 0.32093438506126404, -0.6366026997566223, 0.08128389716148376, -0.7816159725189209, -0.7442382574081421, -0.0019810537341982126, -0.23329369723796844, -0.09779057651758194, 0.9289922118186951, -0.7280823588371277, -0.1588851362466812, 0.0912468209862709, 1.313834309577942, -0.5118288993835449, 0.08625631034374237, -0.014552151784300804, -0.2617573142051697, 0.2711080312728882, 0.3844178020954132, -0.6523355841636658, 0.006082447245717049, 0.30488982796669006, -0.8500733971595764, 0.5214341282844543, -0.6396356821060181, 0.35444849729537964, 0.5226464867591858, 0.2388344407081604, -0.08666230738162994, -0.25758108496665955, -0.054949209094047546, 0.11955500394105911, 0.1857331544160843, 0.1935899406671524, -0.17390909790992737, 0.4393162727355957, -0.30939608812332153, -0.7591614127159119, -0.2931588590145111, -1.1544920206069946, 0.37604600191116333, -0.9498708248138428, 0.9517505168914795, 0.1770881712436676, -0.9066377282142639, -0.2948102355003357, -1.163347601890564, -0.2066826969385147, 0.848345160484314, -1.0670876502990723, -1.4194492101669312, 0.183508962392807, -0.34487757086753845, 0.21926823258399963, 0.24306754767894745, 0.5005344748497009, -1.0013086795806885, -1.119856834411621, -0.46999049186706543, -0.14642061293125153, -0.8227472305297852, -0.19131042063236237, 1.0164597034454346, 1.0267109870910645, -1.0620598793029785, -0.475753515958786, 1.0605993270874023, 0.8209131956100464, 1.0700714588165283, -0.3473910987377167], [-0.6374762058258057, -0.3309325575828552, 0.5880479216575623, 0.805469274520874, 0.07521510869264603, -0.3839418888092041, 0.5228304266929626, -0.5380555391311646, -0.16417400538921356, 0.1576680839061737, 0.8017569184303284, -0.08315359055995941, 0.13596318662166595, -0.32226142287254333, 0.4726041853427887, -1.2661935091018677, -0.7742598652839661, -0.20562703907489777, 1.450387954711914, -0.036328140646219254, 0.24277688562870026, -0.6378165483474731, -1.3421207666397095, -0.2844119369983673, 0.13049043715000153, 1.388871431350708, -0.44884130358695984, -0.9278866648674011, -0.03613324835896492, -0.13433539867401123, -0.049450840801000595, -0.25234830379486084, -0.28877395391464233, 0.4872150719165802, -0.30069926381111145, 0.10128603130578995, 0.06285560131072998, 0.5367751717567444, 0.5573250651359558, -0.9098449945449829, 0.5813571810722351, 0.9011038541793823, -0.1100371703505516, -0.49176815152168274, 0.559634268283844, -0.38973504304885864, 0.06660187244415283, 0.5957959890365601, -0.28569650650024414, -0.8974927067756653, -0.7573422193527222, -0.37767013907432556, -0.11548281461000443, -0.3998057544231415, -0.5449888110160828, 0.18688207864761353, -0.15259002149105072, -0.4332103133201599, -0.0440637432038784, 0.23003099858760834, 0.32532739639282227, 0.09160388261079788, 0.03720051050186157, -0.2539921700954437, 0.5912246704101562, 0.2976580560207367, 0.7394448518753052, -0.13458074629306793, -0.22602181136608124, 0.4837968647480011, 0.6766031980514526, 0.5301804542541504, 0.2013721913099289, 0.24451807141304016, -1.4653319120407104, -0.8954490423202515, -0.34278082847595215, -0.027344416826963425, 0.24624434113502502, 0.46370306611061096, -0.25799205899238586, -0.22493058443069458, -0.1417139172554016, -0.32371985912323, 0.68534255027771, 0.7843214869499207, -0.7898311614990234, 0.8476913571357727, -0.5989416837692261, -1.1846851110458374, -0.42809078097343445, 0.006626208778470755, -0.2427988201379776, 0.40166959166526794, 0.4859738349914551, 0.16227103769779205, -0.2228734791278839, 0.04959103837609291, -0.11609838157892227, -0.08962740749120712, 0.7237870693206787, -0.0388646125793457, 0.056729886680841446, 0.4680958688259125, -0.610736608505249, 0.2679709494113922, 0.1355290710926056, -1.1666685342788696, -0.14739365875720978, -0.9151508212089539, -0.6042057275772095, 0.6349887847900391, -0.34794342517852783, 0.05188107490539551, 0.8719490766525269, -0.28238341212272644, -0.0041081286035478115, 0.20553502440452576, -0.045430008322000504, -0.656031608581543, 0.07407838106155396, 0.6991294622421265, -0.37736937403678894, -0.12837673723697662, -0.021868621930480003, 0.12927663326263428, 0.13617916405200958, -0.3026064932346344], [0.3882580101490021, -0.2930414080619812, -0.07794719189405441, 0.569652795791626, -0.2508079707622528, 0.10433699190616608, -0.13823218643665314, 0.2454497218132019, 0.2056904286146164, -0.12341108918190002, -0.6029873490333557, 0.6810221672058105, 0.19000361859798431, -0.9542163014411926, -0.49567604064941406, 0.31763407588005066, 0.5138139724731445, 0.2308165729045868, -0.49627330899238586, 0.39989352226257324, -0.30222174525260925, -0.8719998002052307, -0.10062424093484879, -0.027041524648666382, -0.768865168094635, -0.5749567151069641, 0.0012367474846541882, 0.11055531352758408, 0.23792046308517456, -0.3815233111381531, 0.1505052000284195, 0.03244660794734955, 0.3806552290916443, -0.36475077271461487, 0.1454004943370819, -0.07051561772823334, 1.0375484228134155, 0.14041867852210999, -0.3919735252857208, 0.5966886281967163, -0.6239917278289795, 0.31154465675354004, -0.24428704380989075, -0.022314824163913727, 0.38855597376823425, -0.0954994261264801, 0.05611809343099594, -0.047978177666664124, 0.30976876616477966, 1.1590365171432495, 0.46884867548942566, -0.49580422043800354, 0.5677714943885803, -0.7157482504844666, 0.28307729959487915, -0.278035044670105, -0.38997259736061096, 0.454017698764801, -0.0932006984949112, -0.35335850715637207, -0.19384236633777618, 0.2720864713191986, -0.01238676905632019, 0.19621501863002777, 0.6522488594055176, -0.17667578160762787, 0.5341216325759888, 0.18206921219825745, 0.41736191511154175, 0.2715773284435272, -0.6724570989608765, -0.678115725517273, 0.23070935904979706, 0.03332728147506714, 0.17351628839969635, 0.07305199652910233, -0.1570861041545868, 0.8784494400024414, 0.6566528677940369, 0.6334019303321838, 0.07483836263418198, -0.3450363576412201, 0.34683147072792053, 0.10329296439886093, 0.016820106655359268, 0.6180455684661865, -0.026473939418792725, -0.7162126898765564, 0.06285925954580307, 0.178272545337677, -0.3228805959224701, 0.18044978380203247, 0.12309536337852478, -0.04399098455905914, 0.4674184024333954, 0.48968279361724854, 0.37246379256248474, 0.10648171603679657, -0.5848934054374695, -0.029960697516798973, -1.1243009567260742, -0.4063293933868408, -0.11603716015815735, -0.3555375635623932, 1.0051674842834473, -0.4093789756298065, -0.16476647555828094, 0.6959874033927917, -0.01879657246172428, -0.19378262758255005, -0.5954931974411011, -0.1652621328830719, -0.6114162802696228, 0.330965518951416, 0.21807406842708588, 0.1193956583738327, 0.328787624835968, 0.3149449825286865, -0.7391982078552246, -0.4173751771450043, -0.8720795512199402, -0.10003437846899033, -0.21527361869812012, 0.3425639867782593, 0.2620815336704254, 0.24095815420150757, -0.9653374552726746, 0.322829008102417], [-0.07387447357177734, -0.15563909709453583, -0.03763364627957344, -0.2933233082294464, 0.6000460386276245, 0.284964919090271, -0.0801519826054573, -0.23745214939117432, -0.17130686342716217, -0.6203244924545288, 0.14113256335258484, -0.4190278649330139, 0.39790329337120056, 0.9767469167709351, -0.31557244062423706, -0.4344678223133087, -0.0782090574502945, -0.45160746574401855, 0.375870943069458, 0.3084776997566223, -0.38862693309783936, 0.05213430896401405, 0.3315795958042145, 0.056835003197193146, -0.15353968739509583, -0.09327535331249237, 0.3265528082847595, -0.2473629266023636, 0.2840103209018707, 0.15013915300369263, 0.05909067764878273, -0.05600931495428085, 0.5869262218475342, 0.43799877166748047, -0.1381548047065735, -0.21342657506465912, 0.02553556300699711, 0.4606907069683075, 0.3245190978050232, -0.21568992733955383, 0.05214027315378189, -0.6539584994316101, -0.14975294470787048, -0.8680395483970642, -0.47895780205726624, -0.028879694640636444, 0.37572330236434937, -0.31513768434524536, 0.2959515154361725, -0.10258092731237411, -0.11550586670637131, -0.17915892601013184, 0.36175480484962463, 0.09505847096443176, 0.30425164103507996, -0.3598824739456177, 0.014697319827973843, 0.0002015185309574008, -0.2743966579437256, 0.6765275001525879, -0.1112881451845169, 0.3807818293571472, -0.3337361812591553, 0.34511125087738037, 0.04807969555258751, -0.05596720054745674, -0.24279212951660156, 0.8291563987731934, -0.1475486308336258, 0.10162216424942017, -0.13909879326820374, -0.257620245218277, -0.8047284483909607, 0.21596966683864594, 0.1697402447462082, -0.016452595591545105, -0.08420142531394958, -0.4121311902999878, -0.2222612500190735, 0.3446141481399536, 0.11592315882444382, 0.2292601615190506, 0.2297118455171585, -0.7373917102813721, -0.6860166192054749, 0.3533306121826172, 0.33179736137390137, 0.19119657576084137, -0.1595248579978943, -0.40840262174606323, 0.8749191761016846, 0.029946180060505867, -0.605054497718811, 0.7731815576553345, 0.13217876851558685, -0.4276736378669739, 0.21382595598697662, 0.5962942838668823, -0.6704912781715393, -0.2535388767719269, 0.10402009636163712, -0.6005211472511292, 0.0020362441428005695, -0.43935251235961914, 0.07925602793693542, 0.27624741196632385, -0.013055989518761635, 0.4869726896286011, -0.10878422111272812, -0.5852646231651306, 0.16635990142822266, -0.5473533868789673, 0.024099500849843025, 0.24754831194877625, 0.35509538650512695, -0.31211790442466736, -0.535796582698822, 0.052869029343128204, 0.7668832540512085, 0.36826062202453613, 0.705902099609375, -0.14413103461265564, 0.4523611068725586, -0.17738650739192963, 0.08633920550346375, -0.8149365186691284, -0.3291947841644287, 0.05471314862370491], [0.20949991047382355, 0.25132831931114197, 0.2433241456747055, -0.602968692779541, 0.30696243047714233, 0.49984923005104065, -0.2177126556634903, -0.06702309101819992, -0.3514431416988373, -0.23950541019439697, 0.5674020648002625, 0.30651992559432983, -0.027864228934049606, 0.8462868928909302, -0.05764811858534813, -0.5158284902572632, 0.5243918299674988, -0.15168894827365875, -0.0708695650100708, -0.09502392262220383, -0.2578366994857788, 0.007524965330958366, -0.5189670324325562, -0.1198648139834404, -0.24525421857833862, 0.47243255376815796, 0.39556047320365906, -0.0800125002861023, 0.365085631608963, -0.28677618503570557, 0.2916620373725891, 0.41791996359825134, -0.41089773178100586, -0.05428183078765869, -0.3540295362472534, -0.5176134705543518, -0.10639286786317825, -0.1542663872241974, 0.26985663175582886, -0.04929041489958763, -0.20129139721393585, -0.5891819596290588, -0.14897577464580536, -0.4470922350883484, -0.4061661660671234, 0.10648515075445175, 0.34612780809402466, -0.2223769873380661, 0.0562489852309227, 0.0030279585625976324, -0.25684675574302673, -0.10864411294460297, -0.43038633465766907, -0.193538099527359, 0.09999657422304153, -0.5991292595863342, 1.0391287803649902, -0.011625024490058422, 0.0512385293841362, 0.20926864445209503, 0.3510197103023529, 0.5416342616081238, -0.3362206518650055, 0.16389350593090057, 0.12562419474124908, -0.31057047843933105, -0.7514413595199585, -0.008617112413048744, -0.26784202456474304, 0.07239033281803131, -0.346102237701416, -0.05126767233014107, -0.42874637246131897, -0.26867198944091797, 0.30537840723991394, 0.018807152286171913, 0.37488189339637756, -0.45864468812942505, 0.16248416900634766, -0.2784374952316284, 0.3844461143016815, 0.03569090738892555, 0.7605249285697937, -0.7629534006118774, 0.13628941774368286, 0.19691993296146393, -0.13859784603118896, 0.5733306407928467, 0.1299736648797989, 0.18313881754875183, 0.32492178678512573, -0.9934808611869812, -0.02671119011938572, -0.4380441904067993, 0.16700346767902374, -0.16233278810977936, -0.5408488512039185, 0.13806945085525513, 0.35077619552612305, -0.18531030416488647, 0.1675567626953125, 0.5165970921516418, 0.31013548374176025, 0.419920414686203, 0.037157438695430756, -0.7380388379096985, -0.24535122513771057, -0.3682898283004761, 0.1483047902584076, -0.06946846842765808, -0.1858000010251999, -0.4995981454849243, -0.11473000049591064, -0.21832692623138428, 0.2304166555404663, -0.4194623529911041, -0.6014520525932312, 0.04665099456906319, 0.1570787876844406, 0.4336801767349243, -0.053128715604543686, -0.05393397808074951, -0.27559375762939453, 0.9863415956497192, -0.10969369113445282, 0.026416754350066185, 0.32473382353782654, -0.2304777055978775], [0.8618242740631104, -0.04686063900589943, -0.16903537511825562, -0.12669117748737335, -0.35937291383743286, -0.3098191022872925, -0.44029438495635986, -0.2226705700159073, 0.11400562524795532, 0.0617658793926239, 0.18967287242412567, -0.06320067495107651, 0.6318907737731934, 0.18999581038951874, -0.27815744280815125, 0.1346980184316635, -0.1255422681570053, 0.08560950309038162, -0.03909958526492119, 0.6315098404884338, -0.2345091998577118, -0.24980668723583221, 0.07020757347345352, -0.22907650470733643, -0.5678839087486267, 0.11492840200662613, -0.20294106006622314, -0.8168706297874451, -0.401493102312088, -0.11406489461660385, -0.6788498759269714, 0.9820936322212219, 0.050447456538677216, -0.07090522348880768, 0.6983997821807861, -0.22373391687870026, 0.3426859974861145, 0.2807106673717499, 0.5879616737365723, -0.10178564488887787, -1.2563637495040894, 0.4802623987197876, 0.51873379945755, 0.2228597104549408, -0.1544087678194046, 0.3823195993900299, 0.24283477663993835, -1.0224478244781494, -0.2419642060995102, 0.19070617854595184, 0.8135061264038086, -0.3958278298377991, 0.35262492299079895, -0.3743249773979187, -0.4853174388408661, 0.380950927734375, -0.40670186281204224, 0.8398420214653015, -0.2579473555088043, 0.0012550977990031242, -0.525526225566864, 0.25291115045547485, -0.2490280717611313, 0.10984501987695694, 0.18549048900604248, -0.7106778025627136, -0.3060283362865448, -0.14809760451316833, -0.9266491532325745, 0.011264686472713947, 0.34573206305503845, -0.07283437252044678, 0.22763435542583466, -0.10587234795093536, 0.6251227259635925, 0.24974565207958221, 0.11539167910814285, 0.32461103796958923, 0.2322624921798706, -0.03895971179008484, -0.0270667877048254, 0.021252060309052467, -0.09685861319303513, -0.0409654825925827, -0.15479041635990143, 0.2090511918067932, 0.7276346683502197, 0.002262228401377797, 0.4494638741016388, 0.14986182749271393, -0.6697120666503906, -0.3636777997016907, -0.6442538499832153, 0.13152176141738892, -0.707430899143219, 0.540345311164856, 0.3688996136188507, -0.18338197469711304, -0.06598573178052902, 0.13721933960914612, 0.3286816477775574, -0.0002250522084068507, 0.1164301335811615, 0.3378406763076782, 0.3426387906074524, -0.04060620069503784, -0.36757802963256836, -0.442660927772522, -0.3359315097332001, 0.6438390016555786, -0.4292607605457306, 0.35022562742233276, 0.356893390417099, 0.03697150573134422, 0.47736215591430664, 0.7631728649139404, 0.35101354122161865, -0.45298656821250916, -0.3653593361377716, -0.3121792674064636, 0.2847675085067749, -0.22250227630138397, -0.2660733163356781, -0.15469107031822205, 0.7964188456535339, 0.3483659029006958, -0.2614758312702179, 0.3236062526702881], [0.13334216177463531, 0.007477572653442621, -0.01182322297245264, -0.24652495980262756, -0.3343501091003418, -0.6627639532089233, 0.2140895426273346, -0.4548184871673584, 0.5180317163467407, -0.5937821865081787, -0.06071344017982483, -0.7206121683120728, -0.5793735384941101, 0.25347328186035156, -0.4244908094406128, -0.11090104281902313, -1.0202349424362183, 0.14791230857372284, 0.5725816488265991, -0.6825162172317505, -0.8261502385139465, 0.18099775910377502, 0.32620787620544434, 0.0608527772128582, -0.05062629282474518, 0.7905357480049133, -0.1460656374692917, -0.7287847995758057, -0.6189480423927307, 0.21712249517440796, -0.7574942708015442, 0.4073396921157837, -0.14329327642917633, 0.26713037490844727, 0.5437373518943787, 0.7509909868240356, -0.5062054395675659, 0.20986142754554749, -0.5114011764526367, -0.2627128064632416, 0.6055704951286316, -0.43171432614326477, -0.12843771278858185, 0.08316753059625626, 0.3724249005317688, -0.3498724699020386, -0.5759506821632385, -0.24801194667816162, 0.6343349814414978, -0.31629693508148193, -0.338491290807724, 0.06430747359991074, -0.48366087675094604, -0.7087079286575317, 0.09872224926948547, -0.17529724538326263, -0.08986935764551163, -0.8079841732978821, 0.23227839171886444, -0.0664333626627922, -0.21732588112354279, -0.26900696754455566, -0.2977624535560608, -0.0059701381251215935, 0.7513577342033386, -0.5780547857284546, -0.020035404711961746, -0.29506969451904297, 0.5762090682983398, -0.2066197395324707, -0.07323035597801208, 0.020318524911999702, -0.0789966955780983, 0.5601403713226318, -0.8334590792655945, 0.7579243183135986, 0.35178831219673157, -0.6423313021659851, -0.4205728769302368, 0.5209641456604004, 0.7200586795806885, -0.025465430691838264, 0.39829713106155396, 0.3357654809951782, 0.602433979511261, 0.6981558203697205, -0.8928163051605225, -0.09758221358060837, 0.15593570470809937, -0.21306204795837402, -0.8258389830589294, -0.27755609154701233, 0.16631874442100525, -1.23980712890625, -0.602010190486908, -0.6270104646682739, -0.18763303756713867, 0.16551001369953156, -0.5799840688705444, 0.4426337778568268, 1.0810579061508179, 0.11788759380578995, -0.40421202778816223, -0.41287022829055786, -0.29398736357688904, 0.25234586000442505, -0.34855011105537415, 0.20626741647720337, -0.4185361862182617, 0.30601441860198975, 0.3429374396800995, 0.646271824836731, 0.6647536158561707, -0.038689158856868744, 0.3453349471092224, 0.1736779808998108, 0.35373643040657043, -0.6034088134765625, 0.02346806414425373, 0.2682996094226837, 0.5987302660942078, -0.4695471227169037, -0.03113402985036373, -0.3153142035007477, 0.36622971296310425, 0.8481663465499878, -0.82301926612854, -0.30666613578796387], [0.5506480932235718, -0.012590396218001842, -0.8156023621559143, -0.20317423343658447, -0.0026212132070213556, -0.16484467685222626, 0.20879009366035461, -0.09372161328792572, -0.2605062425136566, -0.8154224753379822, 0.30243998765945435, -0.7515960335731506, 0.27101218700408936, -0.6424397230148315, 0.033989060670137405, 0.09318269044160843, 0.7136624455451965, 0.21431413292884827, 0.33572423458099365, 0.5488333702087402, 0.22806388139724731, 0.18936826288700104, -0.20853888988494873, -0.9768215417861938, 0.14448250830173492, -0.5102304816246033, -0.3899158239364624, 0.5694934129714966, -0.23202340304851532, -0.4177325963973999, 0.6098412275314331, -0.6614934802055359, -0.21091167628765106, -0.3023066520690918, 0.3580867648124695, -0.26151835918426514, -0.2819858193397522, -0.021756036207079887, -0.5745058655738831, -0.5624969601631165, -0.278135746717453, 0.18371444940567017, -0.1312667727470398, -0.30436214804649353, 0.03132253885269165, -1.0935949087142944, 0.2828567624092102, 0.031436771154403687, -0.2689823806285858, -0.10285463184118271, 0.46861907839775085, -0.36740753054618835, 0.1325097233057022, 0.19658593833446503, -1.1349502801895142, -0.28118896484375, -0.35548385977745056, -0.0005217396537773311, -0.3458124101161957, -0.30621713399887085, 0.20643620193004608, 0.618646502494812, -0.2807531952857971, 0.1397092044353485, -0.26540079712867737, -0.3894354999065399, -0.16949647665023804, 0.388446569442749, 0.13282853364944458, -0.06329293549060822, -0.07553013414144516, -0.02563619054853916, -0.09034893661737442, 0.3723759055137634, -0.10348619520664215, 0.8436461687088013, -0.645055890083313, -0.04692091420292854, -0.2990695834159851, 0.24453338980674744, 0.48593613505363464, 0.46476736664772034, -0.140973299741745, 0.031066933646798134, 0.06506374478340149, -0.5865986943244934, -0.1568356454372406, -0.96588534116745, -0.40340185165405273, 0.006424691528081894, 0.34420454502105713, -0.35790759325027466, 0.03839920461177826, -0.013702163472771645, -0.2776564061641693, -0.39568406343460083, 0.8209766149520874, 0.01196864154189825, 0.36957934498786926, 1.2302556037902832, 0.3943949043750763, 0.003999205306172371, 0.28830772638320923, 0.6959038972854614, 0.4326024651527405, 0.428913950920105, -0.22572371363639832, 0.3718809187412262, 0.002147538820281625, 0.012458945624530315, -0.4836388826370239, -0.0186272282153368, 0.25992071628570557, -0.07651495188474655, -0.31382492184638977, 0.009159838780760765, -0.1394161880016327, 0.10500548779964447, 0.7716953754425049, -0.27726292610168457, -0.12739558517932892, 0.34946390986442566, 0.3835988938808441, 0.14685867726802826, -0.5069594979286194, 1.3771169185638428, -0.026377057656645775, -0.19674327969551086], [0.11472203582525253, 0.21612806618213654, 0.29870641231536865, 0.967298150062561, 0.04986076056957245, -0.4591222405433655, 0.41988053917884827, 0.25812146067619324, -0.7342744469642639, -0.12055741250514984, 0.20816963911056519, -0.16733728349208832, -0.4326072335243225, -0.017230285331606865, -0.3956676125526428, -0.8043360114097595, -0.22604158520698547, 0.5640280842781067, 0.3128592371940613, 0.03821703791618347, -0.17913341522216797, 0.729865312576294, -0.5734491944313049, 0.11663223803043365, -0.04209635406732559, 0.4437677562236786, 0.3676450252532959, 0.2638012766838074, -0.2692069709300995, -0.5803712010383606, -0.10076294839382172, -0.6733315587043762, 0.5099523663520813, 0.07067696750164032, 0.3331467807292938, 0.2683243751525879, -0.49962618947029114, -0.06808742880821228, 0.3353748917579651, 0.6454617381095886, -0.2764146625995636, -0.3932532072067261, -0.08683855086565018, -0.16302776336669922, 0.5413153767585754, 0.13781821727752686, -0.658760666847229, 0.7499462962150574, 0.4119876027107239, -0.12062330543994904, -0.6535728573799133, -0.6545534729957581, -0.8935996294021606, 0.7309378385543823, -0.3475637137889862, 0.38928624987602234, 0.03110601007938385, 0.07019629329442978, -0.4211048483848572, -0.07526423782110214, -0.12410489469766617, 0.014420331455767155, 0.34344395995140076, -0.14479960501194, 0.2032492756843567, -0.0869307890534401, 0.4772682189941406, -0.03201116994023323, -0.553226113319397, 0.25944820046424866, 0.2810644507408142, 0.4936690032482147, -0.005899227689951658, -0.4850268065929413, 0.06669262796640396, -0.3890007734298706, 0.3748742341995239, 0.027069594711065292, -1.0566537380218506, 0.2733089029788971, -0.7156316637992859, -0.9798306226730347, -0.7313032746315002, 0.2657721936702728, -0.2058873325586319, -0.7533729076385498, -0.16722224652767181, 0.2543189525604248, -1.2461607456207275, 0.37888696789741516, 0.2653639316558838, -0.35007724165916443, -0.8440792560577393, -0.11657530814409256, 0.058018289506435394, 0.13812732696533203, -0.1847289800643921, -0.028526032343506813, -0.2147100269794464, 0.30719664692878723, -0.2829854190349579, -0.14729787409305573, 0.6153534054756165, 0.4714418351650238, -0.16503266990184784, -1.0714502334594727, -0.3571820855140686, -0.932227611541748, 0.2522773742675781, -0.5059646964073181, 0.7581467628479004, 0.5569159984588623, -0.6878933310508728, 0.6913021206855774, 0.33130449056625366, -0.3152780830860138, -0.3373807668685913, 0.5072066783905029, -0.2718966603279114, -0.5888513922691345, 0.09238413721323013, -0.09579523652791977, 0.24480341374874115, 0.2009059190750122, 0.10270922631025314, -0.19304043054580688, -0.6622893214225769, 0.03473391756415367], [-0.43722397089004517, -0.0232741329818964, -0.048563145101070404, -0.4369097054004669, -0.18182766437530518, -0.5301191210746765, 0.662873387336731, 0.6893272995948792, -0.052646856755018234, -0.4053981304168701, 0.15216083824634552, -1.1323548555374146, 0.26439979672431946, 0.2346811443567276, 0.42243680357933044, -0.08371444791555405, -0.16321149468421936, -0.35133835673332214, -0.8042251467704773, -0.17475482821464539, -0.13318775594234467, -0.26537224650382996, -0.04195164516568184, -0.08066728711128235, 0.7579898834228516, 0.35737377405166626, 0.3496485650539398, -0.45734235644340515, -0.2790323495864868, 0.5374287366867065, -0.04754764214158058, 0.32537347078323364, -0.4182925224304199, 0.19216305017471313, 0.38964220881462097, 0.5532313585281372, -0.06847401708364487, -0.3422442674636841, -0.3929220736026764, -0.22788530588150024, -0.8096843957901001, 0.7194910645484924, 0.4128464162349701, -0.2759752571582794, -0.7334787249565125, -0.25722062587738037, 0.555548369884491, 0.16985255479812622, -0.13967768847942352, 0.09179078042507172, -0.15943537652492523, -0.01630173809826374, -0.24556881189346313, -1.2417482137680054, -1.3435760736465454, -0.8366965651512146, 0.09766624122858047, 0.03495599329471588, -0.5812250971794128, 0.6726897954940796, 0.3401675820350647, 0.5839303731918335, 0.19400282204151154, 0.4264013171195984, 0.6073485612869263, 0.7562439441680908, 0.04390309378504753, 0.08462952822446823, 0.3389238715171814, 0.005938449874520302, -0.36737969517707825, 0.3106725215911865, -0.10291214287281036, 0.017437076196074486, -0.0019421001197770238, -0.377005398273468, 0.43609559535980225, -0.2216845452785492, 0.04982813820242882, 0.16708464920520782, 0.08468413352966309, 0.022498317062854767, -0.5922819972038269, -0.5288673639297485, -0.0003619785129558295, 0.09777393937110901, -0.4325178265571594, -0.8343578577041626, 0.8677834272384644, 0.3457774817943573, -0.7885874509811401, -0.4453449845314026, 0.094998799264431, -0.14135688543319702, 0.17708289623260498, -1.2646321058273315, -0.476176381111145, 0.019200239330530167, -0.698286771774292, -0.14251887798309326, 0.4664549231529236, 0.561101496219635, -0.1285475790500641, 0.7092384099960327, 0.6045316457748413, -0.25856032967567444, 0.2013358622789383, 0.019899491220712662, 0.07451988011598587, -0.3013523519039154, -0.18104767799377441, -0.6536930203437805, 0.5700072050094604, 0.3886914849281311, -0.2721942961215973, -0.6963680982589722, -0.048189107328653336, 0.2164105325937271, 0.2795239984989166, -0.34334754943847656, -0.39159253239631653, 0.5471331477165222, -0.42625147104263306, 0.08802250772714615, 0.19606581330299377, -0.43911850452423096, -0.006697951350361109, -0.44533678889274597], [-0.25369447469711304, 0.03802340850234032, 0.2738063633441925, -0.2886177599430084, 0.43521004915237427, 0.11866012960672379, -0.9292519688606262, -0.026198193430900574, 0.6195555925369263, 0.19895292818546295, -0.26657989621162415, -0.6289262175559998, -0.35384416580200195, -0.20067809522151947, 0.16293984651565552, 0.12873460352420807, 0.37625136971473694, 0.31658878922462463, -0.46212390065193176, 0.10501935333013535, 0.03840077668428421, -0.1610635668039322, -0.14401471614837646, 0.3300861418247223, 0.22501640021800995, 0.6859543919563293, -0.6964182257652283, 0.20707522332668304, 0.3618442416191101, 0.3451198935508728, -0.29007452726364136, 0.6696391701698303, 0.23165272176265717, 0.2737111747264862, -0.22003160417079926, 0.5518050193786621, 0.7837933897972107, 1.0315033197402954, 0.15771283209323883, -0.4656309187412262, -0.9231034517288208, -0.4758608341217041, 0.08965952694416046, 0.142000213265419, -0.279543936252594, -0.26617881655693054, 1.0451602935791016, 0.5786928534507751, 0.9265909194946289, -0.023826293647289276, 0.1468782126903534, 0.6289629936218262, 0.2259254902601242, -0.663644015789032, 0.5170696973800659, 0.06966176629066467, -0.010591345839202404, -0.17631210386753082, 0.8667307496070862, 0.6905266642570496, -0.593184769153595, 0.06452673673629761, 0.006903190165758133, -0.37488099932670593, 0.48362642526626587, -0.06291527301073074, 0.44421303272247314, 0.5075265169143677, 0.7759983539581299, 0.8356872200965881, 0.20502477884292603, 0.3412016034126282, 0.34512048959732056, 0.4306600093841553, 0.23328393697738647, -0.8665463328361511, 0.12452951073646545, -0.10608472675085068, -0.30922508239746094, 0.17482583224773407, -0.11046522110700607, 0.0718596875667572, -0.2615259885787964, 0.24220843613147736, -0.16285568475723267, -0.14611029624938965, 0.2132914960384369, 0.13774609565734863, -0.07250788807868958, 0.33296748995780945, -0.257039338350296, 0.5338228344917297, -0.8178551197052002, -0.2994309961795807, -0.10984145849943161, 0.630151093006134, 0.43266066908836365, -0.24352143704891205, 0.8551814556121826, 0.21225544810295105, -0.3431917428970337, -0.3579142987728119, 0.5013026595115662, -0.30740389227867126, 0.7291012406349182, 0.7434262037277222, 0.22421827912330627, -0.06387176364660263, -0.393604576587677, -0.030976712703704834, -0.18064579367637634, 0.24647507071495056, -0.4258121848106384, -0.07271081209182739, 0.2633945047855377, -0.5421454310417175, -0.5118181705474854, -0.5013170838356018, -0.10330378264188766, -0.4093158543109894, 0.22063328325748444, 0.28800728917121887, 0.450573593378067, -0.22953857481479645, -0.5964885354042053, -0.13084638118743896, -0.5583246350288391, 0.140620157122612], [0.4294183552265167, -0.1743014007806778, -0.17749999463558197, -0.18740814924240112, -1.045276165008545, 0.034288614988327026, -0.5376350283622742, -0.47487205266952515, -0.02686379849910736, -0.1588444709777832, -0.2636792063713074, 0.7329237461090088, -0.6870848536491394, -0.7010035514831543, -0.06272980570793152, 0.47214454412460327, 0.28765904903411865, -0.3660154938697815, -0.6170147061347961, 1.2593724727630615, 0.7798380851745605, -0.8268918991088867, 0.08193892240524292, 0.5994910597801208, -0.19525766372680664, 0.3123043477535248, -0.19923125207424164, 0.8059682250022888, -0.24870675802230835, -0.21673867106437683, 0.5317922830581665, -0.9758704900741577, -1.1178096532821655, -0.4242388904094696, -0.8670582175254822, 0.6222876310348511, 0.12835480272769928, 0.21767334640026093, 0.23927323520183563, 0.3255653381347656, 0.07612109184265137, 0.41909411549568176, -0.6706910133361816, 0.032113149762153625, -0.269711971282959, -0.04788455739617348, 0.21294128894805908, 0.409514844417572, 0.49419939517974854, -0.1756153702735901, 0.6514111757278442, 0.86129230260849, -0.5548346042633057, -0.09881708770990372, -0.04884794354438782, -0.20479346811771393, 0.8542363047599792, -0.13398736715316772, 1.1314443349838257, 0.3478114604949951, 0.057183362543582916, 0.0731072649359703, 0.11315624415874481, -0.09496894478797913, -0.35326629877090454, -0.05459395796060562, -0.5415067076683044, -0.024942094460129738, 0.9047245383262634, -0.15209545195102692, 0.23740074038505554, 0.147396981716156, -0.20207762718200684, -0.3506239950656891, 0.11765002459287643, 0.025865254923701286, -0.17989623546600342, 0.26962804794311523, 0.4658700227737427, 0.6733670234680176, -0.8567303419113159, 0.19903351366519928, 0.5411221981048584, -0.24040675163269043, 0.2044615000486374, -1.0049419403076172, -0.16767117381095886, -0.29659897089004517, -0.1042911559343338, 0.03946726396679878, -0.5926960110664368, -0.12766139209270477, 0.503902792930603, 0.9623240828514099, 0.4992794692516327, -0.04700056090950966, -0.446584552526474, -0.4209904074668884, 0.05542076379060745, -0.9415847063064575, -0.06534866988658905, -0.6058585047721863, -0.1863521933555603, -0.5197641849517822, -0.5191454291343689, 0.2738226652145386, 0.14782874286174774, 0.2539609968662262, -0.37737810611724854, 0.48568880558013916, 0.2044331431388855, 0.2897898852825165, -0.5722808241844177, 0.8244119882583618, -0.15010149776935577, 0.1515687257051468, 0.4471931755542755, 0.28047728538513184, -0.19817176461219788, 0.014140201732516289, -0.21904437243938446, 0.19319674372673035, 0.5099404454231262, -0.08581951260566711, -0.06419733911752701, 0.21188925206661224, 0.26131588220596313, 0.3231176733970642], [0.362106591463089, 0.11977820843458176, -0.23225019872188568, -0.634351372718811, -1.8364216089248657, 0.0776570588350296, -0.17688718438148499, 0.41739800572395325, 0.12557059526443481, -0.943734347820282, -0.26432231068611145, 0.43444231152534485, -0.21503522992134094, -0.07288648933172226, 0.2532285451889038, 1.3972645998001099, -1.2300671339035034, -0.10034676641225815, -0.33928075432777405, -0.7147623896598816, 0.03202592581510544, -0.5144331455230713, 0.2077074646949768, -0.3846004903316498, 0.11217352002859116, -0.392314076423645, 0.04156548157334328, -0.5123117566108704, -1.8673310279846191, 0.6696391701698303, -0.4258872866630554, 0.06317445635795593, -0.9182363748550415, -0.07205786556005478, -0.859261155128479, 1.013451337814331, 0.8140482306480408, 0.9676759839057922, -0.4344615340232849, 1.2755111455917358, -1.0442277193069458, 0.5888643264770508, -0.5124979615211487, 0.03735160827636719, -1.2472593784332275, -0.8100493550300598, 0.00022487319074571133, -0.15175078809261322, 1.886488676071167, -1.262669324874878, 0.1228831559419632, -0.4661599397659302, 0.4154093861579895, 1.16864812374115, -0.0008540931157767773, 0.5362377762794495, -0.20373836159706116, -1.1173604726791382, -0.18911683559417725, -0.9778689742088318, -0.5245671272277832, 1.0289576053619385, 1.0208537578582764, -0.2583733797073364, -0.3365349769592285, 0.056227073073387146, 0.7010849118232727, -0.10806933045387268, 0.1468673199415207, 1.104215145111084, 0.9554351568222046, -0.34253397583961487, -0.4278625249862671, 0.948708176612854, 0.44419607520103455, 0.47074025869369507, 1.7618858814239502, -0.07676560431718826, 0.24708275496959686, -1.1331158876419067, 0.6038691401481628, -0.7649309635162354, 0.6335749626159668, -0.4507818818092346, -1.2786353826522827, -0.2518031895160675, 0.8136931657791138, -0.7199137210845947, 0.635101318359375, -0.8920724987983704, -1.2521494626998901, 0.5621587634086609, 0.2118101865053177, 0.042660005390644073, -0.10927321016788483, -0.7657776474952698, 0.3841380476951599, 0.8664696216583252, -0.03938933461904526, 0.32529884576797485, -1.2565338611602783, -0.14876535534858704, -0.7387131452560425, -0.4096847474575043, 0.3053572475910187, 0.806540846824646, 0.966275155544281, -0.27255314588546753, 1.5177719593048096, -2.2238268852233887, 0.9833398461341858, -0.44726884365081787, -0.21740561723709106, 1.2449740171432495, 0.48963239789009094, 1.0570604801177979, -0.03465363010764122, -0.4197550117969513, -0.4864213466644287, -0.8896973133087158, 0.24229586124420166, 0.29535412788391113, -0.771624743938446, -1.0752179622650146, -0.01730712316930294, -1.0624384880065918, -0.7233035564422607, -0.6391845345497131], [-0.4569571316242218, 0.5284417867660522, 0.44711625576019287, 0.03419329598546028, -0.25119394063949585, 0.4141189455986023, -0.011637984775006771, 0.0667218267917633, -0.6953202486038208, 0.3094851076602936, -0.19761714339256287, 0.5845791101455688, -0.6474856734275818, -0.434466153383255, 0.07298040390014648, -0.1407966911792755, 0.8740609288215637, 0.7963801622390747, 0.9764986634254456, -0.44356584548950195, -0.5420073866844177, 0.38733890652656555, -0.2242199182510376, -0.42603248357772827, -0.43906283378601074, -0.45922648906707764, 1.3475922346115112, -0.37152519822120667, -0.19322462379932404, -0.36297404766082764, -0.15739646553993225, -0.5363641381263733, 0.3591081202030182, 0.10955920815467834, 0.014658362604677677, 0.347834050655365, -0.3666802942752838, -0.10448483377695084, -0.41797083616256714, -0.31601181626319885, -0.5920412540435791, 0.7839981913566589, 0.16429367661476135, -0.49404671788215637, -0.2119276076555252, 0.15032197535037994, -1.3076115846633911, -0.7292308807373047, -0.43996426463127136, 0.320963978767395, -0.2530919313430786, -0.03382277861237526, -0.2214527726173401, 0.22269880771636963, -0.19576171040534973, 0.25896400213241577, -0.946876049041748, -0.272090882062912, 0.6787877082824707, -0.6521399617195129, 0.2016962319612503, -0.05617242306470871, -0.4082391560077667, -0.32916533946990967, -0.8835747241973877, -0.5895132422447205, -0.24922221899032593, 0.37072423100471497, -0.21508336067199707, -0.06841994822025299, -0.5511119961738586, 0.026485413312911987, 0.313789427280426, 0.21080033481121063, 0.24105022847652435, 0.11412814259529114, 1.0512231588363647, 0.755236029624939, -0.20212595164775848, -0.08863451331853867, 0.16530776023864746, -0.36792972683906555, -0.38132336735725403, -0.15462879836559296, -0.6238378882408142, 0.3455432057380676, 0.3850160837173462, 0.6434284448623657, -0.7558237314224243, 0.2989386320114136, 0.21647021174430847, 0.41871747374534607, 0.8379565477371216, -0.3855080008506775, -1.0392005443572998, 0.18778713047504425, -0.7953006029129028, 1.203822135925293, 0.5981708765029907, -0.8979579210281372, 0.27710774540901184, -0.6213064789772034, -0.2875279486179352, 0.5288227796554565, -0.1471773236989975, 0.8199008107185364, -0.3610835373401642, -1.093875765800476, 0.7200518250465393, -0.5028204321861267, 0.4885353744029999, 0.4688950181007385, -0.5897064208984375, 0.643123209476471, 0.8317731618881226, 0.21458525955677032, 0.25806355476379395, 0.4722706079483032, 0.18655288219451904, -0.12459087371826172, 0.23035883903503418, 0.0737743228673935, 0.26349419355392456, 0.794593870639801, -0.2813451886177063, -0.41323143243789673, -0.5091081261634827, 0.18912585079669952], [0.19727033376693726, 0.029639512300491333, 0.7512461543083191, -0.3701622486114502, -0.16747485101222992, -0.5365256071090698, 0.0845523402094841, 0.29769134521484375, 0.22339345514774323, -0.5234484672546387, -0.4680398106575012, 0.46637606620788574, -0.42640185356140137, -0.5953843593597412, -0.4925127923488617, -0.2579059600830078, 0.15784330666065216, 0.12370394170284271, 0.5799396634101868, -0.27109670639038086, -0.08129894733428955, -0.11391028761863708, -0.8797122240066528, 0.2125638872385025, -0.21088440716266632, -0.20864564180374146, -0.7385237216949463, -0.24276047945022583, 0.4301777184009552, 0.16786698997020721, 0.5900828838348389, -0.24306334555149078, 0.6025481224060059, 0.20054098963737488, -0.12962646782398224, -0.6326509118080139, 0.4175935685634613, -0.14835123717784882, 0.29460394382476807, 0.4843774437904358, -0.7872399091720581, -0.34669622778892517, 0.377451092004776, -0.6575560569763184, 0.5774771571159363, -0.011265064589679241, 0.13440440595149994, -0.043719615787267685, -0.36002442240715027, 0.05566534027457237, 0.009426807053387165, -0.09294671565294266, 0.1381557136774063, -0.02486913651227951, 0.7795633673667908, -0.5714383721351624, 0.1787346601486206, 0.3143813908100128, -0.6936514377593994, 0.5288258790969849, 0.6240057349205017, 0.6795753240585327, -0.002430665073916316, 0.7901949882507324, -0.023690126836299896, 0.051408551633358, -0.19998040795326233, 0.3689986765384674, 0.41346389055252075, -0.18195469677448273, 0.030664974823594093, -0.13024121522903442, -0.1678401678800583, -0.4987722635269165, 0.18723340332508087, -0.12081628292798996, -0.017455682158470154, -0.7820521593093872, -0.4001091718673706, 0.3095640242099762, 0.2842419445514679, -0.19489486515522003, 0.13131435215473175, 0.09810096025466919, 0.9867702126502991, -0.2599705159664154, -0.04711790382862091, -0.8670454025268555, 0.13679318130016327, 0.8081138730049133, -0.7285824418067932, 0.8694851398468018, 0.5256057977676392, -0.03324739262461662, 0.1999209225177765, -0.44427353143692017, 0.21900255978107452, 0.17466284334659576, 0.22968614101409912, -0.3434685468673706, 0.33227431774139404, -0.1986730843782425, -0.014567838050425053, 0.26966050267219543, -0.43776413798332214, -0.2846103608608246, 0.22704730927944183, 0.21350203454494476, -0.30881184339523315, 0.8561083674430847, -0.3556426167488098, 0.45821309089660645, -0.10552842915058136, 0.08648751676082611, -0.44822877645492554, -0.3995223343372345, -0.4952683448791504, -1.0277987718582153, -1.0063815116882324, -0.24377673864364624, 0.40459781885147095, 0.20763127505779266, -0.0755884200334549, -0.040419165045022964, -0.15650109946727753, -0.6821014285087585, -0.5920989513397217, 0.2689472734928131], [-0.5526782870292664, 0.3934452533721924, -0.14292901754379272, 0.3465561270713806, -0.480731725692749, 0.5118429660797119, 0.4949260950088501, -0.024136018007993698, 0.002952070441097021, 0.031131776049733162, 0.05303296446800232, -0.5209671854972839, 0.15759842097759247, 0.3328040540218353, -0.21844366192817688, 0.33331960439682007, -0.04234597086906433, 0.29461297392845154, 0.36551955342292786, 0.22430138289928436, -0.5760384798049927, -0.018740907311439514, 0.26557594537734985, 0.483707457780838, 0.6219556331634521, -0.39720073342323303, -0.1333274245262146, 0.07516417652368546, 0.31460294127464294, 0.431218683719635, 0.16464048624038696, -0.09958935528993607, 0.20960426330566406, -0.815270721912384, -0.17542114853858948, 0.20459318161010742, -0.7548980116844177, 0.3807888925075531, 0.23425748944282532, 0.610969603061676, -0.4311266243457794, -0.2082512378692627, 0.6635289192199707, 0.46431899070739746, 0.012867169454693794, 0.05948232114315033, 0.19714075326919556, 0.8261412382125854, -0.2959907352924347, 0.2139551341533661, 0.21972785890102386, 0.4059028923511505, 0.057241059839725494, -0.052038270980119705, -0.043273910880088806, -0.3094063103199005, -0.08823800832033157, -0.011391825042665005, 0.43047022819519043, -0.13363365828990936, -0.29890328645706177, -0.25725212693214417, 0.17658232152462006, 0.17956379055976868, -0.2551230192184448, 0.17376133799552917, 0.28296545147895813, -0.9209550619125366, 0.4820729196071625, -0.351045161485672, 1.3937519788742065, -0.2053927332162857, 0.08635526150465012, -0.26698005199432373, 0.3288530111312866, 0.2441822588443756, -0.44065040349960327, 0.1724608987569809, 0.2966669797897339, 0.1344686895608902, 0.05821856111288071, -0.1122150793671608, 0.07002560049295425, 0.1444268822669983, -0.37109166383743286, 0.5079958438873291, 0.7638292908668518, -0.03556519374251366, 0.5810427069664001, 0.13181908428668976, 0.29323822259902954, -0.3635498881340027, -0.9503409266471863, 0.6569905877113342, -0.06912793219089508, 0.06850246340036392, -0.3219774067401886, 0.9625440239906311, 0.5349921584129333, -0.09238535165786743, 0.30019646883010864, -0.8896304368972778, 0.07056734710931778, -0.13541682064533234, -0.10354013741016388, 0.30295827984809875, -0.02552599459886551, -0.244707852602005, 0.254814475774765, 0.11275007575750351, 0.7016437649726868, -0.32622572779655457, 0.38453882932662964, -0.17239171266555786, -0.19027327001094818, 0.47515636682510376, -0.4151778221130371, -0.3489016890525818, -0.5129119753837585, 0.23497867584228516, 0.09109426289796829, 0.2683720886707306, -0.044062111526727676, 0.09071584790945053, 0.2119780331850052, 0.05640440806746483, 0.11633729189634323, 0.07720751315355301], [0.3761884272098541, 0.38368910551071167, -0.7116784453392029, 0.20083235204219818, -0.5965669751167297, 0.031232133507728577, -0.25044897198677063, 0.514836847782135, -0.3445981740951538, 0.5103684663772583, -0.5866905450820923, 0.08065607398748398, 0.6264152526855469, -0.016782719641923904, 0.04504779726266861, -0.27454808354377747, -0.08270957320928574, 0.4338032007217407, -0.12805558741092682, -0.30849841237068176, -0.04588613659143448, -0.4129224121570587, 0.3043612539768219, 0.2715555429458618, -0.016686249524354935, -0.2501070201396942, -0.08588124811649323, -0.4557892084121704, 0.25356239080429077, -0.06415598094463348, 0.19812145829200745, 0.5596690773963928, 0.756201446056366, -0.6614413857460022, 0.23365503549575806, 0.14230826497077942, -0.44130808115005493, 0.2978931665420532, 0.14205549657344818, 0.17466852068901062, -0.23795752227306366, -0.012883718125522137, 0.24199460446834564, -0.02061144821345806, 0.004432864021509886, -0.05453791096806526, -0.02666897140443325, 0.25776025652885437, -0.08960941433906555, 0.6133408546447754, -0.00255090300925076, -0.007908478379249573, 0.434126615524292, -0.5884153842926025, 0.1502421647310257, -0.7965611815452576, 0.2346445620059967, -0.05655813217163086, -0.2519122362136841, 0.2808174788951874, 0.3970160484313965, -0.2633267343044281, -0.12772619724273682, 0.4143436849117279, 0.04364129155874252, -0.8703585267066956, 0.34543362259864807, 0.2029375433921814, 0.13242357969284058, 0.3134351968765259, 0.35237354040145874, -0.7273744344711304, -0.662501335144043, -0.6255093812942505, -0.2529429793357849, 0.14959222078323364, 0.3088538646697998, 0.15093791484832764, -0.4624142348766327, 0.38178569078445435, -0.6403824090957642, 0.5772044062614441, 0.002376940567046404, 0.2846767008304596, 0.6237896680831909, -0.5699911117553711, -0.04814686253666878, -0.49272871017456055, 0.2560727596282959, -0.16941042244434357, 0.377122163772583, 0.7389708161354065, -0.29333314299583435, 0.6125569939613342, -0.2446288913488388, -0.16800186038017273, -0.28838828206062317, -0.13322418928146362, 0.028948234394192696, 0.24156805872917175, 0.5485336780548096, -0.1121859923005104, -0.18530526757240295, -0.028766168281435966, -0.1907983273267746, 0.7124119400978088, 0.7230629324913025, -0.39352476596832275, 0.11683372408151627, -0.3735693097114563, 0.31746289134025574, 0.11474789679050446, 0.21612174808979034, -0.4804289638996124, -0.11215930432081223, -0.6810732483863831, 